#pragma once

#include <cstddef>
#include <cstdint>

const size_t attn_bias_array_shape[3] = { 12, 4, 192 };
float attn_bias_array[12][4][192] = { { { -0.013686619699001312f, -0.02612011320888996f, -0.010027463547885418f, 0.0039030308835208416f, -0.07320286333560944f, -2.7747888565063477f, -0.015644310042262077f, 2.1577045917510986f, 0.0397382490336895f, -0.33272576332092285f, -0.007253119722008705f, 0.02230149507522583f, -0.08457735925912857f, -0.019273212179541588f, 0.07988680154085159f, 0.18669120967388153f, -0.03751002252101898f, 0.013065051287412643f, -0.7527095675468445f, 0.028442922979593277f, -0.0305564533919096f, -0.042702820152044296f, 0.05803484097123146f, 0.06677398085594177f, -0.023503849282860756f, 0.3905763328075409f, 0.04169662296772003f, -0.2326595038175583f, -0.004951853770762682f, 0.024050194770097733f, 0.026010805740952492f, -0.011903778649866581f, -0.02257036417722702f, -0.6700527667999268f, 0.028677666559815407f, 0.029035866260528564f, -0.05778903514146805f, -0.06013697013258934f, 4.545881271362305f, -0.014174443669617176f, -2.9818167686462402f, -0.07043736428022385f, 0.01660231500864029f, 0.0025597389321774244f, 0.025873752310872078f, 0.04069108888506889f, -1.1639273166656494f, -0.588141679763794f, -0.004341471008956432f, 0.04796857386827469f, 0.018974576145410538f, -0.7425364851951599f, -0.014056515879929066f, 0.014722827821969986f, 0.09230586886405945f, -0.018730750307440758f, -0.2912209630012512f, -0.019230257719755173f, 0.061766937375068665f, 0.00320839392952621f, 0.034145232290029526f, 0.021317172795534134f, 0.004045671783387661f, -0.2048799693584442f, 0.18733027577400208f, 0.0031460465397685766f, 0.371168851852417f, -0.0001898260525194928f, -0.017562521621584892f, 0.13184645771980286f, -0.5105757117271423f, -0.11849546432495117f, -0.006862045731395483f, 0.45285284519195557f, 0.49192336201667786f, 0.1189364641904831f, 0.03379940986633301f, -0.2653398811817169f, -0.035749826580286026f, 0.022745516151189804f, 0.06044081971049309f, 0.6128692626953125f, 0.2813754975795746f, -0.030371353030204773f, -0.03568904474377632f, -0.15422388911247253f, -0.018523581326007843f, 4.863720417022705f, -0.0041185105219483376f, 5.312366485595703f, 0.10050275176763535f, -3.4918344020843506f, 0.02115332894027233f, 0.048924099653959274f, -0.00429333932697773f, 4.325766086578369f, 0.048180826008319855f, -0.6119489669799805f, -0.023417837917804718f, -0.13129450380802155f, -0.07207465916872025f, 0.021982835605740547f, -0.037732359021902084f, 0.015047048218548298f, 0.13328461349010468f, -0.33955252170562744f, -0.05322650820016861f, -0.26236334443092346f, 0.03872299939393997f, 0.019822655245661736f, -0.03835152089595795f, 0.06811924278736115f, -0.045552607625722885f, -0.12899048626422882f, 0.09606200456619263f, -0.13354264199733734f, -0.08275437355041504f, -0.6274644732475281f, -0.07611986249685287f, 0.0918852835893631f, 0.0936206802725792f, -0.017292063683271408f, 0.030717696994543076f, 0.03774774819612503f, 0.0029278388246893883f, 0.062035560607910156f, -0.03075992874801159f, 0.016854731366038322f, -2.212772846221924f, -0.20019757747650146f, -0.10312045365571976f, -0.0892719179391861f, -0.023620303720235825f, -0.07033689320087433f, -0.039434801787137985f, -0.15944015979766846f, -0.034754954278469086f, -0.12415323406457901f, 0.10724488645792007f, -0.18602728843688965f, 0.057586669921875f, 0.0302718598395586f, -0.03780553862452507f, -0.11926081776618958f, -0.0028931808192282915f, -0.025488225743174553f, 0.05246705934405327f, 0.02104482613503933f, -0.016863618046045303f, -0.11415042728185654f, -0.09944899380207062f, -0.03816719725728035f, -0.10298851132392883f, -0.08097660541534424f, -0.06288567930459976f, -0.038190025836229324f, -0.062146060168743134f, -0.06841462105512619f, -0.03621412068605423f, 1.935637354850769f, 0.03289708122611046f, -0.11432608217000961f, -0.1018613651394844f, 2.1466376781463623f, 0.007617205381393433f, -0.052610911428928375f, 0.03948887065052986f, 1.0819507837295532f, 0.0699632316827774f, -0.05559387803077698f, 0.06342430412769318f, 0.039775095880031586f, 0.05765874683856964f, -0.011526651680469513f, 0.09506992995738983f, 0.05174410343170166f, 0.0845736563205719f, 2.3472092151641846f, -0.09571961313486099f, -1.4172083139419556f, -0.02868051826953888f, -0.012238794937729836f, -0.268534392118454f, -0.17526467144489288f, -0.06208815425634384f, 0.04147595167160034f, 0.017615050077438354f, 2.01017427444458f, 0.11768810451030731f, 0.15479961037635803f, -0.05200376361608505f, -0.0097478237003088f },
  { -0.5755820870399475f, 0.28063663840293884f, 0.5944409370422363f, 0.319965124130249f, 0.23005594313144684f, -1.6039962768554688f, -0.14493316411972046f, 1.670581340789795f, -0.731849730014801f, -0.7709183096885681f, -0.21370777487754822f, -0.21457014977931976f, 0.16256770491600037f, -0.35753658413887024f, -0.5665026903152466f, 0.18321837484836578f, 0.08169398456811905f, -0.38587701320648193f, -0.33650484681129456f, -0.29454305768013f, -0.32435500621795654f, -0.07327040284872055f, 0.023250067606568336f, -0.5902589559555054f, 0.35939329862594604f, 0.23777908086776733f, 0.24382446706295013f, -0.9776254296302795f, 0.2597087621688843f, 1.0898799896240234f, -0.37393394112586975f, 0.30234119296073914f, -1.0099211931228638f, -0.6878076195716858f, -0.40417060256004333f, -1.133829951286316f, 0.6976915001869202f, 0.39822790026664734f, 1.787230372428894f, 0.15386863052845f, -1.395606279373169f, -0.5148059725761414f, -0.22530986368656158f, -0.5129031538963318f, -0.12751850485801697f, 0.4117768108844757f, -0.13242903351783752f, -0.7198326587677002f, 0.7808642387390137f, 0.24798692762851715f, 0.3819504976272583f, -1.5329279899597168f, -0.2504492402076721f, -0.9676368236541748f, 0.21115143597126007f, 0.33433279395103455f, -0.15452679991722107f, 0.6295598149299622f, 0.3610280454158783f, 0.88371342420578f, 0.4282679557800293f, -0.557036280632019f, 1.2874630689620972f, 0.2197188436985016f, -0.29150524735450745f, 0.07937431335449219f, 0.3029109835624695f, -1.0106827020645142f, -0.7995644807815552f, 0.013396084308624268f, -0.3917117118835449f, -0.272150456905365f, 0.09201090782880783f, 0.9408779144287109f, -0.025404006242752075f, -0.8251329660415649f, 0.3385258913040161f, 0.6005810499191284f, 1.0191655158996582f, -0.38398975133895874f, 0.765775203704834f, 0.48612260818481445f, 0.7431522011756897f, 0.7784671783447266f, -0.013311490416526794f, -0.18179942667484283f, -1.2793573141098022f, 0.797944188117981f, -0.22060933709144592f, 0.9730605483055115f, 0.11249706894159317f, -1.2147057056427002f, 0.5866666436195374f, -0.4245578646659851f, 0.5868082046508789f, 1.185256838798523f, -0.9412814378738403f, -0.4046100080013275f, -0.5145557522773743f, -0.9553924798965454f, -0.2248273342847824f, 0.6648191809654236f, -0.6816728115081787f, 0.8716329336166382f, 0.2575588822364807f, -0.3089470863342285f, 0.12068690359592438f, 0.029306035488843918f, 0.8593791723251343f, -0.4452480673789978f, 0.9008376598358154f, -0.2630859613418579f, 0.22315436601638794f, -0.2741069197654724f, 0.06178494915366173f, -0.19125956296920776f, 0.4113874137401581f, -1.5896755456924438f, -0.40472546219825745f, 0.7939680814743042f, 0.9877699017524719f, -0.08101912587881088f, -0.005196121986955404f, -0.9043202996253967f, -0.16611889004707336f, 0.5144030451774597f, -0.36022594571113586f, -0.32537779211997986f, 0.3230971693992615f, 0.8778620362281799f, -0.35518771409988403f, -0.7623522281646729f, -0.29444560408592224f, 0.5701383352279663f, 0.24057233333587646f, 0.18557262420654297f, -0.13981541991233826f, 0.2921067476272583f, 0.612839937210083f, -0.5931567549705505f, -0.006561762187629938f, -0.0961536094546318f, -0.286431223154068f, -0.622266411781311f, 0.383068323135376f, 0.37690550088882446f, 0.05706038698554039f, -0.5634669065475464f, 0.1232442632317543f, -0.1334029883146286f, 0.1814921647310257f, 0.28614646196365356f, -0.7166479229927063f, -0.08229973167181015f, -0.7629695534706116f, -0.28734683990478516f, 0.8090284466743469f, 0.15435709059238434f, -0.24454136192798615f, 0.8162896633148193f, 0.4249020516872406f, -0.0687519982457161f, 0.28748732805252075f, -0.4375653564929962f, -0.48150062561035156f, -0.21007384359836578f, -0.005535025615245104f, -0.36481747031211853f, 0.34676963090896606f, 0.4058796167373657f, -0.01583360694348812f, -0.8067817687988281f, -0.0590793713927269f, -0.5351963639259338f, -0.6264485120773315f, -0.10418033599853516f, -0.17625175416469574f, 0.6440961956977844f, 0.056994374841451645f, 0.033960431814193726f, 0.5813381671905518f, 0.5133588910102844f, 0.5072697401046753f, 0.6520892977714539f, -0.22155654430389404f, -0.3819906711578369f, -0.35440710186958313f, -0.23394319415092468f, 0.13563860952854156f, -0.47415363788604736f, -0.05985846370458603f, 0.1852421760559082f },
  { 0.02389417588710785f, 0.0018816504161804914f, 0.00106300029437989f, 0.0017119422554969788f, -0.02154945768415928f, 0.0336640328168869f, 0.027256036177277565f, -0.07180778682231903f, -0.0019194521009922028f, -0.01763211376965046f, 0.057022545486688614f, 0.0066459886729717255f, 0.010083909146487713f, -0.03256037458777428f, -0.06707174330949783f, -0.0009974563727155328f, 0.02014021947979927f, -0.0010908066760748625f, 0.027983317151665688f, 0.04679455980658531f, -0.026030365377664566f, -0.027688803151249886f, -0.017780007794499397f, 0.007214099634438753f, 0.011377234011888504f, -0.03572636470198631f, 0.08583837002515793f, 0.0032561402767896652f, 0.020875897258520126f, -0.052791718393564224f, 0.0151685094460845f, -0.017265507951378822f, 0.0032173115760087967f, -0.004860082641243935f, 0.010379387065768242f, 0.017818840220570564f, 0.00570318941026926f, -0.0254190806299448f, 0.017717987298965454f, -0.07712806761264801f, 0.013896994292736053f, -0.031302694231271744f, -0.0033142357133328915f, 0.03650713711977005f, -0.004386854358017445f, 0.0022394603583961725f, -0.01488905306905508f, -0.01417469885200262f, 0.011306715197861195f, 0.008773204870522022f, -0.006097775883972645f, -0.044304270297288895f, -0.03067266382277012f, 0.030618933960795403f, 0.012779603712260723f, 0.03220787271857262f, -0.023035570979118347f, 0.0030213198624551296f, -0.06579529494047165f, 0.006859485059976578f, -0.024035124108195305f, -0.010572550818324089f, -0.019827386364340782f, -0.021156543865799904f, 0.02910035103559494f, -0.009479054249823093f, 0.06503080576658249f, -0.007339875213801861f, 0.2159433662891388f, -0.06796208024024963f, -0.02602267824113369f, 0.22348327934741974f, -0.12183878570795059f, 0.008563078939914703f, 0.006576842628419399f, 0.15984466671943665f, 0.0038436981849372387f, -0.01580134406685829f, -0.0579315610229969f, -0.0010883506620302796f, 0.18542151153087616f, 0.061852239072322845f, 0.008090907707810402f, 0.01520781870931387f, -0.1550183892250061f, -0.15121154487133026f, 0.0030889841727912426f, 0.009657875634729862f, 0.0030735102482140064f, 0.02223850041627884f, 0.025765370577573776f, -0.01853697933256626f, 0.26200878620147705f, -0.02187357284128666f, -0.03274735063314438f, 0.05433399975299835f, -0.018268005922436714f, 0.2445000261068344f, -0.18285726010799408f, -0.02877792902290821f, 0.021374361589550972f, -0.1352592557668686f, -0.009174368344247341f, 0.0010949397692456841f, 0.053517211228609085f, -0.030839132145047188f, 0.001565447193570435f, 0.012574243359267712f, 0.022027740254998207f, 0.005959568545222282f, 0.012073023244738579f, 0.01952235959470272f, -0.06997807323932648f, 0.02915339730679989f, -0.012686670757830143f, -0.021476056426763535f, -0.05383753031492233f, 0.05769862234592438f, -0.22519980370998383f, -0.04515746235847473f, 0.002742728451266885f, 0.07445467263460159f, 0.0023370739072561264f, 0.0039270720444619656f, 0.10671376436948776f, -0.027453409507870674f, 0.0012273249449208379f, -0.0019887126982212067f, 0.027177942916750908f, 0.0023568165488541126f, -0.0009402230498380959f, -0.0072119650430977345f, -0.013065219856798649f, 0.007768953684717417f, 0.07242300361394882f, -0.0017347187967970967f, 0.011447550728917122f, -0.018045596778392792f, -0.1980169117450714f, 0.013410588726401329f, -0.027630414813756943f, -0.030221864581108093f, -0.09870035946369171f, -0.023705510422587395f, -0.0504063256084919f, -0.005285491701215506f, -0.013021382503211498f, -0.010902700945734978f, -0.01562440861016512f, -0.012039467692375183f, -0.017064128071069717f, -0.008624106645584106f, -0.031533047556877136f, 0.021120570600032806f, -0.031047867611050606f, 0.10623425990343094f, -0.018799884244799614f, 0.006602011155337095f, 0.026936694979667664f, 0.04762376844882965f, 0.0017751938430592418f, -0.021312633529305458f, 0.0055165584199130535f, 0.0064465380273759365f, 0.03749469295144081f, 0.025251775979995728f, 0.02270061895251274f, -0.02260446548461914f, -0.0036764959804713726f, -0.023390157148241997f, -0.009930646046996117f, -0.022357024252414703f, -0.0742429792881012f, -0.019074611365795135f, -0.27644944190979004f, -0.011376149021089077f, -0.06766235083341599f, 0.04590639844536781f, 0.007816951721906662f, -0.01554075162857771f, 0.002739440416917205f, 0.053235363215208054f, -0.02596689574420452f, -0.019905097782611847f, 0.003316860180348158f, 0.06015003100037575f, -0.018655210733413696f, 0.007117388304322958f, -0.009261755272746086f, -0.004575865808874369f, 0.000329953501932323f, -0.0319138802587986f },
  { -0.8717255592346191f, -0.3446153700351715f, 0.0387631356716156f, 0.3229205310344696f, 0.27199310064315796f, -0.707177996635437f, 0.7075528502464294f, -1.7085314989089966f, -0.7376699447631836f, 1.2892539501190186f, 0.4660763740539551f, -0.2110106498003006f, -0.5853005051612854f, -0.3579643666744232f, 0.5177176594734192f, 0.6038803458213806f, -0.20193806290626526f, -0.42504754662513733f, -0.7281320095062256f, 0.15789289772510529f, -0.06882417947053909f, 1.0117038488388062f, -0.0058240946382284164f, 0.4152154326438904f, 0.10557344555854797f, -0.1357146054506302f, -0.14620469510555267f, 0.776344358921051f, 0.2957736551761627f, 0.052522189915180206f, 0.2215409129858017f, -0.14959785342216492f, -0.6125872731208801f, 0.5439022183418274f, -0.22918735444545746f, -0.28162881731987f, -0.17601154744625092f, -0.6130889654159546f, 0.5645297765731812f, -0.17223379015922546f, -0.381588876247406f, -0.11265120655298233f, -0.09454996138811111f, -0.4934609532356262f, -0.3119828701019287f, 0.42934033274650574f, -0.5920989513397217f, 0.7015283107757568f, -0.0331089049577713f, 0.05340496450662613f, -1.2284374237060547f, 0.44668444991111755f, 0.002671385882422328f, 0.20636290311813354f, -0.5406827926635742f, -0.5301811099052429f, 0.8197813630104065f, 0.15331241488456726f, 0.5522271990776062f, -0.37757131457328796f, 0.2742004990577698f, 0.31535133719444275f, 0.8261719346046448f, -0.026823151856660843f, 0.013134101405739784f, 0.5343694686889648f, -0.12653596699237823f, -0.2005520612001419f, 0.13288766145706177f, -0.8067105412483215f, -0.16424678266048431f, -0.15985873341560364f, 0.13768704235553741f, 0.13400401175022125f, -0.48912888765335083f, 0.011313989758491516f, 0.1746787130832672f, 0.43680882453918457f, -0.8204864263534546f, -1.1687380075454712f, 0.19291748106479645f, 0.1197095513343811f, -0.8556097149848938f, 0.6861804723739624f, -0.16468337178230286f, 0.17202970385551453f, 0.046078868210315704f, 0.3384159207344055f, -0.21624407172203064f, 0.3312426507472992f, 0.6091284155845642f, -0.20897182822227478f, -0.011082688346505165f, -0.7777146100997925f, -0.008510257117450237f, 0.23633605241775513f, 0.5197674632072449f, -0.3339078724384308f, -0.5530470013618469f, -0.10700026899576187f, -0.24095353484153748f, -0.20485013723373413f, -0.007451654877513647f, -0.2948763072490692f, 0.07077635079622269f, 0.09749305248260498f, 0.08761228621006012f, -0.09225582331418991f, 0.34392911195755005f, 0.1917492300271988f, -0.17875096201896667f, -0.6147803664207458f, 0.3052956759929657f, 0.04496229067444801f, -0.12847106158733368f, -0.3042185306549072f, 0.30687186121940613f, 0.6128534078598022f, -0.05888063833117485f, -0.24224574863910675f, -0.20820900797843933f, 0.03726879879832268f, -0.2566605806350708f, 0.40593186020851135f, 0.4044629633426666f, 0.24909482896327972f, -0.4842599034309387f, -0.12074872106313705f, -0.46094411611557007f, -0.46700748801231384f, 0.4130570590496063f, 0.06945396959781647f, -0.562782883644104f, 0.5739377737045288f, -0.14271026849746704f, -0.23546642065048218f, 0.9845320582389832f, -0.43552491068840027f, -1.300825595855713f, 0.09443046152591705f, -1.724615454673767f, 0.30069294571876526f, 0.246784508228302f, -0.13619528710842133f, 0.7302262783050537f, -0.34109070897102356f, 0.20433779060840607f, 0.10974468290805817f, 0.8994433879852295f, -0.07559236884117126f, 0.967326819896698f, -0.5122966170310974f, 0.5364068150520325f, -0.11012900620698929f, 0.046467579901218414f, -0.16898773610591888f, -0.6962580680847168f, -0.020898859947919846f, 0.657112181186676f, -0.1129322499036789f, 0.31867215037345886f, 0.6061998605728149f, 0.7380404472351074f, 0.026080884039402008f, -0.965855062007904f, -0.42550066113471985f, -0.10706312209367752f, 0.6681452989578247f, -0.1611386090517044f, -0.14429603517055511f, 0.214347243309021f, 0.18527942895889282f, 4.480483531951904f, 0.1847611367702484f, 0.3825485408306122f, 0.029047200456261635f, -0.4050361216068268f, -0.5596042275428772f, -0.42310377955436707f, -0.2922629415988922f, -0.5389701128005981f, -0.1580650955438614f, -0.5076195597648621f, 0.07994593679904938f, 0.2946266829967499f, -0.17695333063602448f, 0.5339660048484802f, 0.13497744500637054f, 0.5444537401199341f, -0.23483559489250183f, 0.3362196981906891f, 0.9316532015800476f } },
  { { 0.08481517434120178f, 0.13118109107017517f, 0.36550426483154297f, 0.020599033683538437f, 0.002490073209628463f, 0.04006149247288704f, -0.09008630365133286f, -0.005725119728595018f, 1.8452216386795044f, 0.2948424816131592f, -0.22457624971866608f, 0.027211230248212814f, -3.176025629043579f, -0.06749050319194794f, 0.07419845461845398f, -0.24607600271701813f, 0.09656941145658493f, -0.4655344784259796f, 0.015350298024713993f, -0.011458280496299267f, 0.06321592628955841f, -0.02204795368015766f, -0.024521803483366966f, -0.12101738154888153f, -0.055261749774217606f, -0.17466653883457184f, 1.324463129043579f, 0.10430784523487091f, -1.0561339855194092f, 0.23923036456108093f, -0.04717697575688362f, 0.17002613842487335f, 0.08331981301307678f, 2.4150490760803223f, 0.12013864517211914f, 0.0458599291741848f, -0.029990745708346367f, -0.01970783993601799f, 0.05703921988606453f, 0.10483554750680923f, 0.08914127200841904f, -0.036843013018369675f, 0.24128633737564087f, 0.17396022379398346f, 0.05623912811279297f, -0.04651668667793274f, 0.0152545515447855f, -0.17213472723960876f, 0.9281050562858582f, -0.2127223014831543f, -0.2277286946773529f, 0.06487615406513214f, 0.07354237884283066f, 0.16003140807151794f, -0.10520590841770172f, -0.10507067292928696f, -0.09580066055059433f, -0.01121494360268116f, 0.20470881462097168f, -0.11759639531373978f, -0.22244028747081757f, 1.6177678108215332f, 0.00469775777310133f, 0.06160828843712807f, -0.01496101077646017f, -0.03739195689558983f, -0.0003795123193413019f, -0.17269518971443176f, 0.3008888363838196f, 0.21159300208091736f, -1.8422141075134277f, -0.521014392375946f, 0.15526418387889862f, 0.7797536849975586f, -0.5173529982566833f, -0.22247765958309174f, -0.19599977135658264f, 0.3883376121520996f, 0.08159783482551575f, -0.06076166033744812f, -0.13278578221797943f, -0.6614727973937988f, -1.0780693292617798f, -0.6318169832229614f, 0.15390992164611816f, -0.10297192633152008f, -0.03269294276833534f, 1.2077339887619019f, 0.032858848571777344f, 0.23851551115512848f, -0.35010895133018494f, -0.1270311176776886f, 0.432563841342926f, -0.05010514706373215f, 0.31789785623550415f, -0.01771892048418522f, 0.10939683020114899f, -0.611738383769989f, 0.024859905242919922f, 0.14430493116378784f, -0.47889915108680725f, 0.20784950256347656f, -0.6223558783531189f, 0.4013232886791229f, 0.16336852312088013f, 2.198294162750244f, -0.18511025607585907f, 0.04416273161768913f, 0.1061847135424614f, -1.3098870515823364f, -0.19630901515483856f, 0.19011853635311127f, -0.027340343222022057f, 0.6451759338378906f, -0.2906939685344696f, -0.7097401022911072f, -0.18058809638023376f, -0.9055248498916626f, 0.016388121992349625f, -1.2066632509231567f, -0.13583914935588837f, -0.012055128812789917f, 0.11017736047506332f, -0.148141548037529f, -0.06535068154335022f, 0.17897310853004456f, 0.08517218381166458f, 0.07726171612739563f, -2.428459644317627f, 0.009828931652009487f, 0.35218119621276855f, -0.7014602422714233f, 0.08143404871225357f, -0.6459832191467285f, 0.3247641623020172f, -0.378521203994751f, 0.03209533914923668f, -0.24720673263072968f, -0.19427913427352905f, 1.7268421649932861f, 0.2350933700799942f, -0.7699764966964722f, -0.12526585161685944f, 0.9150108695030212f, -0.041881248354911804f, -0.07819091528654099f, -0.34526243805885315f, 0.10630829632282257f, 0.1535550057888031f, -0.7456027269363403f, 0.017014238983392715f, 0.3170127272605896f, -0.27383726835250854f, 0.03460846468806267f, 0.06461209058761597f, 0.2649562656879425f, 0.1488918662071228f, 0.2643066346645355f, -0.9325682520866394f, -0.16403891146183014f, 0.009739130735397339f, -0.2552536129951477f, -0.029781552031636238f, -0.0038027598056942225f, -0.002867720788344741f, -0.49982455372810364f, 0.06748418509960175f, 0.09701931476593018f, 0.00021083738829474896f, 0.2371673285961151f, -0.037672631442546844f, -0.12651576101779938f, 0.1099543571472168f, 1.797550082206726f, 0.011339044198393822f, -0.09093499183654785f, 0.9495920538902283f, -0.3615608513355255f, -0.1297949254512787f, 0.007601514458656311f, 0.01618020236492157f, 0.28622764348983765f, -0.872663140296936f, -0.5638738870620728f, 0.29699739813804626f, -0.1866961419582367f, 0.5272575616836548f, 0.39236417412757874f, 0.1377667933702469f, 1.2611957788467407f, -1.6945127248764038f, 0.14537955820560455f },
  { 0.41843271255493164f, -0.10012169927358627f, 0.8811579942703247f, -0.024566860869526863f, 0.0865001454949379f, -0.6831554770469666f, 0.2776017487049103f, -0.010614153929054737f, -0.6544989347457886f, -0.3510533571243286f, 0.6032326221466064f, -0.9179900288581848f, -0.14519956707954407f, -0.9654619693756104f, 0.1465819776058197f, -0.3831372559070587f, 0.30146098136901855f, -0.1969565451145172f, 0.4306030869483948f, 0.19913333654403687f, -0.19024339318275452f, -0.685177743434906f, 0.7920297980308533f, -0.26365116238594055f, 0.3402498960494995f, -0.3610941469669342f, -1.1856783628463745f, 0.2392340749502182f, 1.5211942195892334f, 0.24918325245380402f, -0.5678865313529968f, 0.6557565331459045f, 0.556399405002594f, -0.14149679243564606f, -0.1690831482410431f, -0.4635850787162781f, 0.09058111906051636f, 0.3083871603012085f, 0.05677541345357895f, 0.7394360899925232f, -0.0010867819655686617f, -0.06502526998519897f, 0.17782379686832428f, -0.29047006368637085f, -0.08093063533306122f, -0.4414042830467224f, 0.09038342535495758f, -0.0666070505976677f, 0.6687442064285278f, -0.650780439376831f, 0.27584168314933777f, -0.32619550824165344f, -0.7326054573059082f, 0.19518767297267914f, -0.24798645079135895f, 0.007851209491491318f, -0.9687513113021851f, -0.032973166555166245f, 0.16450178623199463f, 0.35589686036109924f, -0.40133020281791687f, -0.9306203722953796f, 0.07363682985305786f, 0.25997036695480347f, -0.6627113819122314f, -0.9542306661605835f, 0.6344682574272156f, 0.04024943709373474f, 0.7989016771316528f, 0.9057415127754211f, -0.775047242641449f, -0.5560749173164368f, 0.7102803587913513f, 0.3385067284107208f, -0.5118632912635803f, -0.15669138729572296f, -0.17070606350898743f, 0.09411398321390152f, 0.32026976346969604f, -0.2622188627719879f, -0.4088728427886963f, -1.4160081148147583f, -0.5400099754333496f, -1.4725896120071411f, -1.4518513679504395f, 0.827408492565155f, -0.6654534935951233f, -0.316661536693573f, -0.7363836169242859f, 0.6084339618682861f, 0.33886656165122986f, 0.7600270509719849f, -1.4849498271942139f, 0.21598736941814423f, -0.271317720413208f, -0.05426952242851257f, -0.07743627578020096f, -0.157152459025383f, 0.1327294260263443f, 1.3771742582321167f, -0.03063667193055153f, -0.49666014313697815f, 0.4276503920555115f, 0.543523371219635f, 1.2567476034164429f, -0.1503249704837799f, -1.2584078311920166f, 0.14357323944568634f, -0.4532480835914612f, -1.2800523042678833f, -0.4993205964565277f, -0.5038823485374451f, -0.04065825790166855f, -0.08226366341114044f, 0.15978461503982544f, -0.994338870048523f, 0.02271672897040844f, -0.5675175189971924f, 0.30068835616111755f, -1.1939798593521118f, -0.9927645921707153f, 0.44620734453201294f, -0.36219730973243713f, 0.004638976417481899f, 0.13818559050559998f, -0.7950007915496826f, 1.1267285346984863f, -0.34503039717674255f, -4.653065204620361f, 0.4125814139842987f, -0.3887176811695099f, -3.08309006690979f, -0.3840770125389099f, 0.46785596013069153f, -0.630148708820343f, -0.7330768704414368f, 0.014847694896161556f, 0.038102708756923676f, -0.6204409003257751f, 2.35685133934021f, 0.6138244271278381f, -0.4627154469490051f, -0.8331845998764038f, -0.18443012237548828f, 0.4286237359046936f, 0.3221895098686218f, -0.3046282231807709f, 0.7719030976295471f, 1.0704209804534912f, 0.8450708389282227f, 0.8844795823097229f, 0.1893014758825302f, 0.38326582312583923f, 0.5797802805900574f, -0.6340872049331665f, 0.25078660249710083f, 0.39692801237106323f, 0.44917842745780945f, -2.1082191467285156f, 0.4581281542778015f, -0.34569650888442993f, -1.3507447242736816f, -0.39016345143318176f, -0.5885086059570312f, -0.19224245846271515f, -1.1880919933319092f, 1.3987585306167603f, -0.2510249614715576f, 0.10994238406419754f, 1.717675805091858f, -1.1638178825378418f, -0.7976157665252686f, -0.25557953119277954f, 2.632646322250366f, 0.5425406098365784f, 0.12077275663614273f, 1.427886724472046f, -1.6407901048660278f, 1.4848897457122803f, 0.23516744375228882f, 0.0065248878672719f, 0.7862047553062439f, -1.7378551959991455f, -2.3478851318359375f, 0.2299911379814148f, -0.6158856153488159f, -0.23035788536071777f, 0.7102011442184448f, -0.8606511354446411f, 1.1650601625442505f, -2.038288116455078f, -0.5165538787841797f },
  { -0.01733807474374771f, 0.027139538899064064f, 0.01862594485282898f, -0.016057856380939484f, -0.01789706014096737f, 0.010134381242096424f, 0.006182791665196419f, 0.009795510210096836f, 0.011667875573039055f, 0.007773421239107847f, 0.012473778799176216f, 0.0049011060036718845f, 0.028802722692489624f, 0.03357374295592308f, -0.008093167096376419f, -0.038740139454603195f, 0.017036421224474907f, 0.028026865795254707f, -0.006249028258025646f, -0.006279787514358759f, 0.01256790291517973f, 0.0091598154976964f, -0.031692858785390854f, 0.03864838555455208f, 0.01653711311519146f, -0.01020379364490509f, 0.015123815275728703f, -0.04895292967557907f, -0.008295731619000435f, -0.011236202903091908f, -0.014295876026153564f, 0.03329282999038696f, 0.0110636530444026f, 0.00583973852917552f, -0.007369411177933216f, 0.0009192039142362773f, 0.0015346509171649814f, -0.013008376583456993f, -0.07016991078853607f, -0.0022767886985093355f, -0.01863100938498974f, -0.0037123928777873516f, 0.010777565650641918f, -0.012659422121942043f, -0.003331125481054187f, 0.00494778947904706f, 0.005164489150047302f, -0.031647857278585434f, -0.0006783794960938394f, -0.016478117555379868f, -0.018681231886148453f, 0.01880410499870777f, 0.02032245695590973f, -0.006692990195006132f, 0.011755304411053658f, -0.001150707365013659f, 0.005363087169826031f, -0.008211947046220303f, 0.007682141847908497f, 0.0060991146601736546f, 0.0090439198538661f, -0.0008268372621387243f, 0.013334970921278f, -0.0006968569941818714f, 0.01594732329249382f, 0.002251293044537306f, -0.0004871169803664088f, -0.0027905013412237167f, 0.017478924244642258f, 0.014181029051542282f, 0.010087022557854652f, 0.02819734998047352f, -0.00985609833151102f, -0.013227017596364021f, -0.012957935221493244f, -0.006490466650575399f, 0.004694705363363028f, -0.0065546841360628605f, 0.008214482106268406f, -0.01595848798751831f, 0.004765561781823635f, 0.009290756657719612f, 0.0028178661596029997f, -0.00562652200460434f, 0.02314278483390808f, 0.026411648839712143f, -0.022688236087560654f, 0.019606037065386772f, 0.04548465088009834f, 0.010333708487451077f, -0.004151834640651941f, -0.017039533704519272f, 0.005534677300602198f, -0.004431175533682108f, 0.0008206104976125062f, -0.02199258841574192f, 0.013344185426831245f, -0.0019828109070658684f, 0.0053776768036186695f, -0.017207419499754906f, -0.0213449839502573f, -0.00129714235663414f, 0.012353897094726562f, -0.08841876685619354f, -0.006061866879463196f, -0.0047403122298419476f, 0.013294782489538193f, -0.009782060980796814f, 0.019892510026693344f, 0.02291363663971424f, 0.01675867848098278f, -0.015098968520760536f, 0.01834956556558609f, 0.020364535972476006f, -0.007330136373639107f, 0.010053841397166252f, 0.011174631305038929f, 0.01567694917321205f, -0.01637186110019684f, 0.004697123076766729f, 0.005526546388864517f, 0.007204047869890928f, -0.011925341561436653f, 0.014065957628190517f, 0.001845438964664936f, 0.004914276301860809f, 0.01058482751250267f, 0.014407103881239891f, 0.022285737097263336f, -0.08256995677947998f, -0.07699170708656311f, 0.06543652713298798f, -0.0732215940952301f, 0.1828918159008026f, 0.0009717558859847486f, 0.010462678968906403f, 0.07943343371152878f, 0.01570325344800949f, 0.04691758751869202f, -0.11805461347103119f, 0.03733253851532936f, -0.07197451591491699f, -0.004359309561550617f, -0.11145394295454025f, -0.06906718015670776f, 0.0946602150797844f, -0.04990966245532036f, 0.028786636888980865f, 0.03580643981695175f, 0.017002901062369347f, 0.10623471438884735f, -0.020589275285601616f, -0.032939258962869644f, 0.00853587407618761f, 0.0546637624502182f, -0.03105071187019348f, -0.03148975223302841f, -0.012968979775905609f, 0.10524905472993851f, 0.04038441926240921f, 0.091795414686203f, 0.005553839262574911f, 0.043317221105098724f, -0.093924880027771f, -0.0180165097117424f, -0.108419269323349f, 0.08043864369392395f, 0.08758579939603806f, -0.0014916079817339778f, -0.002951231552287936f, -0.08082606643438339f, -0.00023500845418311656f, -0.06702513247728348f, 0.06037084385752678f, 0.05554202198982239f, -0.027798932045698166f, -0.007942413911223412f, -0.02232343703508377f, -0.018624166026711464f, -0.03993763029575348f, -0.015301160514354706f, -0.03033827617764473f, 0.07517287135124207f, -0.0680614784359932f, 0.042576055973768234f, 0.018568130210042f, -0.08911345154047012f, 0.04671795666217804f, -0.01524683739989996f, 0.0517524853348732f, -0.07338669896125793f, -0.1150035485625267f },
  { -0.1954178661108017f, 0.16096696257591248f, -0.13568051159381866f, -0.12644541263580322f, 0.31230390071868896f, -0.2558530867099762f, -0.17721770703792572f, -1.8893554210662842f, 0.021416660398244858f, 0.8678315281867981f, -0.08220615237951279f, 0.18981537222862244f, 0.09562984853982925f, 0.5558781623840332f, 0.41499003767967224f, -0.037577930837869644f, -0.18994471430778503f, -1.4099489450454712f, 0.45186153054237366f, -0.21696001291275024f, 0.11810344457626343f, -0.2832941710948944f, -0.15059123933315277f, -0.1609257459640503f, -0.011476486921310425f, -0.01229570247232914f, 0.2763800323009491f, 0.2871985137462616f, -1.1829010248184204f, -0.065423883497715f, -0.2713676691055298f, 0.3365005552768707f, -0.3926639258861542f, -0.44236627221107483f, 0.31913021206855774f, 0.4487428069114685f, 0.3833277225494385f, 0.28909677267074585f, 0.05738029256463051f, 0.004838113207370043f, 0.12618564069271088f, 0.12489976733922958f, 0.054758455604314804f, -0.14632731676101685f, 0.17692257463932037f, 0.02757016383111477f, 0.17586879432201385f, -0.41451072692871094f, -0.013484963215887547f, -0.047695472836494446f, 0.2478722184896469f, -0.4597991108894348f, 0.051677156239748f, 0.21148698031902313f, -0.29932188987731934f, 0.08290080726146698f, -0.3103848099708557f, -0.06202206015586853f, -0.05662417784333229f, 0.4530915915966034f, 0.12150198966264725f, 0.025271767750382423f, -0.40948525071144104f, -0.07142060995101929f, 0.14200173318386078f, -0.30983445048332214f, 0.05969295650720596f, -0.24788755178451538f, 0.05203021690249443f, 0.28231799602508545f, 0.04949861392378807f, 0.23891443014144897f, 0.04675375670194626f, -0.014262204058468342f, -0.025261150673031807f, 0.3109264373779297f, -0.19740746915340424f, 0.12876443564891815f, 0.1960468292236328f, -0.4050881266593933f, -0.1079879030585289f, 0.30932214856147766f, 0.4104176163673401f, -0.31955552101135254f, -0.17910896241664886f, 0.3955920338630676f, 0.14716510474681854f, 0.06260959059000015f, -0.24169635772705078f, -0.02515433356165886f, 0.7905881404876709f, 1.1104545593261719f, 0.24805030226707458f, 0.27813154458999634f, 0.15301500260829926f, -0.08705940842628479f, 0.5106752514839172f, -0.028532378375530243f, 0.2292277216911316f, 0.31923916935920715f, 0.057531535625457764f, -0.2395908683538437f, 0.035059891641139984f, 0.16338758170604706f, -0.23537686467170715f, -0.00905556883662939f, 0.8183106184005737f, 0.24094034731388092f, -0.023988792672753334f, -0.6705657839775085f, 0.2082311362028122f, 0.34432682394981384f, 0.04402422532439232f, 0.09888678044080734f, 0.13536947965621948f, 0.5082001090049744f, -0.055132023990154266f, 0.14574573934078217f, -0.03594142943620682f, 0.3789622485637665f, 0.1648605912923813f, -0.2616383731365204f, 0.16559700667858124f, -0.14166606962680817f, 0.048524174839258194f, -0.00119203410577029f, 0.28480666875839233f, 0.03794326260685921f, 0.02446814812719822f, 0.18941941857337952f, 0.09404407441616058f, -0.11171838641166687f, 0.3007614314556122f, 0.3109757602214813f, 0.09240125119686127f, -1.2789802551269531f, -0.13483093678951263f, 0.036136195063591f, -0.3893803656101227f, -0.2153620570898056f, -0.2774805426597595f, 0.5336161851882935f, -0.07306412607431412f, 0.09398012608289719f, 0.2881006598472595f, -0.2585991621017456f, -0.35229548811912537f, -0.22588719427585602f, -0.12706638872623444f, 0.22602885961532593f, 0.2520725131034851f, 0.08799208700656891f, -0.2624816596508026f, -0.08290980011224747f, -0.1920718103647232f, 0.31468313932418823f, 0.330144464969635f, 0.031308531761169434f, -0.16086284816265106f, 0.03383524715900421f, 0.04119407758116722f, -0.13504737615585327f, -0.11960618942975998f, -1.0940585136413574f, 0.07331586629152298f, 0.028720764443278313f, -0.09888476133346558f, 0.054283615201711655f, -0.32431548833847046f, -0.16212154924869537f, -0.24093829095363617f, -0.09700677543878555f, -0.3130585253238678f, 0.09063893556594849f, -0.1812400370836258f, -0.023124882951378822f, -0.05307065695524216f, 0.15383069217205048f, 0.09106716513633728f, 0.2856835126876831f, -0.06892580538988113f, 0.22554245591163635f, 0.21902453899383545f, -0.3856951892375946f, 0.10075226426124573f, -0.03329349309206009f, -0.29537972807884216f, 0.2955477237701416f, 0.6537414789199829f, 0.18878108263015747f, 0.03109792061150074f, -0.24037419259548187f } },
  { { -2.2544806003570557f, -0.761429488658905f, -0.333393931388855f, -0.11248897761106491f, 0.07307188212871552f, 0.6391403675079346f, 0.03864874318242073f, 1.0863126516342163f, 0.0498930849134922f, 0.0888354629278183f, 0.21762917935848236f, -1.2928441762924194f, 0.48942869901657104f, -0.7965211868286133f, 0.8678666353225708f, -0.5055748224258423f, -1.8143750429153442f, -0.24639299511909485f, -0.020642848685383797f, -1.4587554931640625f, -0.6993791460990906f, 0.06910335272550583f, 0.27032047510147095f, -0.3647920787334442f, -0.1499120146036148f, 0.01913815177977085f, -0.06725024431943893f, 0.20465123653411865f, 0.08571945130825043f, -0.013052171096205711f, -0.3828694522380829f, 1.3696602582931519f, -0.7741884589195251f, 0.01683206669986248f, -0.0202050618827343f, -0.09139604866504669f, -0.05882975831627846f, -0.07047679275274277f, 0.03957831859588623f, 0.055736325681209564f, -0.08839017897844315f, -0.14374645054340363f, 0.11926881968975067f, 0.13155290484428406f, 0.04229004308581352f, -0.15783166885375977f, -0.09882262349128723f, -0.1472482979297638f, -0.03514661639928818f, 0.0614653080701828f, -0.18426302075386047f, 0.0007901759818196297f, 0.03615327551960945f, -0.013200544752180576f, -0.17426131665706635f, -0.16075456142425537f, 0.36602815985679626f, -0.04446127638220787f, 0.2752666175365448f, -0.9027291536331177f, 1.302791714668274f, -0.06137372925877571f, 1.0581464767456055f, 0.054310768842697144f, 0.18423743546009064f, -0.2913210988044739f, -0.41255730390548706f, -1.2208644151687622f, -0.22364374995231628f, -0.16581717133522034f, -0.37795132398605347f, -0.42297831177711487f, 0.4506983757019043f, -0.23382863402366638f, 0.10717970132827759f, -0.2915121614933014f, 0.02299249731004238f, 0.12758512794971466f, -0.42360109090805054f, 0.22106517851352692f, -0.012458739802241325f, 0.09176500141620636f, -0.10491474717855453f, 0.6969960331916809f, -0.316750168800354f, -0.008183272555470467f, 0.2520492374897003f, -0.6602926850318909f, -0.2106146514415741f, -0.4238341748714447f, 0.09708715975284576f, 0.4188652038574219f, 0.16466385126113892f, 0.16962693631649017f, 0.6060130000114441f, 0.21753768622875214f, -0.08135010302066803f, 0.842795193195343f, 0.06848599016666412f, 0.23740029335021973f, -0.5510091185569763f, 1.366352915763855f, 0.2778826653957367f, 0.3111122250556946f, 0.06856325268745422f, -0.34038862586021423f, 0.22503314912319183f, 0.4448792338371277f, -0.3480013608932495f, 0.05497825890779495f, -0.2878679931163788f, -0.22002927958965302f, 0.9641618132591248f, 0.9658694267272949f, 0.2867409288883209f, 0.2829069495201111f, -0.06101824715733528f, -0.2390088140964508f, -0.1316375583410263f, -0.1003706231713295f, -0.01907685212790966f, 0.16953682899475098f, -0.07554776966571808f, 0.31445831060409546f, -0.2513585686683655f, 3.4800171852111816f, -0.6105577945709229f, 0.17393384873867035f, 0.1551535725593567f, 0.2914541959762573f, -1.8079575300216675f, 0.1278229057788849f, -0.2705528140068054f, -0.3806983232498169f, 0.15644077956676483f, -0.16871343553066254f, -0.015666300430893898f, -0.007832782343029976f, 0.8359275460243225f, 0.5689681768417358f, -0.12042681127786636f, -0.4658971428871155f, 0.08382627367973328f, -0.6359960436820984f, -0.12486157566308975f, 0.4237106144428253f, 2.092522382736206f, 0.011476506479084492f, -0.0841047540307045f, -0.11926010251045227f, 0.8056442141532898f, 0.6310896277427673f, 0.21592174470424652f, 0.012925776652991772f, -0.6021217703819275f, -0.34178805351257324f, 0.1331942081451416f, -0.19602090120315552f, 0.10551123321056366f, -0.5934470295906067f, 0.053291164338588715f, -0.025222796946763992f, 0.15901532769203186f, 0.34061765670776367f, 0.05390263348817825f, -0.023700769990682602f, -0.052733585238456726f, -0.2153937816619873f, -0.4060763120651245f, 0.11196234822273254f, -0.07473525404930115f, 0.42055436968803406f, -0.5771229267120361f, 0.5074805617332458f, 1.6629232168197632f, 0.25184497237205505f, 0.15135830640792847f, -2.6829774379730225f, 0.09875380992889404f, 0.11665868014097214f, -0.27930787205696106f, -0.03634031489491463f, 0.1123308390378952f, -0.47615116834640503f, 0.3249320983886719f, 0.16243629157543182f, -0.041505664587020874f, 0.05120357871055603f, 0.03388254716992378f, 0.1549626886844635f, -0.016325145959854126f, -0.182759627699852f },
  { -1.8565372228622437f, 0.20069338381290436f, -0.5063437223434448f, 0.06777665764093399f, 0.17736564576625824f, 0.3656332492828369f, -0.6510180234909058f, 0.6970188617706299f, 0.4077959656715393f, -0.1805354505777359f, -0.5191349983215332f, -0.3381592333316803f, -0.05488204210996628f, -0.5751755833625793f, 0.09805219620466232f, 0.43751975893974304f, -0.5203657746315002f, 0.4463486969470978f, -0.27835679054260254f, -1.3546780347824097f, -0.24852924048900604f, 0.8558611869812012f, 0.3440242409706116f, 0.2920561730861664f, 0.2973249852657318f, 0.013333117589354515f, -0.5633571147918701f, -0.5764608979225159f, 0.11605201661586761f, -0.19886989891529083f, -1.9590650796890259f, 0.06025919318199158f, -0.3148784339427948f, -0.3132023215293884f, -0.8989457488059998f, 0.09108684211969376f, -0.4920359253883362f, 0.003267328254878521f, -0.6332131028175354f, -0.4380887448787689f, 0.6242127418518066f, -0.521594762802124f, -0.190639927983284f, -0.22395721077919006f, 0.4628620445728302f, 0.26010459661483765f, -0.4923228919506073f, -0.28164419531822205f, -0.3388269543647766f, 0.11703155189752579f, 0.39421015977859497f, 0.0884796679019928f, 0.5484958291053772f, 0.4799441993236542f, 0.3633827865123749f, -0.30594775080680847f, 1.3474103212356567f, -1.0068333148956299f, 0.6165928244590759f, 0.0028420421294867992f, 1.469885230064392f, 0.5727521777153015f, 0.6072612404823303f, -1.3989195823669434f, 0.010451368056237698f, -0.9712241888046265f, -0.1505001336336136f, -0.26132798194885254f, -0.819084882736206f, 0.056895118206739426f, -0.3539786636829376f, -0.6174801588058472f, 0.5180729627609253f, -0.2939280867576599f, 0.34684333205223083f, -0.6412471532821655f, 0.3218672573566437f, 0.3267230689525604f, -1.4255450963974f, 0.480197012424469f, 0.5332778096199036f, 0.04238244891166687f, -1.4209871292114258f, 0.4711504280567169f, -0.8167452812194824f, 0.029775984585285187f, -0.3791918456554413f, -1.4637784957885742f, -0.5963724851608276f, 0.5851146578788757f, 0.6642978191375732f, 0.17092685401439667f, 0.1341785043478012f, -0.2210516333580017f, 0.7444912195205688f, -1.0695381164550781f, -0.8926317691802979f, 0.40219756960868835f, 1.5019161701202393f, 0.29216432571411133f, -1.0452255010604858f, 1.5531774759292603f, -0.7946382164955139f, 1.1634305715560913f, -1.256690263748169f, -0.654801607131958f, -0.630234956741333f, 0.5083431601524353f, -0.6579568386077881f, -0.4765723943710327f, -0.920439600944519f, 0.5114187598228455f, 2.2736217975616455f, 1.6216647624969482f, 0.6212053298950195f, 0.7254238724708557f, 0.11573830246925354f, 0.047725860029459f, 0.19552816450595856f, 0.4232700765132904f, -0.787185788154602f, 0.6584164500236511f, -0.36459439992904663f, -0.2651779055595398f, -0.055081356316804886f, 2.3735578060150146f, -1.6166810989379883f, -0.08260948956012726f, -1.4041460752487183f, 0.4221554100513458f, -3.8734776973724365f, 0.6817764043807983f, 0.015150818973779678f, -0.6480016112327576f, -1.1169155836105347f, -0.21586252748966217f, 0.6032614707946777f, 0.5814281105995178f, 2.2571213245391846f, 0.21413293480873108f, -0.8512173295021057f, 2.176548957824707f, 0.22954383492469788f, -2.1768081188201904f, 0.5124704837799072f, 0.5576106309890747f, 2.9616472721099854f, -0.5180579423904419f, 0.36314892768859863f, -0.8841725587844849f, 0.28446269035339355f, 2.1229686737060547f, 0.34323105216026306f, -0.3611832857131958f, -0.8840563893318176f, -1.101623773574829f, 0.12369183450937271f, -0.21887174248695374f, -0.16948555409908295f, -2.2615392208099365f, -0.25036904215812683f, -0.8246579170227051f, 0.10236614942550659f, -0.5219601988792419f, -0.1480589509010315f, 1.351358413696289f, 0.8897019028663635f, -0.7395260334014893f, -1.232546329498291f, -0.11303025484085083f, -0.3730502426624298f, -0.028122151270508766f, -0.36692264676094055f, 0.48397544026374817f, 2.413628101348877f, -0.4090050160884857f, 0.3945646286010742f, -3.300694227218628f, -0.6240223050117493f, 0.28306686878204346f, -0.05076371505856514f, 1.3188133239746094f, 1.3674808740615845f, -1.85753333568573f, -0.04612180218100548f, 1.0615588426589966f, 0.027540430426597595f, -0.9851515293121338f, 0.31932899355888367f, -0.17312325537204742f, -0.4992331564426422f, -0.752708911895752f },
  { 0.015183267183601856f, -0.018733883276581764f, -0.021496783941984177f, 0.005469206254929304f, 0.0035560736432671547f, 0.0015951606910675764f, -0.006187241058796644f, -0.005254927556961775f, 0.0009576254524290562f, 0.0037556199822574854f, 0.005113194230943918f, 0.031327780336141586f, 0.005695438478142023f, -0.015122865326702595f, 0.02279594913125038f, 0.013266296125948429f, 0.0008360997890122235f, -0.016265489161014557f, 0.009209159761667252f, -0.012342497706413269f, 0.019375871866941452f, 0.02547275274991989f, 0.01274379063397646f, 0.009293792769312859f, -0.0019800446461886168f, 0.012948617339134216f, 0.01437399536371231f, 0.02383708395063877f, -0.012782011181116104f, 0.009305214509367943f, 0.002672957256436348f, 0.014604657888412476f, -0.012373615056276321f, 0.014403726905584335f, -0.015356798656284809f, -0.01373735349625349f, -0.016191773116588593f, 0.030339395627379417f, -0.0035240643192082644f, -0.004140431061387062f, -0.0023704185150563717f, -0.0010792704997584224f, 0.0037796939723193645f, -0.002853257581591606f, -0.001416006125509739f, 0.0017243162728846073f, 0.007898990996181965f, 0.010120459832251072f, 0.0022866150829941034f, 0.02832130528986454f, 0.004153228364884853f, -0.009477220475673676f, 0.016052288934588432f, 0.002944313222542405f, -0.003662127535790205f, 0.005999712739139795f, 0.005138064734637737f, 0.0038568307645618916f, -0.0065761771984398365f, -0.005904532968997955f, -0.01195134874433279f, 0.009625458158552647f, 0.0349443145096302f, 0.022488990798592567f, -0.010728321969509125f, -0.012869440019130707f, 0.02413143776357174f, -0.003230828559026122f, 0.004230698104947805f, -0.029889194294810295f, -0.02554507739841938f, 0.0008576143300160766f, 0.009208711795508862f, 0.005404381547123194f, -0.013257583603262901f, -0.011146205477416515f, -0.03325921669602394f, -0.015354405157268047f, -0.018780773505568504f, 0.016934728249907494f, 0.014432639814913273f, 0.019934648647904396f, -0.00941567774862051f, -0.005057050380855799f, -0.026571864262223244f, 0.022363895550370216f, 0.014853838831186295f, 0.0020867979619652033f, -0.006786499638110399f, -0.003373747458681464f, 0.0013188788434490561f, 0.005865202751010656f, 0.004742865916341543f, -0.020860962569713593f, -0.011599860154092312f, -0.0070989602245390415f, -0.007873431779444218f, 0.003686262760311365f, -0.002983176615089178f, 0.005572770722210407f, -0.014903364703059196f, 0.00019069819245487452f, -0.0016241283155977726f, 0.006130163557827473f, 0.002275259466841817f, -0.00880847405642271f, -0.004544340074062347f, -0.011484458111226559f, -0.02760329097509384f, -0.013818139210343361f, 0.008267156779766083f, 0.003786814631894231f, -0.0025488496758043766f, 0.0031149648129940033f, 0.0023204118479043245f, 0.009552604518830776f, 0.011399663984775543f, 0.007133465725928545f, -0.008488383144140244f, 0.006586205679923296f, -0.007578711956739426f, 0.0033339508809149265f, -0.005911828018724918f, 0.0020058334339410067f, -0.0013272318756207824f, 0.00647951103746891f, -0.012858958914875984f, 0.02834547683596611f, 0.041865117847919464f, -0.03440842032432556f, -0.0011392406886443496f, -0.03837236762046814f, -0.09970750659704208f, 0.13388600945472717f, -0.0065350038930773735f, 0.000702410121448338f, -0.027790304273366928f, -0.02086758427321911f, 0.007300735451281071f, -0.014167722314596176f, 0.005886157508939505f, -0.029804667457938194f, 0.015531254932284355f, -0.058214884251356125f, -0.0395190566778183f, -0.02649100497364998f, 0.07829435914754868f, -0.016818817704916f, 0.0048395018093287945f, 0.04015154018998146f, 0.003888787003234029f, 0.005994482897222042f, 0.022938555106520653f, 0.022535866126418114f, -0.04150119051337242f, -0.08419253677129745f, 0.04147372394800186f, -0.015241446904838085f, 0.027884481474757195f, -0.02360212802886963f, -0.039152469485998154f, -0.031650952994823456f, 0.029915565624833107f, -0.12232646346092224f, 0.011300343088805676f, -0.05433482304215431f, -0.0009758170344866812f, -0.02284480445086956f, 0.02060781419277191f, -0.08799794316291809f, -0.00317537528462708f, 0.011205801740288734f, -0.014414484612643719f, 0.007795227225869894f, -0.089595265686512f, -0.03536912053823471f, 0.03352581709623337f, 0.11215687543153763f, -0.0058227889239788055f, -0.0009392271167598665f, -0.03297313675284386f, -0.020133595913648605f, 0.020419729873538017f, -0.006656534969806671f, -0.13012687861919403f, -0.017432942986488342f, -0.029254356399178505f, -0.006472066510468721f, -0.034115150570869446f, -0.01902592182159424f, -0.009636632166802883f, -3.607241887948476e-05f },
  { 0.11857963353395462f, -0.08577032387256622f, -0.1030593141913414f, -0.062358152121305466f, -0.08070429414510727f, 0.14215444028377533f, -0.06533363461494446f, -1.1504572629928589f, -0.0005402265232987702f, 0.05667439475655556f, -0.026837024837732315f, -0.14575661718845367f, 0.04364505410194397f, 0.21361476182937622f, 0.09832452237606049f, 0.1797257512807846f, -0.0483570322394371f, -0.0677991658449173f, -0.033322688192129135f, -0.07491682469844818f, -0.197028249502182f, 0.014272624626755714f, -0.2866588830947876f, 0.06278138607740402f, -0.19288450479507446f, -0.20109157264232635f, -0.0019273858051747084f, 0.03276335820555687f, -0.741047203540802f, 0.008946188725531101f, 0.015638599172234535f, -0.10903076827526093f, -0.21830546855926514f, -0.1845981329679489f, -0.5015295743942261f, 0.5690501928329468f, 0.2202039361000061f, -0.0599978081882f, -0.2164434939622879f, -0.2534930109977722f, -0.03708868473768234f, -0.04530512914061546f, -0.01234754640609026f, -0.19503134489059448f, -0.04923730716109276f, 0.1176229789853096f, -0.15139418840408325f, -0.07159049063920975f, -0.32598620653152466f, -0.07857070863246918f, 0.22979019582271576f, 0.03565988689661026f, -0.02271834760904312f, 0.366645872592926f, -0.5845064520835876f, 0.16825225949287415f, -0.016232874244451523f, -0.0979432538151741f, -0.2670535147190094f, -0.05818358436226845f, 0.09668876230716705f, 0.021204814314842224f, -0.288356214761734f, 0.05037444457411766f, -0.1362205445766449f, -0.06725627183914185f, 1.2536752223968506f, -0.5982357263565063f, 0.010994208045303822f, -0.07677680253982544f, -0.006238124333322048f, 0.017981942743062973f, -0.0024699519854038954f, -0.0792485848069191f, 0.08576337993144989f, 0.18998582661151886f, -0.0060690585523843765f, 0.05360209196805954f, -0.12430925667285919f, -0.2169681191444397f, -0.45142439007759094f, 0.04185602813959122f, 3.160856008529663f, -0.19870151579380035f, -0.42057958245277405f, 0.1413392871618271f, 0.48138561844825745f, 0.03714895620942116f, -0.2457270324230194f, -0.05388689041137695f, 0.3779877722263336f, 0.8909221291542053f, -0.1799250692129135f, 0.12014563381671906f, -0.08744126558303833f, 0.02674158103764057f, -0.07137052714824677f, -0.05429393798112869f, -0.02916637435555458f, 0.24429713189601898f, 0.2746008634567261f, 0.006692145485430956f, -0.11242961138486862f, 0.09974915534257889f, 0.00221233326010406f, 0.12334663420915604f, 0.4862322509288788f, -0.0890699028968811f, -0.2010076642036438f, -0.23487727344036102f, 0.005846540443599224f, -0.2325843870639801f, 0.29234904050827026f, 0.004360536579042673f, -0.09241677820682526f, 0.1302264928817749f, -0.16891184449195862f, -0.08026964217424393f, -0.13877277076244354f, -0.0068994066677987576f, 0.01844150200486183f, -0.23772010207176208f, 0.0313117615878582f, -0.0814460963010788f, 0.005051531363278627f, 0.06246286258101463f, 0.08006464689970016f, 0.15172964334487915f, -0.028172215446829796f, 0.22595708072185516f, -0.09827163815498352f, -0.5460273623466492f, 0.15176095068454742f, 0.1352132260799408f, -0.2637394964694977f, -0.5748983025550842f, -0.0021278599742799997f, 0.06166049465537071f, -0.01091068796813488f, -0.21132008731365204f, 0.12470075488090515f, 0.393181174993515f, -0.0078003890812397f, 0.17758877575397491f, -0.046000272035598755f, -0.20856443047523499f, 0.883823037147522f, -0.3002229928970337f, -0.011113996617496014f, 0.01183711551129818f, 0.13138572871685028f, -0.1715543419122696f, -0.27592217922210693f, -0.12576508522033691f, -0.008616691455245018f, -0.0099453991279006f, 0.1773766428232193f, -0.16691111028194427f, 0.014192404225468636f, -0.10527807474136353f, -0.0651676207780838f, 0.022448306903243065f, -0.04933762922883034f, -0.14742900431156158f, -0.12955829501152039f, 0.13073976337909698f, 0.021923400461673737f, 0.17611455917358398f, -0.2607268989086151f, 0.007333188783377409f, -0.4817996919155121f, -0.07278454303741455f, 0.9950661659240723f, -0.14815287292003632f, -0.013855831697583199f, -0.11909177154302597f, -0.13314233720302582f, 0.05669800937175751f, -0.02181210182607174f, -0.0507315993309021f, -0.022430846467614174f, -0.17430642247200012f, -0.03987859562039375f, 0.028281675651669502f, -0.012479863129556179f, -0.19260434806346893f, 0.5030807852745056f, -0.1479843407869339f, 0.3617832660675049f, 0.06930602341890335f, -0.2437959462404251f, -0.053041912615299225f } },
  { { 0.5299095511436462f, -0.18441888689994812f, 0.07583994418382645f, 0.4280030429363251f, 0.5676743388175964f, -0.06041900813579559f, -0.9405692219734192f, 2.1099658012390137f, -0.8502037525177002f, 0.6774442195892334f, -0.03794994205236435f, 0.8370476961135864f, 0.5583328008651733f, -0.44219738245010376f, 0.680335283279419f, -0.26718759536743164f, -0.4392887353897095f, -1.339112401008606f, -0.05516728013753891f, 0.6050502061843872f, -0.1549362987279892f, 0.2379283905029297f, -1.0347157716751099f, -0.32040682435035706f, -0.2537672221660614f, -0.3507158160209656f, -0.16230663657188416f, 0.5958759784698486f, -1.1966739892959595f, -0.46772488951683044f, 0.0036638283636420965f, -0.1364232450723648f, 0.30177029967308044f, -0.15667615830898285f, -0.34241190552711487f, 0.029396221041679382f, -0.9053824543952942f, 0.20552964508533478f, 0.7081606388092041f, -0.32919326424598694f, 0.8003180027008057f, -0.36195310950279236f, -0.3849901258945465f, -0.8782403469085693f, 0.4198717176914215f, -0.6430359482765198f, -0.6831799149513245f, 0.7782267332077026f, 0.17659488320350647f, 0.3651439845561981f, -0.37586694955825806f, -0.9127653241157532f, -0.589356005191803f, -0.28248366713523865f, 0.13878312706947327f, 0.7875204086303711f, 0.2776316702365875f, 0.8494194746017456f, -0.06360652297735214f, -0.14600303769111633f, 0.18730281293392181f, -0.25546061992645264f, 1.2580682039260864f, 1.0751854181289673f, 1.3374180793762207f, 0.3605528473854065f, 0.843421459197998f, 1.4486384391784668f, 0.6127403974533081f, 0.36098653078079224f, -0.7988850474357605f, 0.5726615786552429f, 0.06231988966464996f, -0.5409963726997375f, 0.13634802401065826f, -1.469915747642517f, 0.5353690385818481f, 0.5434837341308594f, -1.2604336738586426f, 0.33683842420578003f, 0.02081759087741375f, -0.4427849054336548f, -1.9413037300109863f, -2.0089550018310547f, -0.48115435242652893f, -0.365570604801178f, -1.2598814964294434f, 0.5747671723365784f, 1.3494079113006592f, 0.9493910670280457f, -0.4320310354232788f, -0.10873047262430191f, -0.6174836754798889f, 0.5452214479446411f, 1.5259053707122803f, 0.29330751299858093f, -0.5809037685394287f, 0.642687201499939f, -0.3642493784427643f, 0.0017956409137696028f, -1.7797584533691406f, 0.9632271528244019f, 0.25800520181655884f, -1.005049705505371f, -1.6343046426773071f, -1.2676138877868652f, 0.0656827837228775f, -0.1753045618534088f, -0.3275643587112427f, 0.8666388392448425f, 0.8730021715164185f, -0.0743197426199913f, 0.13998296856880188f, 1.3362936973571777f, -0.2739468812942505f, -0.1558946967124939f, 0.048301830887794495f, -0.861595094203949f, 0.005117843858897686f, 1.0016049146652222f, -0.6372938752174377f, 1.4957315921783447f, -0.2152322232723236f, -0.620120644569397f, -0.5253456234931946f, 0.07808292657136917f, -0.13465173542499542f, 0.32912901043891907f, 0.03389713913202286f, 0.3645792007446289f, -0.06924935430288315f, 1.3002749681472778f, -0.00986981950700283f, -0.07460018992424011f, -0.031117001548409462f, 0.009265828877687454f, -0.08720798790454865f, 0.0673198327422142f, 0.09408795833587646f, -0.8836677670478821f, -3.7942099571228027f, -0.06583792716264725f, 0.5524458885192871f, 0.03014882653951645f, 2.0360279083251953f, 0.11266756802797318f, -0.07147327810525894f, -0.6801767349243164f, -0.09860262274742126f, -0.09243596345186234f, 0.022038819268345833f, -0.22904379665851593f, -1.847446322441101f, 2.7068967819213867f, -0.09844797104597092f, -0.08943107724189758f, 0.0747395008802414f, 0.11007217317819595f, -0.2144795060157776f, -0.08673956990242004f, -0.07889633625745773f, 0.14272230863571167f, -0.11214466392993927f, -0.26374390721321106f, -0.009843436069786549f, 0.08026272803544998f, -0.0123655516654253f, -0.23808307945728302f, 0.05722193047404289f, -2.3628604412078857f, -0.05135858803987503f, 0.141826331615448f, 0.06987771391868591f, 0.020388824865221977f, -0.06359893083572388f, -0.07800383865833282f, 0.04300085827708244f, 0.3240559995174408f, 0.006726644933223724f, -0.13442014157772064f, 0.006606584414839745f, 0.09161747992038727f, -0.07886596024036407f, 0.23401638865470886f, -0.0166997779160738f, -0.13771101832389832f, -0.08105958253145218f, -0.10846517235040665f, 0.013904170133173466f, -0.013653134927153587f, -0.06647709757089615f, 0.06877321004867554f },
  { -0.3370632231235504f, 0.17842699587345123f, -0.29012614488601685f, -0.09597548842430115f, -0.6316002607345581f, -0.29603540897369385f, 0.1954541653394699f, 0.2606029808521271f, 0.929402232170105f, -0.04108951985836029f, 0.6887145042419434f, 0.19162145256996155f, 0.5443150401115417f, 0.41708409786224365f, 0.3284316956996918f, -0.40205714106559753f, -0.8568416237831116f, -0.8205410242080688f, 0.3289809823036194f, 0.8996742963790894f, -0.6601107716560364f, -0.7097484469413757f, -0.3102099895477295f, 0.28444308042526245f, 0.2717633545398712f, -1.0598450899124146f, -0.6630339622497559f, -0.5797373056411743f, -0.18697792291641235f, -0.2592771649360657f, -1.2262850999832153f, 0.09417251497507095f, 0.6275247931480408f, -0.6257318258285522f, 0.592894434928894f, 0.9563508033752441f, 0.7071167230606079f, 0.44475460052490234f, -0.26308777928352356f, -0.21772722899913788f, 1.4042631387710571f, 0.6930193305015564f, -0.27983346581459045f, 1.1389302015304565f, 0.07638391852378845f, -1.7098182439804077f, 0.32762953639030457f, 0.05401412397623062f, -0.07304050028324127f, 0.3003941774368286f, 1.279220461845398f, 0.20912626385688782f, 0.17216984927654266f, -1.0335930585861206f, -0.2105521559715271f, -0.11468201130628586f, 0.3451025187969208f, 0.24224215745925903f, 0.8593640923500061f, 0.6551269292831421f, 0.4231645464897156f, -0.05778398737311363f, 0.36340346932411194f, 0.12407990545034409f, 0.013592401519417763f, 0.1444593369960785f, -0.6659607887268066f, -0.056197166442871094f, -0.36789777874946594f, -0.7072157263755798f, -0.7782571315765381f, 0.08708523213863373f, 0.2723408043384552f, 0.30023664236068726f, 0.282778263092041f, -0.5973274111747742f, 1.1944292783737183f, 0.5217940807342529f, 0.8414173126220703f, -0.21378609538078308f, 0.2500770688056946f, -0.7893666625022888f, 0.6470054984092712f, 0.06548973172903061f, -0.3050570785999298f, -0.3577619194984436f, 0.3814806044101715f, -0.19315388798713684f, 0.10689651221036911f, -0.748637318611145f, 1.6471184492111206f, 0.535473108291626f, -0.9609591960906982f, 0.12004578858613968f, 0.18660736083984375f, 0.2509182393550873f, 0.553412675857544f, -0.7245032787322998f, 0.028654851019382477f, -0.009473782032728195f, -0.5543223023414612f, -0.1337437480688095f, -0.047401681542396545f, 0.021045241504907608f, -0.2025909125804901f, 1.6347278356552124f, -0.6339554190635681f, -0.40229231119155884f, 0.20065189898014069f, -0.12719906866550446f, 0.12286591529846191f, -0.9895458221435547f, -1.2639453411102295f, -0.37396764755249023f, 0.9517654776573181f, 1.8744233846664429f, 0.0030583569314330816f, -0.9791904091835022f, 0.10495986044406891f, -0.04630236327648163f, 0.11525700986385345f, 0.10450810194015503f, 0.7746911644935608f, 0.5078341364860535f, 0.8993611335754395f, 0.2555333077907562f, -0.24196022748947144f, -0.2835339903831482f, -0.5705252289772034f, -0.07923990488052368f, -0.4124823212623596f, 3.0114736557006836f, -0.17463624477386475f, -0.7378730773925781f, 0.6752305030822754f, -0.7957912087440491f, 0.15217483043670654f, -0.020281489938497543f, 0.24122516810894012f, -0.793311357498169f, -3.0863914489746094f, -0.8971832990646362f, 2.1106040477752686f, 0.3054572641849518f, 3.6122658252716064f, 0.5115870833396912f, 0.03666727617383003f, -1.0016608238220215f, 0.16047656536102295f, -1.0321227312088013f, 0.09078425168991089f, -0.7438668608665466f, -3.483757972717285f, 3.5613839626312256f, -0.806840181350708f, -0.07522707432508469f, -0.08685784786939621f, 0.967406690120697f, -1.2667714357376099f, -0.0875433012843132f, -0.1854606568813324f, -0.6849788427352905f, -0.0835346132516861f, 0.06247353181242943f, -0.1740887314081192f, -0.42536354064941406f, 0.5523920655250549f, -0.08579378575086594f, 0.7769206166267395f, -3.238128662109375f, -1.7917625904083252f, 0.6765906810760498f, -1.2453480958938599f, -0.143470898270607f, 0.8489577174186707f, 1.685509443283081f, -1.3070513010025024f, 0.5665779709815979f, 0.6202830672264099f, 0.3901723325252533f, 0.22232426702976227f, 0.3123776614665985f, -0.22828687727451324f, 0.7317659854888916f, 0.8657932877540588f, -0.02726641297340393f, -1.8410042524337769f, 0.31915706396102905f, 0.49181559681892395f, 1.2102751731872559f, -1.821115493774414f, -0.7997839450836182f },
  { -0.01210903562605381f, -0.005579730030149221f, 0.005617515183985233f, 0.00319126108661294f, 0.002587156603112817f, -0.010509300045669079f, 0.027240073308348656f, -0.00025381543673574924f, -0.0007545106927864254f, -0.004894926678389311f, -0.014225814491510391f, -0.02293974533677101f, 0.001005946658551693f, -0.001994992606341839f, 0.005235932767391205f, 0.0037618856877088547f, 0.003666328266263008f, 0.005101942457258701f, -0.008259356021881104f, 0.025514692068099976f, 0.006223924923688173f, 0.00219154660589993f, -0.020804407075047493f, -0.00900521595031023f, 0.015389865264296532f, 0.000485529686557129f, -0.012049994431436062f, -0.008218931965529919f, 0.00023729309032205492f, -0.0007360231829807162f, -0.005871190689504147f, -0.00860635656863451f, -0.017172912135720253f, 0.0016513484297320247f, -0.04602058604359627f, -0.007374506909400225f, -0.016254756599664688f, 0.0010961944935843349f, -0.033316317945718765f, -0.024542436003684998f, 0.02908199280500412f, -0.008972269482910633f, -0.00705253891646862f, -0.007335193920880556f, -0.013317889533936977f, 0.00020506515284068882f, -0.014132348820567131f, 0.0243292897939682f, -0.006718754768371582f, -0.0006473506800830364f, -0.04277069494128227f, -0.006300781853497028f, -0.024975014850497246f, 0.007890217937529087f, 0.0003264520491939038f, 0.01667194627225399f, -0.004419310484081507f, -0.0001411718112649396f, 0.019502798095345497f, 0.0006859366549178958f, -0.009622195735573769f, 0.015195389278233051f, 0.022831445559859276f, -0.011476639658212662f, 0.003279954893514514f, 0.011465221643447876f, 0.015253609977662563f, -0.0034621977247297764f, 0.005393813829869032f, 0.010401955805718899f, 0.00189588638022542f, 0.02471737191081047f, 0.006479318719357252f, 0.002424811013042927f, -0.01303237397223711f, -0.01200470793992281f, -0.011706500314176083f, 0.00010329671204090118f, 0.002877551596611738f, -0.005192882847040892f, 0.008195126429200172f, -0.010494429618120193f, -0.004949140828102827f, -0.00696336105465889f, 0.0050109256990253925f, -0.00026784109650179744f, 0.0033554479014128447f, -0.009699429385364056f, 0.010868363082408905f, 0.0023330391850322485f, -0.001171986456029117f, 0.005150958895683289f, -0.00041052603046409786f, -0.01536813285201788f, 0.012187855318188667f, 0.008819843642413616f, -0.0009245612309314311f, 0.03079720214009285f, -0.0013685326557606459f, -0.03209170326590538f, 0.0030654207803308964f, 0.024670518934726715f, 0.03139653429389f, 0.004088220186531544f, 0.01795446313917637f, -0.000757315952796489f, -0.017085282132029533f, -0.009077759459614754f, 0.0011990356724709272f, 0.004737640265375376f, -0.00032874601311050355f, 0.009632891975343227f, -0.008683562278747559f, -0.0026235852856189013f, -0.011736514046788216f, -0.016458610072731972f, 0.0014884454431012273f, 0.009017136879265308f, -0.013445774093270302f, -0.0026181889697909355f, 0.00374622642993927f, -0.0027389361057430506f, -0.0006698877550661564f, -0.0029999276157468557f, 0.0007861216436140239f, 0.00240201479755342f, 0.016280367970466614f, -0.0021729732397943735f, -0.010576024651527405f, 0.004212591797113419f, 0.03607521578669548f, -0.00562172569334507f, 0.017073309049010277f, -0.0174805149435997f, 0.007933822460472584f, -0.03774768486618996f, -0.013393879868090153f, -0.028636818751692772f, -0.06854381412267685f, 0.0026345811784267426f, 0.05786432325839996f, 0.018380912020802498f, 0.003695050021633506f, 0.01113140769302845f, -0.028810882940888405f, -0.02284252643585205f, -0.021669695153832436f, -0.005151062738150358f, 0.0010103614768013358f, -0.05066516250371933f, 0.00544471200555563f, 0.02318645268678665f, 0.004274362698197365f, -0.03884148597717285f, 0.029132958501577377f, 0.0035856396425515413f, 0.03425909951329231f, -0.029807059094309807f, -0.017602235078811646f, 0.02444683015346527f, 0.003085179952904582f, 0.010388397611677647f, -0.01193950604647398f, -0.006545540876686573f, -0.007855990901589394f, 0.034610770642757416f, -0.1364162564277649f, 0.003015665803104639f, 0.05434349551796913f, -0.03308539465069771f, 0.005570637062191963f, 0.05317910388112068f, 0.020142994821071625f, 0.002358583966270089f, 0.013293574564158916f, -0.018625030294060707f, 0.022903641685843468f, 0.007042603101581335f, 0.032762330025434494f, 0.05147348344326019f, 0.005540285259485245f, 0.027772577479481697f, -0.013976603746414185f, 0.008137298747897148f, -0.019309982657432556f, 0.0016042510978877544f, -0.000653398281428963f, -0.026693684980273247f, -0.01659785583615303f, -0.012824427336454391f, -0.07573488354682922f, -0.006607524584978819f },
  { 0.17554330825805664f, -0.26530295610427856f, 0.06095670163631439f, 0.022588299587368965f, -0.23913703858852386f, -0.08388984203338623f, 0.21655113995075226f, -0.5100598335266113f, 0.017137112095952034f, -0.1383090764284134f, 0.08963809162378311f, -0.2026398777961731f, 0.04413464665412903f, 1.658400297164917f, -0.07090078294277191f, -0.029393628239631653f, 0.014428873546421528f, 0.26586633920669556f, -0.19539566338062286f, 0.024327030405402184f, -0.13432294130325317f, 0.19552458822727203f, -0.03740576282143593f, -0.04341987520456314f, 0.23942165076732635f, -0.3444143533706665f, -0.007861926220357418f, 0.2087106853723526f, -0.4482067823410034f, 0.2140287160873413f, -0.027977827936410904f, 0.17107082903385162f, 0.015889747068285942f, 0.012421824969351292f, -0.512122631072998f, 0.6470483541488647f, 0.06424001604318619f, 0.10423196852207184f, 0.12808549404144287f, -0.12349697947502136f, -0.05342501029372215f, 0.08354340493679047f, -0.03524966910481453f, -0.08012831956148148f, 0.05815168097615242f, 0.23356790840625763f, -0.518889307975769f, -0.1684633195400238f, 0.03157712519168854f, -0.10026131570339203f, 0.17405909299850464f, -0.09240984171628952f, 0.1741074025630951f, 0.06747328490018845f, -0.1883278340101242f, 0.15535689890384674f, 0.13379785418510437f, -0.116146020591259f, -0.17166557908058167f, -0.24982067942619324f, 0.011680679395794868f, 0.21349886059761047f, -0.064596027135849f, 0.0418735034763813f, -0.09185866266489029f, 0.06432729959487915f, 0.8028868436813354f, -1.0659818649291992f, -0.08728662878274918f, -0.24159371852874756f, -0.08272788673639297f, -0.20965416729450226f, 0.14366111159324646f, -0.08759041875600815f, -0.08468334376811981f, 0.26223039627075195f, 0.09975278377532959f, -0.14458192884922028f, 0.01375965029001236f, -0.15675516426563263f, -0.1755143702030182f, 0.2758582830429077f, 0.08672601729631424f, -0.15021377801895142f, -0.23132337629795074f, -0.07726223766803741f, 0.14384475350379944f, -0.1514628380537033f, -0.07035213708877563f, -0.016534382477402687f, 0.19470573961734772f, 0.710583508014679f, -0.08472204953432083f, -0.16892530024051666f, -0.14478208124637604f, 0.15738502144813538f, -0.021064894273877144f, 0.023775432258844376f, -0.05890252813696861f, 0.02010250836610794f, 0.03429707884788513f, 0.0120387002825737f, -0.22496607899665833f, -0.09067388623952866f, 0.38564950227737427f, -0.08234921842813492f, 1.8282432556152344f, 0.12152357399463654f, -0.005782180465757847f, 0.09922488033771515f, -0.07686031609773636f, -0.3497386574745178f, -0.6154665350914001f, 0.08898865431547165f, 0.04447673633694649f, -0.4521962106227875f, -0.1523660570383072f, -0.09819158911705017f, -0.3976385295391083f, 0.2367151975631714f, 0.018723079934716225f, 0.2694706618785858f, -0.0656348243355751f, 0.08884961903095245f, -0.018196357414126396f, -0.07825930416584015f, -0.1340649127960205f, 0.15047448873519897f, -0.12406519055366516f, -0.018235860392451286f, -0.11337504535913467f, 0.3342703580856323f, -0.011531640775501728f, -0.026844387874007225f, -0.23771195113658905f, -0.773872971534729f, -0.04356416314840317f, 0.05719498172402382f, -0.019630838185548782f, 0.1709895133972168f, 0.012804803438484669f, 0.35234305262565613f, 0.0413251593708992f, 0.0171071607619524f, -0.029546773061156273f, -0.2225850224494934f, -0.36970919370651245f, 0.1322649121284485f, 0.029907777905464172f, 0.05864012613892555f, 0.2448374629020691f, -0.04700339213013649f, -0.04473520815372467f, -0.2054157555103302f, 0.05681042745709419f, -0.10418981313705444f, -0.10020334273576736f, 0.027277132496237755f, -0.021808108314871788f, 0.012546426616609097f, -0.008248355239629745f, 0.0979810506105423f, -0.12058386206626892f, -0.1869880110025406f, -0.09297021478414536f, -0.1061987653374672f, -0.0872645154595375f, -0.13714969158172607f, 0.20941901206970215f, -0.13836564123630524f, -0.4364778995513916f, -0.11653854697942734f, 0.5081202387809753f, -0.04396652802824974f, 0.01664035953581333f, -0.1427420675754547f, -0.06779473274946213f, -0.019523518159985542f, 0.03378669172525406f, -0.3182846009731293f, 0.2538064420223236f, 0.08552426099777222f, -0.1577533334493637f, 0.32600653171539307f, -0.07415738701820374f, -0.10550086945295334f, 0.18398194015026093f, -0.03852923586964607f, -0.3295111060142517f, -0.01672617718577385f, -0.44450849294662476f, 0.2273447960615158f } },
  { { 0.08106490969657898f, -0.04665977507829666f, 0.11118758469820023f, -0.007937640883028507f, -0.0073595838621258736f, 3.0748937129974365f, -0.058718856424093246f, -0.022660953924059868f, 0.02293660305440426f, 3.8711137771606445f, 0.046793583780527115f, -0.0007395921275019646f, -0.028390098363161087f, -0.03783135861158371f, -0.06490162014961243f, -0.04154599457979202f, -0.02981468476355076f, -0.04422340542078018f, -0.04269932955503464f, -0.04682976379990578f, 0.037757232785224915f, 0.022755863144993782f, -0.0033999907318502665f, -0.05943114310503006f, 0.0038750399835407734f, -0.004949371796101332f, 0.0484309159219265f, -0.022449778392910957f, 0.0171662587672472f, 0.06291453540325165f, 0.10441596060991287f, 0.006019764579832554f, 0.021900605410337448f, 0.10120468586683273f, 0.049375612288713455f, 0.12007099390029907f, -0.04764656722545624f, -0.04261016845703125f, 0.043490272015333176f, 0.07773015648126602f, -3.598830461502075f, 0.036531880497932434f, -0.11574932187795639f, 0.024879474192857742f, -0.13912147283554077f, -0.07257740944623947f, 0.03349794074892998f, 0.01223654206842184f, 0.005889351945370436f, -0.09505125880241394f, 0.04036179184913635f, -0.01011036429554224f, 0.002549173543229699f, 0.07596728205680847f, -0.010908533819019794f, -0.022951621562242508f, 0.0385325662791729f, -0.003798246616497636f, 0.011663621291518211f, -0.0039087459444999695f, -0.03595997393131256f, 0.05926588550209999f, 0.07922303676605225f, 0.009544366039335728f, 0.010420940816402435f, 0.024214860051870346f, -0.4879418611526489f, -0.05326303094625473f, 0.11814187467098236f, -0.19972878694534302f, -0.008407386019825935f, -0.057691603899002075f, 0.09486167877912521f, 0.028048040345311165f, -0.02963663823902607f, -0.018725350499153137f, 0.001000094460323453f, 0.04592285305261612f, 0.37573105096817017f, -0.15427428483963013f, -0.13892939686775208f, 0.03504367172718048f, 2.933351755142212f, -0.6536813974380493f, 0.06109313666820526f, -0.08022122085094452f, 0.10872528702020645f, -0.010981021448969841f, 0.028235411271452904f, -0.5055824518203735f, 0.043758973479270935f, -0.04749221354722977f, -0.08895757049322128f, -0.029288729652762413f, 0.002771233208477497f, 0.017031101509928703f, 0.0659089908003807f, 0.33659598231315613f, 0.012092586606740952f, -0.10784885287284851f, 0.08642306178808212f, -0.07518140226602554f, -0.03671635314822197f, -0.35174834728240967f, 0.005481052678078413f, 0.07462721318006516f, -0.07442842423915863f, 0.10153419524431229f, -2.9166290760040283f, 0.03683607652783394f, -0.07368811219930649f, -0.007095799781382084f, 0.10679715126752853f, -0.07049837708473206f, 0.005207604728639126f, -0.036130886524915695f, -0.07200729846954346f, 0.059266481548547745f, -0.14400577545166016f, -0.38987064361572266f, 0.11936532706022263f, 0.1631367951631546f, -0.1116102859377861f, 0.03771566227078438f, -0.017466817051172256f, -0.22087198495864868f, 0.2814091444015503f, 0.02393374964594841f, -0.34559181332588196f, -0.2637847363948822f, 0.21179836988449097f, 0.9954847097396851f, 0.4884894788265228f, -0.8502260446548462f, -0.2730481028556824f, -0.4493381977081299f, -0.20919401943683624f, -0.23518314957618713f, -0.2542586624622345f, -0.8275811672210693f, 1.0092473030090332f, 0.8939985632896423f, -0.22778569161891937f, -0.16566359996795654f, 0.9460858106613159f, 0.921214759349823f, 0.31235867738723755f, -0.2307131290435791f, 0.14052769541740417f, -0.09457138180732727f, 0.20292256772518158f, -0.055240269750356674f, -0.40871602296829224f, 1.6020705699920654f, 0.6249609589576721f, 0.26501184701919556f, 0.34801173210144043f, 0.11350910365581512f, -1.9611835479736328f, -2.1763856410980225f, 1.0926892757415771f, -0.47468337416648865f, 0.21676886081695557f, 0.4844314455986023f, -0.32359570264816284f, 0.5676985383033752f, 1.094399094581604f, 1.186379075050354f, 0.43849343061447144f, -0.5954910516738892f, -0.893497884273529f, 0.5046859383583069f, -0.1800752580165863f, 0.08167017251253128f, 0.22832830250263214f, 0.2052282691001892f, 0.39329272508621216f, -0.22587521374225616f, -0.9810394644737244f, 0.11906050145626068f, 0.48821666836738586f, -0.7811151742935181f, -0.06038631126284599f, 0.05991783365607262f, 1.1328672170639038f, 0.20964457094669342f, 0.9106940031051636f, 0.3776129484176636f, 0.09524931758642197f, -1.1039189100265503f, -0.6547055840492249f, -0.30539166927337646f },
  { -0.7671627998352051f, 0.6586890816688538f, -0.40307536721229553f, 0.10894306004047394f, -0.3650515675544739f, 5.191525459289551f, -0.16157692670822144f, 0.5476579666137695f, -0.3086932897567749f, 5.590466022491455f, 0.9470173120498657f, -0.264006644487381f, -1.1101019382476807f, 1.4112935066223145f, 0.03898759186267853f, -0.015051987022161484f, -1.0777000188827515f, 1.4066874980926514f, 0.7051396369934082f, -0.2262541651725769f, 1.1646369695663452f, 2.7634987831115723f, -0.41824790835380554f, -3.1747169494628906f, -0.6332504749298096f, 0.7797815203666687f, 0.13377487659454346f, 0.11434619128704071f, -1.0871270895004272f, 0.5330625176429749f, 1.6963026523590088f, 0.5820165872573853f, -0.2048632949590683f, 1.7952725887298584f, -1.7050811052322388f, 1.7979010343551636f, -0.15365058183670044f, 0.9944345355033875f, -0.058436013758182526f, 0.786918580532074f, -5.484604358673096f, 0.3441111147403717f, -0.07218810170888901f, 1.0528020858764648f, -0.17712123692035675f, 0.27976253628730774f, -0.31183499097824097f, -2.1440093517303467f, -0.4734368324279785f, -0.29374051094055176f, 0.12643364071846008f, 0.3131635785102844f, 0.31670379638671875f, 0.005188437644392252f, 0.11652525514364243f, -0.7428824305534363f, -0.2555180788040161f, -1.4474663734436035f, -0.445642352104187f, 0.24107635021209717f, -1.3719381093978882f, 2.257779598236084f, 2.882173538208008f, 0.632118821144104f, -0.5330336689949036f, 1.4083473682403564f, -2.5493218898773193f, -0.06808824092149734f, 1.232480525970459f, 0.38538044691085815f, 0.9791279435157776f, -0.7725834250450134f, 0.0334944911301136f, 0.5245352983474731f, -0.6038264632225037f, 0.3072575032711029f, -0.2689792811870575f, 0.4919760823249817f, 0.26680490374565125f, -0.7623472213745117f, 0.597015917301178f, 0.029810408130288124f, 0.7578519582748413f, -2.925464630126953f, 0.28445449471473694f, -0.07624591141939163f, 0.2369012087583542f, 0.6351448893547058f, -0.1895812451839447f, -1.3079638481140137f, 0.736692488193512f, -0.7260492444038391f, -1.6449801921844482f, 0.040740322321653366f, 1.3266901969909668f, -0.00898356456309557f, 0.7137080430984497f, -0.4476719796657562f, -0.21767908334732056f, -0.5537070631980896f, 1.454099416732788f, -1.387311339378357f, -0.27595242857933044f, -1.893432378768921f, 0.8307793140411377f, 1.2767568826675415f, 0.4303157925605774f, 0.9610612392425537f, -3.9718334674835205f, 1.5534392595291138f, -0.5512728095054626f, 0.823610246181488f, -0.7274295091629028f, 0.08240551501512527f, 0.8019887208938599f, -1.287240743637085f, -0.14357945322990417f, 0.2124345898628235f, -0.665425717830658f, -1.8212432861328125f, 0.7390609383583069f, 0.574981689453125f, -1.0253173112869263f, -0.692609965801239f, 0.6226890087127686f, -0.5377343893051147f, 0.5989638566970825f, -0.12895146012306213f, 0.9599194526672363f, 1.1885303258895874f, 1.053564190864563f, -0.2762291729450226f, -0.4357755780220032f, 0.10632152855396271f, 0.8018474578857422f, 0.3122144937515259f, -0.3101826012134552f, 0.539964497089386f, -0.7379229068756104f, -0.7098203897476196f, 0.7499143481254578f, -0.2932147681713104f, 0.4677973687648773f, -0.4443124830722809f, 0.48947250843048096f, 0.662675678730011f, -0.7473692893981934f, 0.510145366191864f, 0.07017402350902557f, -0.9950059056282043f, -0.21144156157970428f, -1.0543640851974487f, 0.3163486421108246f, -0.27376583218574524f, -1.0278565883636475f, 0.24537621438503265f, -0.4623517096042633f, 0.14779597520828247f, 0.5146992206573486f, 0.9198206067085266f, -1.09001886844635f, 0.6707853674888611f, -0.5669056177139282f, -0.09788680076599121f, 0.482513427734375f, 0.18226763606071472f, -0.5573580265045166f, -0.16298194229602814f, 0.22477900981903076f, -0.08834122866392136f, 0.7169739007949829f, 0.3285596966743469f, 0.5101528167724609f, 0.16762526333332062f, -0.1555052548646927f, -0.15938657522201538f, -1.157006025314331f, 0.037130217999219894f, 1.2143006324768066f, -0.2302420437335968f, 0.2077656090259552f, -0.9903054237365723f, 0.6473397016525269f, 1.2101483345031738f, -0.49478021264076233f, 0.9903818368911743f, -0.8693459033966064f, 1.2758034467697144f, 0.15985551476478577f, 0.2543017268180847f, 0.785555362701416f, 0.5237149596214294f },
  { -0.02797151356935501f, -0.03698362782597542f, 0.035123977810144424f, -0.019112426787614822f, 0.0009177865576930344f, 0.004546481184661388f, 0.06991871446371078f, 0.02803538180887699f, 0.01260681264102459f, -0.0481841005384922f, -0.04024358466267586f, -0.01847859099507332f, -0.021173102781176567f, 0.0647522583603859f, 0.020424101501703262f, -0.06407348066568375f, 0.013588706962764263f, 0.02689231187105179f, -0.03133951127529144f, -0.02600705809891224f, 0.0027055502869188786f, -0.0008447752916254103f, -0.02558782882988453f, 0.04752019792795181f, -0.016312792897224426f, 0.0024993368424475193f, 0.008825363591313362f, -0.04744653031229973f, -0.019514836370944977f, 0.0024625826627016068f, 0.001418738393113017f, -0.004321888089179993f, -0.003133644349873066f, -0.03307759389281273f, -0.04446571320295334f, 0.003796012606471777f, 0.0454559400677681f, -0.0037937057204544544f, 0.02210630290210247f, 0.010981629602611065f, -0.009558567777276039f, -0.020702635869383812f, 0.0326957143843174f, 0.008512035012245178f, 0.08153040707111359f, -0.008522681891918182f, -0.010729571804404259f, 0.014220361597836018f, 0.009996803477406502f, 0.007151820696890354f, 0.03303248807787895f, 0.022046025842428207f, 0.010062525048851967f, -0.03196660429239273f, -0.026447445154190063f, -0.0006404817686416209f, -0.006561986170709133f, 0.015046398155391216f, 0.006274760700762272f, -0.049519650638103485f, -0.004618869628757238f, 0.045072782784700394f, -0.035004179924726486f, 0.010261569172143936f, 0.06479039043188095f, 0.010158219374716282f, 0.03687379136681557f, -0.003341410309076309f, -0.0019447174854576588f, -0.022775422781705856f, 0.060356322675943375f, 0.008921368047595024f, -0.011674953624606133f, -0.031444158405065536f, -0.005800641141831875f, -0.002121393335983157f, 0.008953649550676346f, -0.012195650488138199f, -0.023623622953891754f, -0.0020084683783352375f, -0.03033432923257351f, -0.018035193905234337f, -0.04363620653748512f, -0.04038558155298233f, -0.03220752999186516f, -0.017604093998670578f, -0.0068753426894545555f, 0.02891235426068306f, -0.01537869032472372f, -0.009698796086013317f, -0.01896539330482483f, 0.08110234141349792f, 0.007437520660459995f, 0.018995201215147972f, 0.04648248851299286f, 0.009799963794648647f, 0.005817752797156572f, 0.020870434120297432f, 0.0015615116572007537f, -0.024543484672904015f, 0.009127620607614517f, 0.031651027500629425f, -0.022731099277734756f, -0.02962566539645195f, 0.012060555629432201f, 0.007436677347868681f, 0.0010476834140717983f, -0.006771530490368605f, 0.00858298409730196f, 0.01901513896882534f, -0.058149680495262146f, 0.021283958107233047f, 0.05055888369679451f, 0.016907962039113045f, 0.008424034342169762f, -0.0382566824555397f, 0.004234788008034229f, -0.0026716929860413074f, -0.024624375626444817f, -0.014966214075684547f, -0.002364774700254202f, 0.043520737439394f, -0.04118717089295387f, 0.0015396977541968226f, -0.02253844030201435f, 0.019145915284752846f, -0.03176214545965195f, -0.04985762760043144f, 0.01590789295732975f, 0.0014685544883832335f, -0.02608763799071312f, 0.004509440623223782f, -0.006392002105712891f, 0.0030031229835003614f, 0.017607053741812706f, -0.01264221128076315f, 0.010893609374761581f, 0.008347706869244576f, 0.008068818598985672f, -0.04193495586514473f, -0.009754090569913387f, -0.011113770306110382f, -0.001452059019356966f, 0.01771007850766182f, 0.022756148129701614f, 0.0005936466041021049f, 0.06314587593078613f, 0.011065110564231873f, -0.00996202789247036f, -0.01165411714464426f, -0.006881536450237036f, -0.010119486600160599f, -0.00683709466829896f, 0.13227316737174988f, 0.0031040459871292114f, -0.05773872509598732f, -0.0032025270629674196f, -0.00669804448261857f, -0.018225613981485367f, -0.018267309293150902f, -0.020348219200968742f, -0.03845909982919693f, 0.001737251179292798f, -0.00010166932770516723f, 0.00787875335663557f, -0.011493340134620667f, 0.002307447837665677f, -0.004842864815145731f, 0.0227812509983778f, -9.981072071241215e-05f, -0.016153031960129738f, -0.029835760593414307f, -0.002320466097444296f, -0.029460152611136436f, 0.017753802239894867f, -0.009883003309369087f, 0.0034327665343880653f, -0.02232295647263527f, 0.032077856361866f, 0.002970723435282707f, -0.006629390176385641f, 0.012072841636836529f, 0.028898973017930984f, 0.010690542869269848f, 0.003041532589122653f, -0.024357521906495094f, -0.005885398481041193f, -0.022485297173261642f, 0.06773696839809418f, 0.006880756933242083f, 0.00900239497423172f, 0.0008937149541452527f },
  { -0.0926801934838295f, -0.21457956731319427f, -0.22585581243038177f, -0.05483616888523102f, -0.05996184051036835f, 0.004236062057316303f, 0.04676314443349838f, -1.0236153602600098f, -0.20017027854919434f, -0.1238257959485054f, 0.14806853234767914f, -0.125910684466362f, 0.15820543467998505f, 0.44414180517196655f, -0.03034755028784275f, 0.1346803456544876f, -0.3053441047668457f, 0.2653326392173767f, -0.0960332527756691f, -0.09103655070066452f, -0.09701188653707504f, -0.05889948830008507f, -0.004035422578454018f, 0.1309313327074051f, 0.09837973862886429f, -0.22315604984760284f, 0.07770271599292755f, -0.20812802016735077f, 0.14121510088443756f, -0.04342095926403999f, -0.008884788490831852f, -0.09548188745975494f, 0.09556698054075241f, 0.02335408702492714f, 0.057684626430273056f, 0.0830547958612442f, -0.04064968600869179f, 0.07493167370557785f, 0.10048211365938187f, -0.17299114167690277f, -0.08445694297552109f, -0.13211219012737274f, 0.05057224631309509f, -0.14675351977348328f, -0.24863258004188538f, 0.030513521283864975f, -0.1508413553237915f, 0.15645526349544525f, 0.0844917893409729f, 0.11120789498090744f, -0.12511159479618073f, 0.1793450266122818f, -0.08646128326654434f, 0.08477146178483963f, -0.1577826738357544f, -0.045773692429065704f, -0.047454290091991425f, -0.09369813650846481f, 0.02907254733145237f, -0.11334731429815292f, 0.0009990722173824906f, 0.10380706191062927f, 0.05240985378623009f, 0.5882201194763184f, -0.160696342587471f, -0.15443912148475647f, 0.2897116243839264f, -0.22119764983654022f, -0.01605294458568096f, 0.19302231073379517f, 0.09471046179533005f, 0.05029946565628052f, -0.2883725166320801f, 0.09422647207975388f, 0.016529809683561325f, -0.19827456772327423f, 0.05651187524199486f, -0.015914781019091606f, 0.030335476621985435f, -0.24757151305675507f, -0.03658313304185867f, -0.14700785279273987f, 0.7940320372581482f, 0.2094268947839737f, 0.15972918272018433f, -0.059968579560518265f, -0.06409458070993423f, -0.09533126652240753f, -0.17192913591861725f, -0.15853144228458405f, -0.052679505199193954f, -0.019193029031157494f, -0.16840197145938873f, -0.13078130781650543f, 0.09576602280139923f, 0.009503968991339207f, 0.04206337034702301f, -0.07592280209064484f, -0.13951297104358673f, 0.2514379024505615f, 0.044006843119859695f, -0.027455149218440056f, -0.20262326300144196f, -0.023058032616972923f, 0.4224250912666321f, 0.11583811044692993f, 0.6275123953819275f, 0.022153830155730247f, -0.03782173991203308f, 0.06183682754635811f, -0.08026009052991867f, -0.0551903210580349f, 0.027115169912576675f, 0.13705560564994812f, -0.005564551800489426f, 0.0419703833758831f, -0.1487189680337906f, -0.07681690901517868f, -0.11343251168727875f, 0.06382632255554199f, -0.031060289591550827f, -0.012915803119540215f, 0.10910402238368988f, 0.1923237293958664f, -0.01773466356098652f, -0.16633367538452148f, 0.1812252253293991f, 0.013002959080040455f, 0.09605235606431961f, 0.04562114179134369f, -0.0003772590425796807f, -0.03762166202068329f, -0.113790363073349f, -0.13383027911186218f, -0.29986315965652466f, -0.030411342158913612f, 0.11510808765888214f, 0.1058979257941246f, 0.058603618294000626f, 0.028143374249339104f, -0.030818160623311996f, 0.01987360417842865f, 0.04916274547576904f, 0.07404647767543793f, 0.051300790160894394f, -0.13804136216640472f, 0.5047796964645386f, 0.033220160752534866f, 0.012961864471435547f, -0.09860759973526001f, 0.12367752194404602f, -0.09721282869577408f, -0.10460905730724335f, 0.04696764051914215f, -0.1005549505352974f, -0.15106728672981262f, 0.16442617774009705f, -0.2569217383861542f, 0.0878697857260704f, 0.00844796933233738f, -0.02155962772667408f, 0.03819822147488594f, -0.1481848955154419f, 0.4409942626953125f, -0.21113526821136475f, -0.03130355104804039f, -0.011633490212261677f, -0.04456477239727974f, 0.22439923882484436f, 0.20197416841983795f, 0.007335234433412552f, -0.07313208281993866f, 0.8103234767913818f, -0.12059585005044937f, 0.03583890199661255f, -0.22243253886699677f, -0.1449580192565918f, -0.04385983943939209f, 0.013333561830222607f, -0.0584697425365448f, -0.07823170721530914f, -0.1140139102935791f, 0.02378188632428646f, 0.07938627153635025f, 0.122202068567276f, 0.15610799193382263f, 0.16316339373588562f, -0.19945865869522095f, -0.17558547854423523f, -0.0708264708518982f, -0.04072484001517296f, -0.030161933973431587f } },
  { { 0.240875244140625f, -0.35309329628944397f, -0.2857659161090851f, 0.02376214973628521f, -0.049964722245931625f, -0.12051687389612198f, -0.04297403246164322f, -0.36337995529174805f, 0.041237544268369675f, -0.359876811504364f, 0.01034497283399105f, -0.08179981261491776f, -0.11564988642930984f, 0.20793934166431427f, 0.009224765002727509f, -0.03564545884728432f, -0.059121157974004745f, -0.037173785269260406f, -0.02839965745806694f, -0.024044184014201164f, -0.0752115398645401f, 0.13437604904174805f, -0.0866493284702301f, -0.03287776932120323f, 0.3532344102859497f, 0.009687740355730057f, -0.04148813337087631f, -0.29149043560028076f, 0.05358797684311867f, 0.19830584526062012f, -4.6621880531311035f, -0.03526821732521057f, -0.12384878844022751f, 0.055354997515678406f, -0.1188957616686821f, 0.0985584408044815f, 0.010876358486711979f, -0.007433792110532522f, 0.03612249344587326f, -0.10308549553155899f, 0.10022859275341034f, 0.04475320503115654f, 0.20190754532814026f, 0.06402494013309479f, 0.04221836104989052f, 0.023540886119008064f, 0.023144548758864403f, -0.09912184625864029f, 0.04431675001978874f, -0.023094814270734787f, 0.2329433262348175f, 0.23385374248027802f, 0.21096383035182953f, 0.24873390793800354f, 0.019649898633360863f, -0.04816481098532677f, 0.08293061703443527f, 0.014531138353049755f, 0.18231506645679474f, 0.2683658301830292f, 0.2382417917251587f, 0.0386224091053009f, -0.062101803719997406f, -0.09289886802434921f, 0.04949890077114105f, -0.049246277660131454f, -0.039817120879888535f, 0.04419059306383133f, -0.1151943951845169f, -0.07631808519363403f, -0.10826627910137177f, -0.014948218129575253f, 0.021971892565488815f, 0.07093383371829987f, 0.0802023708820343f, 0.11066243797540665f, -0.06093106046319008f, 0.11286729574203491f, 0.07707703858613968f, 0.13292790949344635f, -0.027762610465288162f, 8.641526801511645e-05f, 0.04106327146291733f, -0.03981596231460571f, -0.03341798484325409f, -1.2197359800338745f, -0.0031120022758841515f, -0.12192194908857346f, -0.2075570523738861f, -0.044005054980516434f, -0.00817056279629469f, 0.025928694754838943f, 0.11636446416378021f, 0.04838588833808899f, -0.05859842523932457f, -0.0794740617275238f, 0.04991312697529793f, 0.0029563296120613813f, -0.028272798284888268f, -0.027527209371328354f, -0.11210235208272934f, 0.2522789239883423f, -0.01767074130475521f, 0.03398127853870392f, 0.03826076164841652f, 0.04530845582485199f, 0.0267996434122324f, 0.04823818802833557f, 0.028776852414011955f, -0.05675512179732323f, -0.003424613270908594f, -0.012216820381581783f, -0.1025523766875267f, 0.0569787435233593f, 0.008722570724785328f, 5.093336582183838f, 0.06803090125322342f, 0.029773954302072525f, -0.01126889605075121f, -0.039483070373535156f, -0.08285544067621231f, -0.010598386637866497f, -0.009411361068487167f, 0.028425369411706924f, -0.02694130688905716f, -0.007187993731349707f, -0.05521383881568909f, -0.05163900926709175f, -0.09428275376558304f, 1.0522874593734741f, 0.03549389913678169f, -0.4802152216434479f, -0.021208766847848892f, -0.6115143895149231f, 0.1319793462753296f, -0.054742567241191864f, -0.01237474661320448f, 0.026590973138809204f, 0.0443011112511158f, -0.13696055114269257f, 0.0768248438835144f, 0.16202381253242493f, 0.04118695855140686f, 0.13481026887893677f, 0.009133066050708294f, 0.21136178076267242f, 0.030149713158607483f, -0.04784544184803963f, 0.23969127237796783f, -2.3509960174560547f, 0.025813832879066467f, -0.004714766051620245f, -0.19732138514518738f, -0.020902635529637337f, -0.10293511301279068f, 0.07042167335748672f, 0.11510717868804932f, 0.13520780205726624f, -0.008957935497164726f, -0.05056465044617653f, 0.03524225950241089f, -0.03552847355604172f, -0.0086528854444623f, 0.1864658147096634f, -0.0030260258354246616f, 0.07762013375759125f, -0.03478528931736946f, 0.09722741693258286f, -0.06645625829696655f, -0.42640748620033264f, -0.020325876772403717f, -0.039064280688762665f, -0.07197858393192291f, -0.3533519208431244f, -0.08319733291864395f, -0.04494110867381096f, 0.07162003964185715f, -0.06910096853971481f, -0.007904903963208199f, 0.02907727099955082f, 0.009915647096931934f, 0.06755761057138443f, -0.16635285317897797f, -0.022100647911429405f, -0.0236528143286705f, 0.018778720870614052f, -0.0676240399479866f, -2.977534770965576f, -0.03151195868849754f, -0.06734588742256165f, 0.10752783715724945f, 0.02106887847185135f },
  { 0.044659290462732315f, -1.0727472305297852f, -1.756422519683838f, 0.7996081709861755f, -0.8954721093177795f, 0.2221307009458542f, 0.2608910799026489f, 0.4372009336948395f, -0.784233570098877f, -1.208163857460022f, 0.4563997685909271f, -1.31234610080719f, 0.14752599596977234f, 0.5543335676193237f, -0.28643035888671875f, 0.9120783805847168f, 1.220770001411438f, 0.3351214528083801f, -0.07602949440479279f, 0.9170234799385071f, -1.3229683637619019f, -0.8569326400756836f, 1.1655808687210083f, -0.3284824788570404f, 0.15262465178966522f, -1.1228262186050415f, -0.01573033630847931f, 0.22552037239074707f, -0.2696886658668518f, 0.5550351738929749f, -1.2483962774276733f, -0.9609869718551636f, -0.5038139224052429f, 0.09093160182237625f, 0.31457534432411194f, -0.30224907398223877f, 0.45802173018455505f, 0.4528564512729645f, -0.18787935376167297f, 0.6286482810974121f, -0.5882427096366882f, 0.20007900893688202f, 0.5208531618118286f, 0.16942881047725677f, -0.7957955002784729f, 1.0453670024871826f, -0.4343271851539612f, -0.31126561760902405f, -0.28472021222114563f, -0.623958170413971f, 1.3375877141952515f, 1.144666075706482f, 1.408386468887329f, 1.0874465703964233f, 0.07963443547487259f, -0.5166928172111511f, 0.0860978215932846f, 0.11481679975986481f, 0.09085215628147125f, 0.5704458355903625f, 0.8736711144447327f, -0.09321311861276627f, -0.30706116557121277f, -0.6025592088699341f, -0.04981506988406181f, -0.06604403257369995f, 0.6044210195541382f, 0.4558379650115967f, 1.6218525171279907f, 0.3577219545841217f, 1.1817913055419922f, -0.001766710076481104f, 0.3720056116580963f, 1.0746349096298218f, 0.011140760034322739f, 0.3150688111782074f, -1.808468222618103f, 0.5909137725830078f, 0.539703905582428f, -1.1977115869522095f, -0.22293783724308014f, -0.6577395796775818f, -0.4677622616291046f, -0.4303833842277527f, 0.5486301779747009f, 0.6520026326179504f, 1.2580665349960327f, -0.3844957947731018f, 0.2927495241165161f, -0.3699771761894226f, -0.47911337018013f, -0.9710608124732971f, -0.04551071673631668f, -0.3211093842983246f, 0.23978784680366516f, -0.6812444925308228f, -0.8043748736381531f, 0.10434750467538834f, 0.5452567934989929f, 0.08549675345420837f, 0.1149340569972992f, -0.6710097193717957f, 0.2878537178039551f, -0.29619401693344116f, 0.5829401016235352f, 0.28518667817115784f, 0.10211330652236938f, -1.511613368988037f, -0.3518625795841217f, -0.6331379413604736f, -0.22571979463100433f, -1.4998438358306885f, -0.2188633531332016f, -0.8251129984855652f, 0.4687957763671875f, -0.20158833265304565f, 0.6272269487380981f, 0.6123154759407043f, -0.20917199552059174f, -0.1926400512456894f, 0.25962355732917786f, -1.2297039031982422f, 0.4098040759563446f, -0.49798890948295593f, 0.7846350073814392f, 0.24272921681404114f, 0.5224937796592712f, -1.7162449359893799f, -2.347329616546631f, 4.619136333465576f, 1.2364249229431152f, -2.5633299350738525f, 0.5685619711875916f, -4.542206287384033f, -2.06894588470459f, -0.9373893141746521f, -0.7554226517677307f, -0.06245436891913414f, -0.7158563733100891f, -1.5348010063171387f, 2.3126182556152344f, -1.1257474422454834f, 1.9342025518417358f, 1.2005834579467773f, -0.05336911231279373f, 0.46799224615097046f, 0.027652541175484657f, -0.8348230719566345f, 0.49330252408981323f, -8.623088836669922f, 1.674288272857666f, 0.5856871604919434f, -1.8039658069610596f, -0.9736621379852295f, -1.023603916168213f, -0.10854233801364899f, 1.4800646305084229f, -0.07076090574264526f, -0.5910201668739319f, 0.8481510281562805f, 0.7793379426002502f, 0.4317951500415802f, 0.29361969232559204f, 0.8657509684562683f, -1.4629839658737183f, -1.1531559228897095f, -0.6713027358055115f, -1.1519452333450317f, 0.31262773275375366f, -2.565714120864868f, 0.27737975120544434f, -0.6583629250526428f, -0.5375893712043762f, -5.529079437255859f, 0.7128620147705078f, -1.2310503721237183f, 0.4599530100822449f, -1.3437739610671997f, -0.5589049458503723f, -0.3469267785549164f, 0.822084367275238f, 0.8505238890647888f, -1.3057149648666382f, 1.1236915588378906f, -0.576025664806366f, 0.922956645488739f, -0.38397133350372314f, -8.823859214782715f, -1.4552960395812988f, 0.37236565351486206f, 0.7420333027839661f, -1.1014080047607422f },
  { -0.0017078969394788146f, -0.015003428794443607f, 0.035897016525268555f, -0.008440213277935982f, -0.017132483422756195f, 0.0015987211372703314f, -0.019202280789613724f, 0.11858625710010529f, -0.01658560335636139f, -0.03484219312667847f, 0.019595643505454063f, -0.030854705721139908f, 0.019900310784578323f, 0.002660533878952265f, 0.0012702373787760735f, 0.014751757495105267f, 0.02063945308327675f, 0.034395333379507065f, 0.0010632683988660574f, 0.0329822301864624f, -0.043510567396879196f, 0.055237118154764175f, 0.05836750566959381f, 0.01966143772006035f, 0.01648797281086445f, 0.0497121587395668f, 0.01323515921831131f, 0.008474686183035374f, -0.006232824642211199f, -0.005795749370008707f, 0.02889920026063919f, -0.01006910391151905f, 0.02996830642223358f, 0.025607166811823845f, -0.03534441813826561f, -0.011770857498049736f, 0.01406729593873024f, 0.0014281121548265219f, -0.016499876976013184f, 0.029857801273465157f, 0.01423503179103136f, -0.01309124007821083f, -0.023212479427456856f, -0.02019449882209301f, 0.006335870828479528f, -0.016834231093525887f, 0.012095590122044086f, 0.023449456319212914f, -0.029415344819426537f, 0.013757895678281784f, 0.016546353697776794f, 0.021791376173496246f, 0.022565167397260666f, -0.010257339105010033f, -0.005163108929991722f, -0.010639635846018791f, -0.032535117119550705f, 0.0351191870868206f, 0.05011272057890892f, 0.010750381276011467f, -0.025341074913740158f, 0.031721603125333786f, -0.022965386509895325f, -0.030548512935638428f, -0.028866540640592575f, 0.044726788997650146f, 0.02101636491715908f, -0.07063040882349014f, 0.06915850192308426f, -0.0057365018874406815f, 0.00896372552961111f, -0.03485872223973274f, -0.011181133799254894f, 0.06736131012439728f, -0.014604844152927399f, -0.02945847064256668f, -0.002539488486945629f, -0.02437307871878147f, -0.04681159555912018f, -0.0123223215341568f, 0.07386891543865204f, -0.06992828100919724f, 0.02894620969891548f, -0.040902722626924515f, 0.0515713207423687f, 0.018475018441677094f, 0.0350789949297905f, 0.043291766196489334f, 0.013383032754063606f, 0.02869531139731407f, -0.018705224618315697f, -0.010053283534944057f, -0.08331748098134995f, 0.013670108281075954f, 0.01940908655524254f, -1.890001294668764e-05f, 0.026216747239232063f, -0.04202897474169731f, -0.024687835946679115f, -0.024285661056637764f, 0.024188166484236717f, -0.005897073075175285f, 0.03177396580576897f, -0.013882175087928772f, 0.035606082528829575f, 0.010002419352531433f, 0.01771070621907711f, -0.007836544886231422f, 0.005826408509165049f, 0.05366648733615875f, -0.046113524585962296f, -0.05426198989152908f, -0.02977169118821621f, -0.010509834624826908f, 0.016600383445620537f, 0.0006752556655555964f, -0.011167551390826702f, -0.009116142988204956f, 0.06489687412977219f, 0.007546107284724712f, 0.14698375761508942f, -0.01748804934322834f, 0.017645256593823433f, -0.005142682231962681f, 0.0237271711230278f, 0.009406342171132565f, 0.006423084530979395f, 0.013333315961062908f, -0.0013893992872908711f, -0.005253325682133436f, -0.0009934930130839348f, -0.03342556208372116f, 0.017141269519925117f, 0.04945210739970207f, 0.04175930842757225f, 0.013480792753398418f, -0.015281143598258495f, 0.026391034945845604f, 0.05723292753100395f, 0.004544389899820089f, 0.021110551431775093f, 0.004474423825740814f, -0.07541493326425552f, 0.029139604419469833f, -0.02278316020965576f, 0.06362678110599518f, -0.03591093048453331f, -0.05247524380683899f, -0.014029334299266338f, -0.02918005734682083f, 0.026298988610506058f, 0.030359763652086258f, -0.03136361762881279f, -0.00181427295319736f, -0.04418309032917023f, 0.036202382296323776f, 0.024871263653039932f, 0.04091963171958923f, -0.05954193323850632f, -0.016311952844262123f, 0.026389408856630325f, 0.12266659736633301f, -0.06508755683898926f, 0.05428069084882736f, 0.0652238205075264f, -0.08612249791622162f, 0.03183663263916969f, 0.050398193299770355f, -0.025155069306492805f, 0.029400328174233437f, 0.023809775710105896f, -0.0022195319179445505f, 0.02669343911111355f, 0.028034910559654236f, 0.01212083175778389f, -0.017397526651620865f, 0.025299958884716034f, -0.03986769914627075f, -0.039153795689344406f, 0.012116855941712856f, -0.019427085295319557f, -0.019300682470202446f, 0.017247255891561508f, 0.10627005994319916f, -0.013630376197397709f, 0.013130499981343746f, -0.06967276334762573f, -0.011458855122327805f, -0.11033782362937927f, -0.007029274944216013f, 0.08385302126407623f, 0.022142034024000168f },
