#pragma once

#include <cstddef>
#include <cstdint>

const size_t moe_bias_l2_array_shape[3] = { 6, 16, 192 };
float moe_bias_l2_array[6][16][192] = { { { -0.06136224418878555f, 0.04950033873319626f, 0.03126927465200424f, 0.3279631733894348f, 0.08461368829011917f, 0.0156992357224226f, 0.08734510838985443f, 0.7261167168617249f, -0.23195596039295197f, -0.11196677386760712f, -0.14487653970718384f, 0.07152678817510605f, 0.238852858543396f, -0.0985417366027832f, 0.041482679545879364f, -0.125716432929039f, -0.3770139515399933f, -0.2606518268585205f, -0.01275731436908245f, -0.12374449521303177f, -0.32375988364219666f, -0.035635266453027725f, 0.07157920300960541f, 0.14785823225975037f, 0.2698414623737335f, -0.09955130517482758f, 0.016813045367598534f, 0.264430433511734f, 0.35136616230010986f, 0.15642479062080383f, -0.1955573856830597f, 0.1391184777021408f, 0.16685180366039276f, 0.1920788437128067f, 0.5174190402030945f, 0.06243410333991051f, 0.18321411311626434f, 0.10407502949237823f, -0.4048267900943756f, -0.26821330189704895f, 0.1346280872821808f, 0.16833114624023438f, -0.04237543046474457f, 0.1863158494234085f, 0.3463748097419739f, 0.1315138041973114f, -0.03176493942737579f, -0.00946801621466875f, -0.19228854775428772f, -0.08842451870441437f, -0.1945309042930603f, 0.10326491296291351f, 0.09008616954088211f, -0.1696658730506897f, 0.5227639079093933f, -0.2807167172431946f, -0.03483040630817413f, -0.09506677091121674f, 0.08998099714517593f, -0.07458985596895218f, 0.19843867421150208f, -0.09190891683101654f, 0.23514732718467712f, -0.11564461141824722f, 0.0384526252746582f, 0.031920354813337326f, -0.314485102891922f, -0.1434570848941803f, -0.06431344896554947f, 0.3221418261528015f, 0.022015990689396858f, 0.22755546867847443f, -0.08314961940050125f, -0.004966778680682182f, 0.0809173658490181f, -0.18365071713924408f, 0.07370296865701675f, -0.24556976556777954f, 0.02569642663002014f, 0.04693753272294998f, 0.702161431312561f, -0.07187436521053314f, -0.5354400873184204f, 0.5875097513198853f, -0.3462313115596771f, -0.17166468501091003f, -0.48545241355895996f, 0.035597704350948334f, 0.19434963166713715f, -0.07039952278137207f, -0.25869378447532654f, 0.13467733561992645f, 0.1508275717496872f, -0.12865608930587769f, 0.06028318032622337f, -0.056884437799453735f, 0.24673053622245789f, -0.19486641883850098f, 0.05909280478954315f, -0.17859844863414764f, -0.23382100462913513f, 0.1536998748779297f, 0.22221429646015167f, -0.25390997529029846f, -0.5257762670516968f, -0.05953950807452202f, -0.782272219657898f, -0.018782518804073334f, 0.02894798293709755f, 0.24072761833667755f, -0.2395097017288208f, 0.176110178232193f, 0.01490398682653904f, 0.10803648084402084f, 0.09871627390384674f, 1.3769736289978027f, 0.012070286087691784f, 0.03653981164097786f, 0.1890919804573059f, -0.11083730310201645f, -0.3927293121814728f, 0.28239747881889343f, -0.28550344705581665f, -0.29956358671188354f, 0.02595008723437786f, 0.03582967445254326f, 0.0037989174015820026f, 0.21631745994091034f, 0.2634352147579193f, 0.26078155636787415f, -0.02465854585170746f, -0.3891262114048004f, -0.23147842288017273f, -0.07699526846408844f, 0.1515568196773529f, 0.385568767786026f, 0.18058323860168457f, 0.11248306185007095f, 0.16421392560005188f, -0.019751014187932014f, -0.1236874982714653f, -0.17804880440235138f, -0.005862790159881115f, -0.002269779797643423f, -0.04065748676657677f, -0.023287657648324966f, -0.6554412841796875f, -0.12277568131685257f, 0.08935507386922836f, 0.3055794835090637f, 0.10385126620531082f, 0.16524958610534668f, 0.56416916847229f, 0.1558620035648346f, 0.08890103548765182f, -0.0931672602891922f, 0.011727329343557358f, 0.09829361736774445f, -0.10044247657060623f, -0.0026711493264883757f, -0.10904311388731003f, -0.13648352026939392f, -0.005525079555809498f, -0.1262941211462021f, 0.33508822321891785f, 0.10013970732688904f, -0.21687041223049164f, 0.03770936653017998f, -0.7639668583869934f, -0.09852742403745651f, -0.5563133358955383f, 0.09363233298063278f, -0.23637285828590393f, -0.0018803146667778492f, -0.20482216775417328f, 0.07931617647409439f, 0.32023149728775024f, 0.137637659907341f, 0.04447143152356148f, -0.07093587517738342f, -0.08445584028959274f, -0.005733843427151442f, 0.1432427167892456f, 0.049038201570510864f, 0.25330114364624023f, 0.2764821946620941f, -0.6350525617599487f, -0.14804524183273315f, -0.5821532607078552f, 0.1474701166152954f, -0.0004407327505759895f, -0.0839070975780487f },
  { -0.30114686489105225f, 0.15987628698349f, 0.07335956394672394f, -0.11766012012958527f, 0.05377044901251793f, 0.0022429111413657665f, -0.04675348103046417f, -0.5090740323066711f, -0.15256808698177338f, -0.20898984372615814f, -0.1299690157175064f, 0.24597197771072388f, -0.001930081401951611f, 0.1946570724248886f, -0.14849621057510376f, -0.2576310634613037f, 0.033533740788698196f, 0.07212851196527481f, 0.021759120747447014f, -0.2123279720544815f, -0.0802517980337143f, 0.00183031742926687f, 0.27928730845451355f, -0.29538893699645996f, 0.06084227189421654f, -0.04872222617268562f, 0.07587577402591705f, -0.1474054753780365f, 0.2458229959011078f, -0.18667130172252655f, 0.17911586165428162f, 0.21717990934848785f, -0.06044848635792732f, -0.14923368394374847f, 0.43997079133987427f, 0.1360541582107544f, 0.2000814825296402f, 0.2025236338376999f, -0.006547028664499521f, -0.04686623066663742f, 0.06131495162844658f, -0.10044509172439575f, 0.12001284956932068f, 0.1117643415927887f, 0.23284220695495605f, 0.015630245208740234f, 0.3691929876804352f, -0.2940366864204407f, -0.01098303496837616f, 0.15548467636108398f, 0.4086129069328308f, 0.4115995168685913f, 0.2509186863899231f, 0.22575296461582184f, -0.15964040160179138f, -0.18916399776935577f, 0.1056206151843071f, 0.18246404826641083f, -0.1740376204252243f, -0.1458836942911148f, -0.06568050384521484f, -0.15369968116283417f, 0.21283796429634094f, -0.2216559648513794f, 0.1003422737121582f, 0.016444120556116104f, -0.8692848086357117f, -0.0742199718952179f, 0.10294728726148605f, 0.055029965937137604f, -0.26667407155036926f, 0.08360369503498077f, -0.13249768316745758f, -0.23203271627426147f, -0.0547306127846241f, -0.1752753108739853f, -0.4871934652328491f, 0.05351024866104126f, 0.016989469528198242f, 0.1907179355621338f, 0.3334929049015045f, -0.10032714903354645f, -0.4503817558288574f, 0.4088766574859619f, -0.3140932023525238f, -0.23582865297794342f, -0.4486791789531708f, -0.10943173617124557f, -0.07319346815347672f, -0.03714407980442047f, -0.058805618435144424f, 0.01716911792755127f, 0.4748077392578125f, -0.17887622117996216f, 0.029991110786795616f, -0.03980983793735504f, 0.08395557105541229f, -0.2756876051425934f, 0.07121983170509338f, -0.2740662097930908f, -0.2641471326351166f, -0.06210106611251831f, 0.03886934369802475f, 0.09386419504880905f, -0.08564980328083038f, -0.17589899897575378f, -0.11578689515590668f, -0.037074994295835495f, 0.012591938488185406f, 0.08764517307281494f, -0.004808334168046713f, 0.25463342666625977f, -0.19400545954704285f, -0.05352536216378212f, 0.1114974245429039f, -0.09233301132917404f, 0.09530533850193024f, 0.11426404118537903f, 0.09759261459112167f, 0.15006832778453827f, -0.13258150219917297f, 0.8069027066230774f, 0.0880768671631813f, -0.020431838929653168f, 0.08834967762231827f, -0.14673112332820892f, -0.21416059136390686f, -0.26516643166542053f, -0.018057046458125114f, 0.19953501224517822f, 0.07404624670743942f, -0.1780453324317932f, 0.17271631956100464f, 0.6256089806556702f, 0.2567055821418762f, 0.0023562731221318245f, -0.23383775353431702f, 0.009279267862439156f, -0.3017708957195282f, -0.18011559545993805f, -0.1577972024679184f, 0.022487306967377663f, -0.1719283014535904f, -0.2744477689266205f, -0.6528310775756836f, 0.12056402117013931f, -0.25327637791633606f, 0.10696080327033997f, -0.04635244235396385f, 0.11334564536809921f, 0.5119817852973938f, -0.08973004668951035f, -0.5480106472969055f, 0.07079041004180908f, -0.01966649852693081f, -0.1409357488155365f, 0.17887263000011444f, 0.06220262125134468f, -0.20792150497436523f, 0.04656361788511276f, 0.07755771279335022f, 0.0032733147963881493f, -0.04952802509069443f, -0.2990790903568268f, -0.05437786504626274f, 0.1747949868440628f, -0.16417284309864044f, -0.21142299473285675f, 0.6200714707374573f, -0.09982630610466003f, 0.06020612642168999f, 0.002023490145802498f, -0.13761988282203674f, 0.05815786123275757f, -0.15846721827983856f, 0.06473369151353836f, 0.22100624442100525f, -0.3787297308444977f, 0.15425629913806915f, 0.1323716640472412f, -0.1557764708995819f, 2.2505292892456055f, -0.01297872606664896f, 0.024130715057253838f, 0.10895325243473053f, -0.03424323722720146f, -0.44193965196609497f, 0.4140666723251343f, 0.02876819297671318f, 0.35602977871894836f, 0.01505767647176981f, -0.029427971690893173f },
  { -0.6451665759086609f, 0.42962726950645447f, 0.5035093426704407f, 0.4047220051288605f, -0.023160934448242188f, 0.25217288732528687f, 0.17198698222637177f, 0.48857641220092773f, -0.05798373371362686f, -0.6746109127998352f, -0.4217050075531006f, 0.09007368236780167f, 0.934271514415741f, -0.5717530846595764f, 0.05942689999938011f, -0.2994551360607147f, -0.5236959457397461f, -0.5240492224693298f, 0.36577820777893066f, -0.38252249360084534f, 1.149420976638794f, -0.2278166562318802f, 0.26218312978744507f, 0.19648028910160065f, 0.0965004563331604f, -0.02851817198097706f, -0.22785815596580505f, 1.210199236869812f, 1.061838984489441f, 0.3237040936946869f, -1.1057205200195312f, 0.6256312727928162f, 0.5033807158470154f, -0.5851249098777771f, 0.2273961901664734f, -0.06182513013482094f, 0.6529958248138428f, 0.1631467193365097f, -1.2178878784179688f, 0.04945465177297592f, 0.15643206238746643f, -0.19249296188354492f, -0.19091174006462097f, 0.03815196454524994f, 0.6869739890098572f, -0.13265420496463776f, 0.5795103311538696f, -0.09528123587369919f, 0.217800572514534f, -0.19869686663150787f, -0.666732907295227f, 0.33250489830970764f, -0.3299269676208496f, 0.9839600920677185f, 0.12915079295635223f, -0.25758084654808044f, 0.07887551188468933f, 0.15648022294044495f, -0.4360867738723755f, -0.25079166889190674f, -0.2111136019229889f, -0.6427314877510071f, 0.13160812854766846f, -0.033509835600852966f, 0.38834667205810547f, 0.32854384183883667f, -1.0847398042678833f, 0.09310689568519592f, -0.15725009143352509f, 0.8276748657226562f, -0.5925476551055908f, 0.3789478540420532f, 0.3048558533191681f, 0.13623318076133728f, 0.24601051211357117f, -0.15068449079990387f, 0.42887207865715027f, -0.0667601078748703f, 0.5877586603164673f, 0.057367559522390366f, 0.6280811429023743f, -0.4840455949306488f, -0.6403664350509644f, -0.09046562016010284f, 0.2442777007818222f, 0.1255878359079361f, -0.1980271190404892f, -0.1395069658756256f, 0.40189939737319946f, 0.04985520988702774f, -0.13562528789043427f, 0.9362567067146301f, 0.6834008097648621f, 0.1838277131319046f, 0.6653872728347778f, -0.4960642158985138f, 0.8851760029792786f, -0.5139312148094177f, 1.0453097820281982f, -0.7900696992874146f, -0.9576845169067383f, -0.283772736787796f, 0.2351056933403015f, -0.029115889221429825f, -1.3790271282196045f, -0.4147341847419739f, 0.6825463175773621f, 0.04156768321990967f, -0.01569889485836029f, 0.39034825563430786f, -0.1966429501771927f, 0.14333315193653107f, 0.8686164021492004f, 0.10652489960193634f, -0.1655542105436325f, 0.43141043186187744f, -0.30036062002182007f, 0.3800920248031616f, 0.5921352505683899f, -0.0025486585218459368f, -0.5045080780982971f, -0.45514535903930664f, -0.3586268126964569f, -0.9376846551895142f, 0.2720058560371399f, 0.5620192289352417f, -0.34122151136398315f, 0.21353331208229065f, 0.17891359329223633f, 0.9957946538925171f, -0.1676938235759735f, 0.28726914525032043f, -0.549882173538208f, -0.5544021129608154f, 0.625765323638916f, 0.10364791750907898f, 0.21642696857452393f, 0.1482633501291275f, -0.5326520204544067f, 0.09767886996269226f, -0.9500716328620911f, -0.2037547379732132f, 0.5864688754081726f, -0.2820562422275543f, 0.8204295039176941f, 0.02081753872334957f, 0.3279712498188019f, -0.20831044018268585f, -1.0826199054718018f, 0.32173052430152893f, 0.13559675216674805f, -0.0470743365585804f, 0.45209744572639465f, 0.0012923515168949962f, 0.5998338460922241f, -0.14135438203811646f, -0.1708352118730545f, 0.48885735869407654f, -0.47641074657440186f, -0.5378084778785706f, 0.7464388608932495f, -0.40622270107269287f, -0.36693379282951355f, -1.745725154876709f, 0.2671717703342438f, -0.13023771345615387f, -1.0651072263717651f, 0.05693819373846054f, -0.4656306207180023f, -0.457065224647522f, -0.008748100139200687f, -0.7894646525382996f, -1.4693881273269653f, 0.024186819791793823f, 0.06213739514350891f, 1.4085407257080078f, 0.18000894784927368f, -0.8700798153877258f, -0.27800533175468445f, 0.37888795137405396f, -0.06407465040683746f, 0.06351186335086823f, -0.047380801290273666f, -0.47040948271751404f, 0.660596489906311f, 1.141607403755188f, -0.5947284698486328f, -0.03937889635562897f, -0.47722703218460083f, -0.4382624924182892f, 0.49224117398262024f, -0.3589589595794678f },
  { -0.48738473653793335f, 0.14140836894512177f, 0.03513543680310249f, 0.05420053005218506f, -0.03209851682186127f, -0.11837362498044968f, 0.06099140644073486f, -0.37132760882377625f, 0.08046285808086395f, 0.820732057094574f, 0.013626542873680592f, 0.1651676893234253f, 0.04188127443194389f, 0.22502227127552032f, -0.05574345961213112f, 0.10098126530647278f, -0.268981009721756f, -0.4122466742992401f, 0.20130962133407593f, 0.06196753680706024f, 0.4573479890823364f, 0.017466584220528603f, 0.13530275225639343f, -0.139181450009346f, 0.1155351772904396f, -0.15277400612831116f, -0.017377560958266258f, 0.12903355062007904f, -0.06624314934015274f, -0.11796477437019348f, -0.3363488018512726f, 0.14277207851409912f, -0.033916957676410675f, 0.20960471034049988f, 0.20970645546913147f, 0.29123154282569885f, 0.10741214454174042f, 0.20329588651657104f, 0.0036430461332201958f, -0.014549244195222855f, 0.05903269723057747f, -0.1747657209634781f, 0.04276173934340477f, -0.03575148805975914f, 0.3185681104660034f, 0.022187083959579468f, 0.38281911611557007f, -0.21463127434253693f, 0.004150444641709328f, -0.03438526391983032f, -0.14499270915985107f, 0.009378728456795216f, 0.008235277608036995f, 0.1964929848909378f, -0.5976706147193909f, 0.09930044412612915f, 0.1314936876296997f, 0.09415680915117264f, 0.48980218172073364f, -0.09872991591691971f, -0.0349629782140255f, -0.023760361596941948f, -0.060479529201984406f, -0.14270435273647308f, -0.11376159638166428f, -0.043046027421951294f, -0.6459982395172119f, 0.04887155443429947f, -0.012134604156017303f, 0.06939414143562317f, -0.013203141279518604f, 0.31275683641433716f, -0.03439432382583618f, -0.11755561828613281f, -0.035709161311388016f, -0.09799174219369888f, -0.21100695431232452f, 0.07158764451742172f, 0.17190100252628326f, -0.15359216928482056f, 0.47532516717910767f, -0.1282559186220169f, -0.465921550989151f, 0.4425429403781891f, -0.22590327262878418f, 0.026028726249933243f, 0.02133564092218876f, -0.05232750251889229f, 0.08620371669530869f, -0.03926960751414299f, -0.33008015155792236f, -0.6089510917663574f, 0.1733998954296112f, 0.11509527266025543f, 0.07140951603651047f, 0.07748612016439438f, 0.12389329075813293f, -0.13465021550655365f, 0.07431911677122116f, -0.19057179987430573f, 0.04192204400897026f, -0.009954998269677162f, 0.09980703145265579f, -0.06333780288696289f, 0.039043426513671875f, -0.17621181905269623f, 0.16245567798614502f, 0.01815536618232727f, 0.07795935124158859f, 0.07527485489845276f, -0.04176110029220581f, 0.1463169902563095f, -0.18266864120960236f, -0.11790189892053604f, 0.11632699519395828f, -0.1301078349351883f, -0.17407774925231934f, 0.13058346509933472f, 0.25902238488197327f, 0.013352102600038052f, 0.12933427095413208f, -0.26021406054496765f, -0.46966883540153503f, 0.1881110519170761f, 0.09084215760231018f, 0.1382787972688675f, -0.07678814232349396f, -0.3657618463039398f, -0.1670418381690979f, 0.06769764423370361f, 0.03983483836054802f, -0.09330049902200699f, 0.01115671917796135f, 0.8591884970664978f, 0.18280281126499176f, -0.07936320453882217f, -0.004484234843403101f, -0.2907596230506897f, 0.43202853202819824f, -0.3055458962917328f, -0.06655372679233551f, 0.0693691298365593f, -0.03523785248398781f, -0.18394824862480164f, 0.6806067228317261f, -0.023101678118109703f, -0.32969728112220764f, 0.053319379687309265f, 0.08268637210130692f, 0.047749221324920654f, 0.6188287734985352f, -0.13526779413223267f, 0.44634220004081726f, -0.011830364353954792f, 0.11759191006422043f, 0.07044097781181335f, 0.04682549089193344f, 0.18890628218650818f, -0.12330371886491776f, -0.0363633818924427f, 0.0849892646074295f, -0.01910639926791191f, -0.018428225070238113f, -0.3205108940601349f, -0.5218146443367004f, -0.06136664003133774f, -0.07737414538860321f, -0.12189304083585739f, 0.7600026726722717f, -0.039381008595228195f, -0.07006864994764328f, 0.0030800802633166313f, -0.21755091845989227f, 0.08686751127243042f, -0.09326320141553879f, 0.2890801429748535f, -0.03598950803279877f, -0.40861544013023376f, 0.10309804975986481f, 0.10240111500024796f, -0.06499532610177994f, 0.14324918389320374f, 0.019990887492895126f, 0.0909687876701355f, -0.25483179092407227f, -0.12722717225551605f, -1.225122094154358f, 0.38067740201950073f, 0.15426018834114075f, 0.46779316663742065f, 0.14335884153842926f, 0.000596695055719465f },
  { -0.2523835003376007f, 0.0592169314622879f, 0.09556316584348679f, 0.459436297416687f, -0.2211964875459671f, -0.5932604074478149f, -0.6663150787353516f, 5.797085762023926f, 0.5084596872329712f, -0.2955560088157654f, -0.11516724526882172f, 0.17555855214595795f, -0.10222289711236954f, 0.7246555089950562f, 0.1653308868408203f, -0.5995661020278931f, 0.05759492889046669f, 0.31716614961624146f, -0.2356909215450287f, -0.09043076634407043f, 0.03129669651389122f, 0.12548670172691345f, 0.9944398403167725f, 0.05083685368299484f, 0.25009796023368835f, 0.7712723016738892f, -0.28220075368881226f, 0.5029534101486206f, -0.9945931434631348f, -0.05161445960402489f, -0.8763428926467896f, -0.49722641706466675f, 0.20305073261260986f, -0.27485617995262146f, 1.0237430334091187f, 1.0071736574172974f, -0.0435175895690918f, -0.1019575297832489f, -0.6228023767471313f, -0.00997750461101532f, 0.5776436924934387f, 0.08714445680379868f, -0.5227047801017761f, 0.5347456336021423f, 0.056574080139398575f, 0.041012927889823914f, 0.38496133685112f, -0.5131814479827881f, -0.08369824290275574f, 0.002331696217879653f, -1.1916662454605103f, -0.8094693422317505f, 0.17999862134456635f, 0.1982302963733673f, -0.48963961005210876f, 0.32283347845077515f, -0.17052730917930603f, -0.07669378817081451f, 0.22688838839530945f, -0.12398947775363922f, -0.11564905941486359f, -0.804375410079956f, -0.10419418662786484f, 0.0026373823639005423f, 0.0400131531059742f, -0.4451840817928314f, -0.9222122430801392f, 0.16800037026405334f, -0.27122119069099426f, 0.3996322453022003f, 0.31267768144607544f, -1.008615493774414f, -0.22914862632751465f, 0.30152326822280884f, -0.34791696071624756f, -0.2434474378824234f, -0.36605989933013916f, -0.4659934341907501f, -0.012834149412810802f, -0.10592669248580933f, 1.3356819152832031f, -0.3976348042488098f, -0.022731710225343704f, 0.3624146282672882f, 0.004667589906603098f, 0.7987162470817566f, -0.346603661775589f, -0.08960868418216705f, -0.6397701501846313f, 0.045445170253515244f, -0.7032250165939331f, 0.9371210932731628f, 0.2893708646297455f, 0.6102825999259949f, 0.19151437282562256f, 0.2591090500354767f, 0.03128030523657799f, -0.31213730573654175f, 0.3708135783672333f, -0.6720620393753052f, 0.17458310723304749f, -0.5770438313484192f, 0.20485436916351318f, -0.4398953914642334f, -0.39216989278793335f, -0.3642975687980652f, -0.21176058053970337f, -0.5075998306274414f, 0.9608949422836304f, 0.29910388588905334f, 0.1344476342201233f, -0.0970505028963089f, -1.4155949354171753f, 0.6501315236091614f, -0.1603485494852066f, -0.5593626499176025f, -0.0316632017493248f, -0.506032407283783f, 0.43570148944854736f, 0.08178078383207321f, 0.3804117441177368f, -0.10399001091718674f, -0.5317379236221313f, 0.2565546929836273f, 0.027521880343556404f, -0.2732336223125458f, -0.06467172503471375f, -0.6178593635559082f, 0.36362844705581665f, -0.04172222316265106f, 0.14462140202522278f, 0.057766858488321304f, -0.0020048399455845356f, -0.051185235381126404f, 0.0071496134623885155f, 0.7354863286018372f, -0.4109727740287781f, -0.5051819086074829f, -0.18440106511116028f, 0.17221570014953613f, -0.16150999069213867f, -0.001755113829858601f, 0.1683061271905899f, -0.3917666971683502f, -0.654690146446228f, -0.3872583508491516f, -1.4407507181167603f, -0.03695668280124664f, -0.3585810363292694f, 0.09767745435237885f, 0.008085815235972404f, -1.0246002674102783f, 0.487748384475708f, -0.09578392654657364f, -0.5714308023452759f, 0.08270619809627533f, -0.3524865210056305f, -0.14514003694057465f, -0.7476774454116821f, -0.42202502489089966f, 0.32773688435554504f, 0.10268358886241913f, -0.10836614668369293f, 0.45903101563453674f, 1.015986442565918f, 0.5077129602432251f, 0.26548510789871216f, 0.38796466588974f, -0.9895045757293701f, -0.24736696481704712f, 0.6450150609016418f, 0.07550926506519318f, 0.17841926217079163f, 0.01302725076675415f, -0.22830729186534882f, 0.15152901411056519f, -0.24814657866954803f, -0.38400059938430786f, -0.12042758613824844f, -0.24258774518966675f, -0.38153815269470215f, -0.2416308969259262f, 0.7124040126800537f, 0.7008911371231079f, 0.43515029549598694f, 0.34427207708358765f, -0.5171655416488647f, 0.10138073563575745f, 0.8579395413398743f, -0.5102758407592773f, -0.05377034842967987f, -0.011425604112446308f },
  { -0.4744187593460083f, 0.12546011805534363f, 0.0990666002035141f, -0.002102924743667245f, 0.12480327486991882f, -0.03881235048174858f, -0.0516020730137825f, -0.8063031435012817f, -0.17797593772411346f, 0.05471526458859444f, -0.10051707923412323f, 0.3693503737449646f, 0.08370514959096909f, 0.05156664177775383f, -0.00234975409694016f, -0.1299329400062561f, 0.014379605650901794f, -0.588293731212616f, 0.006238721311092377f, -0.051054127514362335f, -0.14778456091880798f, -0.02298220619559288f, 0.20770925283432007f, -0.19767537713050842f, -0.016349980607628822f, -0.24632830917835236f, 0.1060819923877716f, 0.10713351517915726f, 0.47007712721824646f, 0.13169102370738983f, 0.10655126720666885f, 0.04803987592458725f, -0.02212107554078102f, -0.17176806926727295f, 0.11883731186389923f, 0.24462053179740906f, 0.40378105640411377f, 0.2329733967781067f, -0.1293870508670807f, 0.02511187642812729f, 0.16845935583114624f, 0.03002503700554371f, -0.011987067759037018f, 0.03195333108305931f, 0.2739907205104828f, 0.0656757652759552f, 0.22813589870929718f, -0.22450552880764008f, -0.0392184853553772f, 0.2124892771244049f, 0.11957215517759323f, -0.5184227228164673f, 0.3581770360469818f, 0.297379732131958f, -0.16402170062065125f, -0.08881308883428574f, 0.0812036320567131f, -0.10437936335802078f, 0.24408364295959473f, -0.20314106345176697f, -0.08815290033817291f, -0.06104755029082298f, 0.1388653665781021f, -0.018990932032465935f, 0.06201934441924095f, 0.008167894557118416f, -0.7366899251937866f, 0.032753363251686096f, -0.03984902799129486f, 0.27178341150283813f, -0.08491375297307968f, -0.08134324103593826f, -0.023774564266204834f, -0.09130685776472092f, -0.0933593139052391f, -0.194924458861351f, -0.181712344288826f, -0.11498232185840607f, 0.11710194498300552f, -0.0067869387567043304f, 0.526256263256073f, -0.013514477759599686f, 0.4684407413005829f, 0.32409635186195374f, -0.3261447548866272f, 0.02912396937608719f, -0.39008113741874695f, -0.13690388202667236f, 0.1706363409757614f, -0.004844944458454847f, 0.32624638080596924f, 0.4122323989868164f, 0.40994492173194885f, 0.027007728815078735f, 0.1448741853237152f, 0.1364607810974121f, 0.1794086992740631f, -0.1499171257019043f, 0.14550413191318512f, -0.44108206033706665f, -0.24893228709697723f, -0.21056650578975677f, -0.0174772497266531f, 0.10010804980993271f, -0.3068866729736328f, -0.129470556974411f, -0.3908926844596863f, 0.0224439837038517f, 0.10608535259962082f, 0.11732414364814758f, 0.0872349813580513f, 0.18660879135131836f, -0.1870669722557068f, -0.011292248964309692f, 0.16469475626945496f, -0.3611539602279663f, 0.13303148746490479f, 0.16689695417881012f, 0.13383051753044128f, 0.056589335203170776f, 0.03133776783943176f, 0.3772836923599243f, 0.2576347887516022f, -0.014048862271010876f, -0.07104247808456421f, 0.10711809247732162f, -0.07419925928115845f, -0.26822251081466675f, 0.21919888257980347f, 0.043521519750356674f, 0.16457612812519073f, -0.22023901343345642f, 0.012434358708560467f, 0.29937753081321716f, 0.20448248088359833f, 0.38072967529296875f, -0.1025543212890625f, 0.13921672105789185f, -0.14488278329372406f, -0.05878012254834175f, -0.17183786630630493f, 0.13130377233028412f, -0.09467069059610367f, -0.19659659266471863f, 0.5769404768943787f, 0.0028265402652323246f, 0.2586100995540619f, 0.044592611491680145f, 0.009582774713635445f, 0.23739571869373322f, -0.08523447066545486f, 0.019705364480614662f, 0.8331687450408936f, 0.09058651328086853f, -0.05351627618074417f, -0.17780838906764984f, -0.029802381992340088f, -0.008899741806089878f, -0.1989365518093109f, -0.058115988969802856f, 0.11661237478256226f, -0.018047571182250977f, -0.11221253126859665f, -0.41182005405426025f, 0.6683037281036377f, 0.15520529448986053f, -0.06360425055027008f, -0.12338565289974213f, 0.38515281677246094f, -0.08583861589431763f, -0.07286664843559265f, -0.13518135249614716f, -1.0312892198562622f, 0.13040371239185333f, -0.09002643823623657f, 0.0743604451417923f, 0.20896102488040924f, -0.08431998640298843f, 0.04502290487289429f, -0.014340974390506744f, -0.01721598394215107f, -1.270566701889038f, 0.010311614722013474f, 0.10220730304718018f, 0.10789477825164795f, -0.10954249650239944f, 0.5214532613754272f, -0.358236700296402f, 0.014075206592679024f, -0.11529701948165894f, 0.014169362373650074f, -0.09922134131193161f },
  { -0.34296804666519165f, 0.007303317077457905f, 0.15139827132225037f, -0.003767306450754404f, 0.04565178230404854f, -0.3928578794002533f, -0.046565186232328415f, -0.11034536361694336f, 0.010164505802094936f, -0.02889001928269863f, -0.06350607424974442f, 0.11152715981006622f, -0.010632620193064213f, 0.3158140778541565f, 0.17923128604888916f, -0.1820814311504364f, -0.19409236311912537f, -0.3041907250881195f, 0.038242995738983154f, -0.01010844111442566f, 0.015175027772784233f, 0.07651545852422714f, 0.25176918506622314f, 0.007209222298115492f, 0.13650178909301758f, -0.25688570737838745f, -0.0040798308327794075f, 0.26575472950935364f, 0.025195378810167313f, 0.1410958170890808f, -0.16554702818393707f, 0.05925273150205612f, -0.0362059660255909f, -0.0293335672467947f, 0.5752461552619934f, 0.39786097407341003f, 0.3121303617954254f, 0.06327469646930695f, -0.22154924273490906f, -0.08904711902141571f, 0.0019233622588217258f, -0.053332071751356125f, 0.0031909276731312275f, 0.10749226808547974f, -0.04024243354797363f, 0.12190394103527069f, 0.06106734648346901f, -0.18446582555770874f, -0.010005978867411613f, -0.13283823430538177f, 0.13092128932476044f, -0.2923136055469513f, 0.18922629952430725f, 0.3910726010799408f, -0.15126825869083405f, 0.09233511984348297f, -0.03957359120249748f, 0.09791995584964752f, 0.09019868820905685f, 0.18252834677696228f, 0.08792219310998917f, -0.1599680334329605f, 0.07936610281467438f, -0.1165708526968956f, 0.07227146625518799f, -0.1358284205198288f, -0.13111098110675812f, 0.11376015096902847f, -0.04219110310077667f, 0.2212955504655838f, 0.12657594680786133f, -0.1032724678516388f, 0.12326273322105408f, 0.029037363827228546f, -0.18089057505130768f, -0.08500149846076965f, -0.38793274760246277f, 0.14108291268348694f, -0.10274819284677505f, -0.30102816224098206f, 0.17023657262325287f, -0.0030117265414446592f, -0.2839632034301758f, 0.5207233428955078f, -0.17543816566467285f, 0.13797256350517273f, -0.13958902657032013f, -0.027266597375273705f, -0.11108872294425964f, 0.0563480369746685f, 0.13908527791500092f, -0.41925376653671265f, 0.416385680437088f, -0.20071235299110413f, 0.1414983719587326f, 0.1271570324897766f, 0.18421894311904907f, -0.18631933629512787f, 0.1892126202583313f, -0.20118442177772522f, -0.11446554213762283f, -0.28585171699523926f, 0.1262197345495224f, 0.15009790658950806f, -0.43354055285453796f, -0.12334823608398438f, -0.018836574628949165f, -0.07072345167398453f, 0.20582172274589539f, 0.017189720645546913f, 0.05913547798991203f, 0.11612029373645782f, -0.2602872848510742f, 0.22896595299243927f, -0.06078796833753586f, -0.1664111465215683f, 0.03746054694056511f, 0.14271970093250275f, 0.16530683636665344f, 0.14391574263572693f, 0.12319829314947128f, 0.09799417108297348f, -0.15438197553157806f, -0.0291341133415699f, 0.07042854279279709f, 0.17469234764575958f, -0.10340145975351334f, -0.24219948053359985f, 0.17086952924728394f, -0.09039434045553207f, -0.05033380538225174f, -0.10348887741565704f, 0.08059127628803253f, 0.357512891292572f, 0.2681475281715393f, 0.3062884211540222f, 0.04151012375950813f, -0.09449192136526108f, -0.4103054106235504f, -0.1088155135512352f, -0.29212501645088196f, -0.013804989866912365f, 0.13096393644809723f, -0.17361833155155182f, -0.22560586035251617f, -0.212937131524086f, 0.010635367594659328f, -0.2032698690891266f, 0.08929023891687393f, 0.2845977246761322f, -0.10684078186750412f, 0.117932990193367f, 0.15907126665115356f, 0.0877152606844902f, 0.011530625633895397f, 0.03135406970977783f, -0.06921929121017456f, 0.035856328904628754f, -0.30581536889076233f, -0.21530596911907196f, 0.15214577317237854f, -0.026467714458703995f, 0.0015106222126632929f, -0.797719419002533f, -0.08015649765729904f, 0.23131319880485535f, -0.2382114827632904f, 0.13429668545722961f, 0.29402533173561096f, -0.10716643929481506f, 0.374603807926178f, -0.07157939672470093f, -0.20377026498317719f, 0.12217740714550018f, -0.04756958782672882f, -0.03485355153679848f, -0.19821476936340332f, -0.4868219494819641f, 0.030955849215388298f, 0.020126361399888992f, -0.028247447684407234f, 0.0285559743642807f, 0.06481966376304626f, 0.208781436085701f, 0.06382133811712265f, 0.013200744055211544f, -0.22605416178703308f, 0.04727873206138611f, 0.1543215811252594f, -0.12981340289115906f, 0.32843878865242004f, -0.08072026818990707f },
  { -0.36608001589775085f, 0.14219370484352112f, 0.043627575039863586f, -0.014863146468997002f, 0.08592378348112106f, -0.06527059525251389f, 0.08422444760799408f, -0.5630462765693665f, 0.026972325518727303f, 0.11006935685873032f, 0.041969578713178635f, 0.3603336215019226f, 0.03629785403609276f, 0.18739168345928192f, -0.0988350585103035f, -0.2840697169303894f, 0.07945316284894943f, -0.32353562116622925f, 0.10233080387115479f, -0.08882994949817657f, -0.3268352746963501f, -0.2586561143398285f, 0.20977117121219635f, -0.30350375175476074f, 0.10278806835412979f, -0.3255813419818878f, 0.1381223499774933f, -0.10181912779808044f, 0.012135297991335392f, -0.10744823515415192f, -0.15377116203308105f, -0.10379272699356079f, 0.07993606477975845f, -0.19289730489253998f, 0.02455422468483448f, 0.2399427443742752f, 0.2674688398838043f, 0.12339668720960617f, 0.05207434296607971f, 0.09605800360441208f, 0.1296202838420868f, 0.044176727533340454f, 0.11841102689504623f, 0.0400364063680172f, 0.26367735862731934f, 0.1151730939745903f, 0.30216777324676514f, -0.36167624592781067f, -0.049317553639411926f, 0.11996642500162125f, 0.23018501698970795f, -0.7652493119239807f, 0.15573710203170776f, 0.1587337851524353f, -0.40541696548461914f, -0.18203571438789368f, 0.11393279582262039f, 0.13688209652900696f, -0.0005967578617855906f, -0.10075880587100983f, -0.07917836308479309f, -0.16145050525665283f, 0.14819765090942383f, -0.13939374685287476f, -0.013540461659431458f, -0.02181192860007286f, -0.9157326221466064f, -0.008386090397834778f, 0.013070264831185341f, 0.14247334003448486f, -0.2138245850801468f, -0.03213655203580856f, -0.015367213636636734f, -0.17771299183368683f, -0.08960392326116562f, -0.0783829391002655f, -0.19417709112167358f, -0.069088414311409f, 0.11487893760204315f, 0.14340603351593018f, 0.33380722999572754f, -0.12590059638023376f, -0.5966113209724426f, 0.26878851652145386f, -0.307444304227829f, -0.06898880004882812f, -0.3179469108581543f, -0.1237378716468811f, 0.23135477304458618f, -0.06166381761431694f, 0.05443610996007919f, 0.08324035257101059f, 0.48949629068374634f, -0.15053488314151764f, 0.19227755069732666f, 0.025551466271281242f, 0.1506720632314682f, -0.351443350315094f, 0.10387130826711655f, -0.25625860691070557f, -0.3875146806240082f, -0.09599555283784866f, 0.048395346850156784f, -0.030283721163868904f, -0.05902312695980072f, -0.05413997545838356f, -0.09085888415575027f, 0.12362426519393921f, -0.018307391554117203f, -0.04920323193073273f, -0.049090784043073654f, 0.30660995841026306f, -0.11954094469547272f, 0.039299238473176956f, 0.11199180781841278f, -0.3407628834247589f, -0.08244980126619339f, 0.07843303680419922f, 0.07061737775802612f, 0.0931357592344284f, -0.011411462910473347f, 0.6764546036720276f, 0.056209295988082886f, -0.024474579840898514f, 0.0845094844698906f, 0.06336365640163422f, -0.08571334928274155f, -0.2814615070819855f, -0.03385865315794945f, -0.10120885819196701f, -0.03514109551906586f, -0.18621130287647247f, 0.041237086057662964f, 0.27929288148880005f, 0.25780734419822693f, 0.13927078247070312f, -0.17402538657188416f, 0.06784145534038544f, -0.17547529935836792f, -0.20402370393276215f, -0.14974737167358398f, 0.11135111004114151f, -0.08765950798988342f, -0.2540813684463501f, 0.5246683359146118f, -0.05589893087744713f, -0.0014787508407607675f, 0.061541926115751266f, 0.006662373431026936f, 0.17056694626808167f, 0.1360531449317932f, 0.3923855423927307f, 0.37902402877807617f, 0.014040537178516388f, -0.13700301945209503f, -0.17282582819461823f, 0.06087998300790787f, 0.015882493928074837f, -0.183806374669075f, 0.06311801075935364f, 0.08409406989812851f, -0.1134067252278328f, 0.031372103840112686f, -0.23701795935630798f, 0.5924555063247681f, 0.1200530081987381f, -0.11146548390388489f, -0.17554785311222076f, 0.4521171748638153f, -0.14600883424282074f, -0.02391803078353405f, -0.08182710409164429f, -0.2281278818845749f, 0.10368908196687698f, -0.20193524658679962f, 0.015666399151086807f, 0.4454094171524048f, -0.1401224285364151f, 0.12579719722270966f, -0.025752531364560127f, 0.001390404417179525f, 2.2575650215148926f, 0.0782051533460617f, -0.05791294202208519f, 0.17038728296756744f, 0.07359738647937775f, -0.1452108770608902f, -0.42071905732154846f, -0.03735768422484398f, 0.15809129178524017f, -0.024445949122309685f, -0.005613754503428936f },
  { -0.05964283272624016f, 0.4003261625766754f, 0.25176265835762024f, 0.3681724965572357f, -0.2897159159183502f, 0.035742539912462234f, -0.6502048969268799f, 7.148041248321533f, 0.6367591023445129f, -0.3898644745349884f, -0.7176191806793213f, -0.19041162729263306f, 0.2777996361255646f, -0.627631425857544f, -0.11787403374910355f, -0.20997990667819977f, -0.21807228028774261f, 0.9193934202194214f, 0.03826703131198883f, -0.12986893951892853f, 0.6200230717658997f, -0.1555931121110916f, 0.8263909816741943f, -0.30463477969169617f, -0.022676927968859673f, 1.4364925622940063f, -0.4643220007419586f, 0.25925254821777344f, -0.3120211958885193f, -0.8544601798057556f, -1.0675256252288818f, -0.11382689327001572f, 0.33190879225730896f, -0.31579339504241943f, -0.1105940043926239f, 0.44324690103530884f, -0.8446680307388306f, -0.13706223666667938f, -0.2953563332557678f, 0.24153070151805878f, 0.4100460112094879f, -0.17453935742378235f, -0.3616064786911011f, 0.3211735188961029f, 0.9081379175186157f, -0.44535714387893677f, 0.7166141867637634f, -0.5133810043334961f, -0.05179886892437935f, 0.07781072705984116f, -1.3428068161010742f, 0.706895112991333f, -0.19769743084907532f, -0.333118200302124f, 0.5936246514320374f, 0.44916725158691406f, 0.006165873259305954f, -0.016350848600268364f, 0.02414564974606037f, -0.0671670213341713f, -0.3751591742038727f, -0.8614130020141602f, -0.31321826577186584f, -0.06428911536931992f, 0.15965335071086884f, -0.17270298302173615f, -1.2361379861831665f, 0.24926520884037018f, -0.06227261945605278f, 0.35597100853919983f, 0.23271122574806213f, 0.12577088177204132f, -0.4245978891849518f, -0.15268667042255402f, -0.22282925248146057f, -0.22515249252319336f, -0.08505271375179291f, -0.27686557173728943f, 0.31549781560897827f, 0.6254742741584778f, 1.4352318048477173f, -0.5394089221954346f, 0.23546350002288818f, -0.7256419658660889f, 0.29657578468322754f, 0.43247371912002563f, -0.10846972465515137f, 0.10483314096927643f, -0.5576916933059692f, -0.03873573988676071f, -0.9060378670692444f, 0.7118386626243591f, -0.39340901374816895f, 1.3603063821792603f, 0.5788285136222839f, -0.010539745911955833f, 0.08463472872972488f, -0.7600026726722717f, 0.29245051741600037f, -0.43189701437950134f, -0.46514078974723816f, -0.06784847378730774f, 0.5095626711845398f, -0.11495983600616455f, -0.10715487599372864f, -0.5043467879295349f, -0.7659736275672913f, -0.3588593900203705f, 0.5142580270767212f, -0.13259468972682953f, -0.2563784122467041f, 0.18906153738498688f, 0.03323667496442795f, 0.1874389946460724f, 0.3287906348705292f, -0.43702003359794617f, 0.1685425043106079f, -0.315355122089386f, 0.27142298221588135f, -0.1696254462003708f, 0.3512130677700043f, 0.1297922283411026f, -0.3192443251609802f, -0.09319967776536942f, -0.01477500144392252f, -0.2999453544616699f, 0.14824819564819336f, -0.7271320223808289f, 0.36746716499328613f, 0.45784005522727966f, 0.29430508613586426f, 0.1829824447631836f, -0.20454756915569305f, -0.29430803656578064f, 0.36632469296455383f, 0.6795536279678345f, -0.7009116411209106f, 0.05132712796330452f, 0.2242663949728012f, 0.4002422094345093f, -0.1790943443775177f, 0.11671055853366852f, -0.44534429907798767f, -0.028602484613656998f, -0.6277158260345459f, 0.5148254036903381f, -0.650202214717865f, 0.3414008319377899f, -0.601276695728302f, -0.1451566517353058f, 0.9845415949821472f, -1.0362528562545776f, 0.04405757412314415f, -0.3338034749031067f, -0.22997228801250458f, 0.16502441465854645f, -0.7214893102645874f, 0.37528112530708313f, -0.7388982772827148f, 0.24372729659080505f, 0.5630635619163513f, -0.14975474774837494f, -0.1910078525543213f, 0.7469328045845032f, 0.8249267935752869f, 0.31605637073516846f, -0.17365360260009766f, 0.010376405902206898f, -1.54358971118927f, -0.1777738630771637f, 0.20660804212093353f, 0.06194988638162613f, -1.0734354257583618f, -0.3999411165714264f, -0.2701870799064636f, 0.43340763449668884f, -0.1402215212583542f, 0.17512863874435425f, -0.0463787205517292f, 0.04261403903365135f, -0.6366209387779236f, -0.6165087223052979f, 0.8290663361549377f, 0.07211775332689285f, 0.10672350972890854f, 0.2553105354309082f, -0.15686939656734467f, -0.3999125063419342f, 0.4408807158470154f, -1.112356185913086f, -0.4680456221103668f, -0.1196824237704277f },
  { -0.5930575132369995f, 0.06931928545236588f, 0.016598185524344444f, -0.007737098727375269f, 0.0027195073198527098f, -0.1982782781124115f, -0.031379640102386475f, -0.4951413571834564f, 0.02648708038032055f, 0.18478381633758545f, -0.129872664809227f, 0.03810397908091545f, 0.034448228776454926f, 0.21599680185317993f, -0.06769925355911255f, -0.11804145574569702f, -0.20970940589904785f, -0.23283691704273224f, 0.33978769183158875f, 0.03374280780553818f, 0.5755302309989929f, -0.021248387172818184f, 0.10172899812459946f, -0.04701610282063484f, 0.10394048690795898f, -0.2549978494644165f, -0.0860917866230011f, 0.07481531798839569f, 0.8010714650154114f, 0.05230891332030296f, -0.45492804050445557f, -0.1361190676689148f, -0.13200905919075012f, 0.12543483078479767f, 1.494758129119873f, 0.2743905186653137f, 0.16770078241825104f, 0.12180362641811371f, -0.10100232809782028f, 0.007805337198078632f, 0.007973680272698402f, -0.12358701974153519f, 0.1959511637687683f, -0.10916835069656372f, 0.27343833446502686f, -0.09135793894529343f, 0.4157811999320984f, -0.37440210580825806f, -0.0193913783878088f, -0.05968421325087547f, -0.004922601860016584f, -0.0534815713763237f, 0.08538414537906647f, 0.16746005415916443f, 0.7248204946517944f, -0.019777677953243256f, 0.1769028753042221f, 0.01280219852924347f, 0.24759028851985931f, 0.005937835201621056f, -0.04052062705159187f, -0.11323060095310211f, 0.0841732919216156f, -0.12552513182163239f, -0.06530822068452835f, -0.07013513147830963f, -0.7438204288482666f, 0.07416033744812012f, -0.05744168907403946f, 0.1074000895023346f, -0.019716434180736542f, 0.2543336749076843f, -0.09863832592964172f, -0.19355054199695587f, -0.09435400366783142f, -0.03928585723042488f, -0.2117612212896347f, 0.007146904245018959f, 0.10299921035766602f, 0.11301746964454651f, 0.6335113048553467f, -0.21476636826992035f, -0.5090659260749817f, 0.5264298915863037f, -0.295101523399353f, 0.043235715478658676f, -0.12975719571113586f, -0.0223965123295784f, 0.027684591710567474f, -0.005086764693260193f, -0.2762495279312134f, 0.015129916369915009f, 0.05105011910200119f, 0.05152461677789688f, 0.08407433331012726f, -0.008142810314893723f, 0.08982791751623154f, -0.2528102397918701f, 0.199290931224823f, -0.22539657354354858f, -0.09936226159334183f, -0.2947203814983368f, 0.15461760759353638f, 0.020642440766096115f, 0.0921206921339035f, -0.16741985082626343f, -0.16994602978229523f, 0.07641975581645966f, 0.13453806936740875f, -0.1497986614704132f, -0.15731436014175415f, 0.24969877302646637f, -0.22356587648391724f, -0.02302277833223343f, 0.02070162631571293f, -0.12487870454788208f, -0.005575734656304121f, 0.13056373596191406f, 0.01381094940006733f, -0.002085284795612097f, -0.00968286581337452f, -0.21622517704963684f, -0.24456380307674408f, -0.042683012783527374f, -0.012856563553214073f, 0.12963557243347168f, -0.15690238773822784f, -0.19731685519218445f, -0.13542190194129944f, -0.012191854417324066f, 0.16489362716674805f, -0.05501508340239525f, -0.005781606305390596f, -0.1902632862329483f, 0.24397166073322296f, -0.09818562865257263f, -0.021387239918112755f, -0.2537079453468323f, -0.21791471540927887f, -0.34086310863494873f, -0.22766566276550293f, 0.04462979733943939f, -0.027847127988934517f, -0.05365883186459541f, 0.06618392467498779f, -0.20284044742584229f, -0.2570718824863434f, 0.003090235637500882f, 0.09676646441221237f, 0.07971207052469254f, -0.547953724861145f, 0.1861051768064499f, 0.7092193365097046f, -0.07335639744997025f, 0.05604850500822067f, -0.017043691128492355f, -0.06776276230812073f, 0.15241341292858124f, -0.15869593620300293f, -0.19368988275527954f, 0.17579835653305054f, -0.14972375333309174f, -0.12767264246940613f, -0.4464660882949829f, 0.14952023327350616f, 0.06274799257516861f, -0.19259245693683624f, -0.001102399080991745f, 0.752736508846283f, -0.029493754729628563f, -0.050936125218868256f, -0.10093312710523605f, -0.1256081610918045f, -0.15815068781375885f, 0.03526463732123375f, 0.25213855504989624f, -0.0816425234079361f, -0.20380814373493195f, 0.10711687058210373f, -0.004512838553637266f, 0.03611038252711296f, 0.4901256263256073f, -0.08702165633440018f, -0.18592166900634766f, -0.06253935396671295f, 0.01446437742561102f, 0.7033270001411438f, 0.49134600162506104f, 0.034242697060108185f, 0.11566677689552307f, 0.14288505911827087f, 0.007725986652076244f },
  { -0.3447434604167938f, 0.4398899972438812f, -0.09516822546720505f, 0.0278610996901989f, -0.07634866237640381f, 0.47197380661964417f, -1.2774536609649658f, 7.437395095825195f, 0.7171850800514221f, -0.183047816157341f, -0.7084456086158752f, 0.32373911142349243f, 0.0962449312210083f, 0.09752324968576431f, -0.07380463927984238f, -0.7828319072723389f, -0.21345271170139313f, 0.6253432631492615f, -0.029076365754008293f, -0.1445549577474594f, 0.6125607490539551f, -0.05776713415980339f, 0.8637000322341919f, -0.40868860483169556f, -0.044541023671627045f, 1.6880860328674316f, -0.47476857900619507f, 0.3071604371070862f, -0.251402348279953f, -0.48144975304603577f, -0.7853889465332031f, -0.06738613545894623f, -0.02125401981174946f, -0.2316385954618454f, -0.4921877086162567f, 0.7276788949966431f, -0.5836713314056396f, 0.12201891839504242f, -0.7252908945083618f, 0.17836043238639832f, 0.7426077723503113f, -0.22504933178424835f, -0.5718262195587158f, 0.272243469953537f, 0.2951832711696625f, -0.25502339005470276f, 1.2831783294677734f, -1.0035605430603027f, -0.1451483964920044f, 0.1296764314174652f, -1.300192952156067f, -0.3309326171875f, -0.26201656460762024f, -0.46499571204185486f, 0.11750391870737076f, 0.054959822446107864f, -0.030875345692038536f, 0.07241745293140411f, 0.12409669905900955f, -0.025587011128664017f, -0.5526372790336609f, -0.8529181480407715f, -0.6421473026275635f, -0.03581065684556961f, 0.012385516427457333f, -0.2457025796175003f, -1.9250590801239014f, 0.5800072550773621f, -0.32205501198768616f, 0.486061692237854f, -0.018984537571668625f, -0.3161066174507141f, -0.7032759189605713f, 0.11973582208156586f, 0.028588971123099327f, -0.15896956622600555f, 0.11727333068847656f, -0.7146878242492676f, 0.3132150173187256f, 0.5279103517532349f, 1.8986008167266846f, -0.5798754096031189f, 0.6209144592285156f, 0.008435317315161228f, 0.5152583718299866f, 0.5448669791221619f, -0.5495377779006958f, -0.05684297904372215f, -0.31386297941207886f, 0.01068210694938898f, -1.6470240354537964f, 0.6710053086280823f, -0.08421780169010162f, 1.433242678642273f, 0.7024829387664795f, -0.23476611077785492f, -0.07570531219244003f, -0.944968044757843f, 0.2282102406024933f, -0.9179620742797852f, 0.041958414018154144f, 0.06034958362579346f, 0.5843417644500732f, -0.43057504296302795f, -0.25988808274269104f, -0.6789183616638184f, -0.3693156838417053f, -0.29205313324928284f, 0.8754106760025024f, 0.03337685391306877f, -0.09327056258916855f, 0.13494457304477692f, -0.6857197284698486f, 0.2704644799232483f, 0.05470587685704231f, 0.26898467540740967f, 0.06553015857934952f, -0.5495947003364563f, -0.013838394545018673f, -0.1258799433708191f, 0.4902194142341614f, -0.041594408452510834f, -0.6049641370773315f, 0.1805569976568222f, 0.06500325351953506f, -0.4990127384662628f, -0.011742135509848595f, -1.0316587686538696f, 0.42413437366485596f, 0.42078033089637756f, 0.4665694534778595f, 0.24330495297908783f, 0.0375177226960659f, -1.3203295469284058f, -0.017206693068146706f, 0.17957855761051178f, -0.8256852626800537f, -0.32072240114212036f, 0.26033779978752136f, 0.4255453944206238f, -0.22597835958003998f, -0.03816459700465202f, -0.4064022898674011f, -0.4009128212928772f, -0.07226867973804474f, 0.1809035688638687f, -1.4442166090011597f, 0.8225482106208801f, -0.5952404141426086f, -0.22621385753154755f, 0.49334779381752014f, -1.4800056219100952f, 0.013840670697391033f, -0.07410129904747009f, -0.4181434214115143f, -0.017505595460534096f, -0.5404013395309448f, 0.2751951813697815f, -0.756064236164093f, 0.33984097838401794f, 0.4766002595424652f, -0.041422586888074875f, 0.061751265078783035f, 1.4620471000671387f, 1.167357087135315f, 0.20766976475715637f, 0.10047886520624161f, -0.04093140363693237f, -2.4177334308624268f, -0.10101448744535446f, 1.134973406791687f, 0.1380198895931244f, -1.0210968255996704f, -0.41341742873191833f, -0.23431338369846344f, 0.7539864778518677f, 0.24832232296466827f, -0.21528060734272003f, 0.14256711304187775f, -0.017325811088085175f, -0.3453705906867981f, -0.3788435161113739f, 0.9162707924842834f, 0.2938907742500305f, 0.350212037563324f, 0.4757895767688751f, -0.06500686705112457f, -0.30138856172561646f, 1.0366616249084473f, -0.60564786195755f, -0.272867351770401f, 0.04734865203499794f },
  { -0.1654919534921646f, 0.12296828627586365f, 0.1572714000940323f, 0.17639318108558655f, -0.010717527009546757f, -0.23758409917354584f, 0.16996312141418457f, -0.5989505052566528f, 0.011507764458656311f, 0.08876869827508926f, 0.00032371614361181855f, 0.22435268759727478f, 0.13203074038028717f, 0.1343279927968979f, 0.03085191361606121f, -0.09443771094083786f, -0.1134774312376976f, -0.943015456199646f, 0.20196019113063812f, 0.10600163787603378f, 0.518444299697876f, 0.22012478113174438f, 0.514435887336731f, 0.004186113364994526f, 0.23822078108787537f, -0.2557549774646759f, 0.10232165455818176f, 0.12026000767946243f, -0.1418849378824234f, 0.008026642724871635f, 0.09668786078691483f, 0.17208711802959442f, -0.049839239567518234f, 0.18757076561450958f, -0.29734593629837036f, 0.36970260739326477f, 0.05953352898359299f, 0.0021648542024195194f, -0.08422111719846725f, -0.04954402521252632f, 0.2032078504562378f, -0.023817336186766624f, 0.08943508565425873f, -0.03918224200606346f, 0.30737024545669556f, 0.027383536100387573f, 0.4745276868343353f, -0.27192947268486023f, 0.02614728920161724f, 0.012067608535289764f, -0.17171716690063477f, -0.5252442359924316f, 0.07371079921722412f, 0.1956641972064972f, -0.5201213955879211f, -0.06060265004634857f, 0.15413600206375122f, -0.022511666640639305f, 0.36948397755622864f, 0.17005379498004913f, 0.02258286625146866f, -0.01063005905598402f, 0.1001179963350296f, -0.13478156924247742f, -0.035614240914583206f, 0.060039669275283813f, -0.7810205221176147f, 0.008015588857233524f, 0.1338954120874405f, 0.09971655160188675f, -0.00757717527449131f, 0.4368768334388733f, -0.0560140535235405f, -0.00472473306581378f, -0.009516668505966663f, -0.12450481206178665f, -0.32691019773483276f, 0.0901096984744072f, 0.20905686914920807f, 0.4214492440223694f, 0.6471202373504639f, -0.09046681970357895f, -0.6146043539047241f, 0.60587078332901f, -0.16027162969112396f, -0.06909366697072983f, -0.13883760571479797f, -0.051019586622714996f, 0.09011679887771606f, -0.09589111059904099f, -0.29224151372909546f, -0.5053800940513611f, 0.29104122519493103f, -0.10480277985334396f, 0.12736721336841583f, 0.08792293816804886f, 0.4378458261489868f, -0.1681612730026245f, 0.2503805160522461f, -0.16504916548728943f, -0.13552075624465942f, 0.0692865327000618f, 0.09452013671398163f, 0.10260599106550217f, 0.1370072066783905f, -0.17042230069637299f, 0.03618953004479408f, 0.2552834749221802f, 0.1356237232685089f, 0.07538008689880371f, -0.06898368895053864f, 0.18940739333629608f, -0.1251419186592102f, 0.028734758496284485f, 0.015517770312726498f, -0.2601344585418701f, -0.10837170481681824f, 0.26681020855903625f, 0.135675847530365f, 0.10663334280252457f, 0.003773667151108384f, -0.20171073079109192f, 0.05025939643383026f, -0.02993892692029476f, 0.018081635236740112f, 0.20349732041358948f, -0.03880792111158371f, 0.0009608534164726734f, -0.1775304526090622f, 0.000729802472051233f, 0.019689656794071198f, -0.05816381797194481f, -0.1329859048128128f, 0.18881359696388245f, 0.3216259777545929f, -0.05159059166908264f, -0.022055987268686295f, -0.1805688589811325f, 0.04924621433019638f, -0.14644262194633484f, -0.13233527541160583f, 0.019012512639164925f, 0.00587424635887146f, -0.2307051122188568f, -0.03035864420235157f, -0.23851414024829865f, -0.206394761800766f, -0.006312613375484943f, 0.032529689371585846f, 0.2250884622335434f, 0.984334409236908f, -0.14887960255146027f, -0.03630935773253441f, 0.0841645896434784f, 0.2191377580165863f, -0.04678170755505562f, -0.053125545382499695f, 0.3217119872570038f, -0.17411766946315765f, -0.14628630876541138f, 0.22894421219825745f, -0.1396758258342743f, 0.053326260298490524f, -0.49011507630348206f, -0.6648923754692078f, 0.14702804386615753f, -0.10659554600715637f, 0.02870536781847477f, 0.8159549236297607f, -0.04900446534156799f, 0.0008667738293297589f, 0.14866770803928375f, -0.2964324355125427f, 0.021997647359967232f, 0.007155843544751406f, 0.3593592941761017f, -0.0046828328631818295f, -0.29896336793899536f, 0.17782281339168549f, 0.01654563657939434f, -0.06196758523583412f, 0.04788109287619591f, 0.04121389240026474f, -0.03561760485172272f, 0.03587628901004791f, 0.06865186244249344f, -1.1737474203109741f, -0.4253323972225189f, 0.007253782823681831f, -0.007078808266669512f, 0.30077245831489563f, -0.03755301982164383f },
  { -0.14406917989253998f, 0.128265842795372f, 0.0964355617761612f, -0.041554249823093414f, 0.21731914579868317f, 0.007563430350273848f, 0.009117309004068375f, -0.8280377388000488f, -0.05564063414931297f, 0.009911257773637772f, -0.06347545236349106f, 0.13731533288955688f, 0.033837441354990005f, 0.08802574127912521f, 0.04748750850558281f, -0.1875385195016861f, 0.011762203648686409f, -0.5714715123176575f, -0.03865188732743263f, -0.0027383402921259403f, -0.192286878824234f, -0.0869852602481842f, 0.35833871364593506f, -0.2638545632362366f, 0.022455036640167236f, -0.1999083012342453f, 0.15589207410812378f, -0.13713029026985168f, -0.01535780355334282f, -0.18065482378005981f, -0.07722923904657364f, 0.13826428353786469f, -0.03503808379173279f, -0.06609895080327988f, 0.4544575810432434f, 0.24455463886260986f, 0.46503886580467224f, 0.2058500200510025f, -0.05539529770612717f, -0.05301683396100998f, 0.10189767926931381f, 0.051549848169088364f, 0.21768778562545776f, 0.09464311599731445f, 0.08972054719924927f, -0.0035998132079839706f, 0.18535052239894867f, -0.06103755533695221f, -0.09917109459638596f, 0.18503545224666595f, 0.34867963194847107f, 0.09743621945381165f, 0.24159501492977142f, 0.27902472019195557f, 0.1237260028719902f, -0.10404380410909653f, 0.02682899311184883f, 0.006228183396160603f, 0.10935571789741516f, 0.24701885879039764f, -0.05763888731598854f, -0.082769013941288f, 0.3482278287410736f, -0.12250100076198578f, 0.07063888758420944f, 0.07998260110616684f, -0.8629007935523987f, -0.08226076513528824f, 0.007697822526097298f, 0.26517254114151f, -0.15730218589305878f, 0.11896742880344391f, -0.052905257791280746f, -0.08888205140829086f, -0.09750746190547943f, -0.10255468636751175f, -0.1828443557024002f, 0.10378709435462952f, 0.10773055255413055f, 0.26928597688674927f, 0.3590568006038666f, 0.09050468355417252f, -0.45186007022857666f, 0.7278727293014526f, -0.3230856657028198f, 0.03790590167045593f, -0.29548269510269165f, -0.09233762323856354f, 0.10156051069498062f, -0.0780528336763382f, -0.00032819234183989465f, 0.1019129604101181f, 0.47039738297462463f, -0.26519814133644104f, 0.09730690717697144f, 0.14938274025917053f, 0.20112620294094086f, -0.4779517650604248f, -0.19281962513923645f, -0.3341914415359497f, -0.17031440138816833f, 0.3163108229637146f, -0.024995075538754463f, 0.010148006491363049f, -0.22347930073738098f, 0.038900382816791534f, -0.17090056836605072f, 0.13149777054786682f, -0.033248066902160645f, 0.31209060549736023f, 0.13098163902759552f, 0.15321114659309387f, -0.17642684280872345f, -0.08423318713903427f, 0.17701780796051025f, -0.31690487265586853f, 0.07033421099185944f, 0.2508614659309387f, 0.08604751527309418f, 0.1542034149169922f, -0.23848289251327515f, 1.1452622413635254f, -0.11180531978607178f, -0.1093488410115242f, 0.03947784751653671f, 0.06896952539682388f, -0.10135151445865631f, -0.23287099599838257f, 0.05472858250141144f, 0.09131370484828949f, 0.06796496361494064f, -0.14572946727275848f, 0.1471080780029297f, 0.36097103357315063f, 0.3345026969909668f, -0.09168247878551483f, 0.03044883720576763f, -0.0012562075862661004f, -0.1881818026304245f, -0.2680089473724365f, -0.2929360270500183f, -0.03935609012842178f, -0.002582377754151821f, -0.28688642382621765f, 0.02722145989537239f, 0.14167667925357819f, 0.146225705742836f, 0.07368548214435577f, 0.11986293643712997f, 0.2526368796825409f, -0.31876707077026367f, 0.45547014474868774f, 0.10573571920394897f, 0.048032186925411224f, 0.02543656714260578f, -0.07116665691137314f, 0.17946076393127441f, 0.08376101404428482f, -0.2035895437002182f, 0.11722560971975327f, 0.07371418178081512f, -0.06669323891401291f, 0.013418362475931644f, -0.4114988148212433f, 0.04109044000506401f, 0.16130903363227844f, -0.2152055948972702f, -0.04493663087487221f, 0.4101646840572357f, -0.0880635678768158f, 0.002162087941542268f, -0.059044111520051956f, -0.262173056602478f, 0.094071164727211f, -0.10179410129785538f, 0.12924550473690033f, 0.21516916155815125f, -0.17076149582862854f, 0.09763339161872864f, 0.13413630425930023f, -0.006075790151953697f, -1.6697696447372437f, 0.10179637372493744f, 0.13058923184871674f, 0.1904846727848053f, -0.052561067044734955f, 0.12743957340717316f, 0.23646584153175354f, -0.07446121424436569f, 0.4072965383529663f, -0.12236672639846802f, -0.10433057695627213f },
  { -0.34976625442504883f, -0.012308958917856216f, 0.1767694056034088f, -0.21213048696517944f, -0.18142610788345337f, -0.0026124094147235155f, 0.06334935873746872f, -0.19031953811645508f, -0.05001834034919739f, -0.11002276092767715f, -0.15737691521644592f, -0.05888013541698456f, 0.03501611575484276f, 0.06788651645183563f, -0.14316965639591217f, -0.16906200349330902f, 0.05656541511416435f, -0.44277089834213257f, 0.20093297958374023f, 0.03215057775378227f, 0.2557775378227234f, -0.013654593378305435f, 0.27203336358070374f, -0.015752678737044334f, 0.0378124974668026f, 0.16566959023475647f, 0.08132805675268173f, 0.23013532161712646f, 0.027254818007349968f, 0.03761405497789383f, -0.08500099927186966f, 0.37994202971458435f, -0.060666266828775406f, 0.07075978815555573f, 0.4945072829723358f, 0.18680785596370697f, 0.1692429929971695f, 0.004828163422644138f, 0.007815496064722538f, -0.21301387250423431f, -0.03714246675372124f, -0.30838024616241455f, 0.006075755227357149f, -0.05801340192556381f, -0.02488534152507782f, -0.11625047028064728f, 0.5356714129447937f, -0.3133890926837921f, 0.11109685897827148f, 0.07796633988618851f, 0.19135062396526337f, -0.07423783838748932f, 0.14113575220108032f, 0.15618400275707245f, 0.29428979754447937f, -0.010518423281610012f, 0.19540788233280182f, 0.10128055512905121f, -0.2181318998336792f, -0.1364598572254181f, -0.12471236288547516f, -0.004611050244420767f, 0.1127772182226181f, -0.05946141853928566f, 0.1232423260807991f, 0.0746079608798027f, -0.7693932056427002f, 0.18018706142902374f, 0.01053285226225853f, -0.12366251647472382f, -0.17089597880840302f, 0.16114716231822968f, -0.10093563795089722f, -0.1686498373746872f, -0.07877104729413986f, 0.026226771995425224f, -0.24182404577732086f, -0.005086574237793684f, 0.24687102437019348f, 0.175691619515419f, 0.2027522325515747f, -0.22459833323955536f, -0.660123348236084f, 0.1241222470998764f, 0.054213378578424454f, -0.29055142402648926f, -0.17452508211135864f, 0.031152142211794853f, 0.11677425354719162f, -0.021886181086301804f, -0.48874178528785706f, -0.3220881521701813f, -0.024958085268735886f, 0.17192409932613373f, 0.09888645261526108f, -0.09303980320692062f, 0.06800395250320435f, -0.14667350053787231f, 0.29567334055900574f, -0.40172144770622253f, -0.10115014016628265f, -0.005938620772212744f, 0.10206460952758789f, 0.3004050552845001f, -0.3960663974285126f, -0.038671087473630905f, 0.26101329922676086f, 0.06210922449827194f, 0.061654478311538696f, -0.001989217009395361f, 0.08491659164428711f, 0.00297339865937829f, 0.1075817421078682f, 0.22294417023658752f, 0.04804748669266701f, -0.09480246156454086f, -0.010292251594364643f, 0.2527250349521637f, -0.23987454175949097f, -0.004070823546499014f, -0.029924366623163223f, 0.4191860258579254f, 0.08378162980079651f, -0.02988511137664318f, 0.14665548503398895f, 0.03830401226878166f, -0.06373236328363419f, -0.10340642929077148f, -0.14327014982700348f, -0.10956893861293793f, 0.08269088715314865f, 0.12380649894475937f, 0.24376177787780762f, 0.0021265598479658365f, 0.054445475339889526f, -0.002758182119578123f, -0.21561597287654877f, 0.0011415228946134448f, -0.28761234879493713f, 0.011473793536424637f, -0.05192819982767105f, 0.00812982302159071f, -0.09124629944562912f, -0.2795962989330292f, 0.08126354962587357f, 0.1312340945005417f, 0.29556503891944885f, 0.14952246844768524f, -0.20943650603294373f, 0.014924372546374798f, 0.16296885907649994f, 0.289339542388916f, 0.2269047647714615f, -0.15791203081607819f, 0.01575614884495735f, -0.06782403588294983f, -0.1576521098613739f, 0.12737533450126648f, -0.3590037524700165f, -0.02119663543999195f, 0.31047773361206055f, -0.09086360782384872f, 0.07712753862142563f, 0.2904156446456909f, -0.03216366469860077f, 0.013885763473808765f, -0.27155694365501404f, 0.03839654475450516f, 0.3885708153247833f, -0.041846588253974915f, 0.09967195987701416f, 0.06325825303792953f, -0.45642465353012085f, -0.1606346219778061f, 0.06309482455253601f, 0.34361162781715393f, -0.03541094437241554f, -0.4187488853931427f, 0.13447868824005127f, 0.05225035175681114f, 0.08064348250627518f, 0.09735588729381561f, -0.22633510828018188f, -0.0021352674812078476f, -0.06044378504157066f, 0.1120530515909195f, -0.33937135338783264f, -0.03308434784412384f, 0.07244831323623657f, 0.049531154334545135f, 0.3018444776535034f, -0.01438553910702467f },
  { -0.026880597695708275f, 0.12817074358463287f, 0.15285901725292206f, -0.09832925349473953f, -0.0013647027080878615f, 0.08409685641527176f, 0.12762175500392914f, -0.632867157459259f, 0.017318714410066605f, 0.0604175440967083f, -0.08186394721269608f, 0.23949286341667175f, -0.006100842263549566f, 0.0030805030837655067f, -0.048071231693029404f, -0.18837755918502808f, 0.09250234067440033f, -0.37872135639190674f, 0.13240721821784973f, -0.184578076004982f, -0.08305969089269638f, -0.19389557838439941f, 0.05845833569765091f, -0.2843720614910126f, -0.12416181713342667f, 0.1234842911362648f, 0.1450875997543335f, -0.02234024554491043f, 0.06488058716058731f, -0.040810778737068176f, 0.1706027090549469f, 0.5510197281837463f, -0.0010816826252266765f, -0.09756562113761902f, 0.46701839566230774f, 0.11009581387042999f, 0.31889641284942627f, 0.021020276471972466f, 0.07707320153713226f, 0.028421171009540558f, 0.010365625843405724f, -0.037719905376434326f, 0.1324571669101715f, 0.04697795957326889f, 0.2341795265674591f, -0.15217027068138123f, 0.38619303703308105f, -0.27107012271881104f, -0.17230398952960968f, 0.03215845301747322f, 0.4217110872268677f, 0.3128646910190582f, 0.19061778485774994f, 0.022968905046582222f, 0.3795861005783081f, 0.01293860375881195f, 0.06190093979239464f, -0.009537260048091412f, 0.0508754588663578f, 0.08360613882541656f, -0.0113511448726058f, 0.017468681558966637f, 0.12134701758623123f, -0.15050774812698364f, 0.12145298719406128f, 0.04083503037691116f, -0.7848501205444336f, -0.1493690460920334f, -0.008444873616099358f, 0.004664283245801926f, -0.02318534255027771f, 0.3088659644126892f, 0.017697634175419807f, -0.1080738976597786f, -0.10884018987417221f, 0.035044312477111816f, -0.22724173963069916f, 0.10810722410678864f, 0.1348816603422165f, 0.0981648862361908f, 0.3792448043823242f, -0.06879546493291855f, -0.6771761775016785f, 0.2586030960083008f, -0.38806402683258057f, 0.029267437756061554f, -0.21822482347488403f, -0.08331885188817978f, -0.11178143322467804f, -0.06959477066993713f, 0.05342699587345123f, 0.2338089942932129f, 0.39915764331817627f, 0.17463859915733337f, 0.22065924108028412f, 0.06254887580871582f, 0.001222111750394106f, 0.03526784107089043f, 0.11224544048309326f, -0.1467454731464386f, -0.13091839849948883f, -0.13051898777484894f, 0.06410391628742218f, 0.09280077368021011f, 0.06964219361543655f, -0.0379243902862072f, -0.24736995995044708f, 0.09091971814632416f, -0.050481829792261124f, -0.07593598961830139f, 0.1062646210193634f, 0.23651820421218872f, 0.0008905184804461896f, 0.12886692583560944f, 0.16496959328651428f, -0.0777394101023674f, 0.17699342966079712f, 0.14386780560016632f, 0.011938007548451424f, 0.05987017601728439f, 0.12903332710266113f, 0.43057480454444885f, 0.16452860832214355f, -0.029734201729297638f, 0.1961015909910202f, 0.07523872703313828f, -0.054413966834545135f, 0.007996797561645508f, 0.07245901226997375f, 0.11407969146966934f, 0.11020561307668686f, -0.27434685826301575f, 0.18519027531147003f, 0.40976014733314514f, 0.2214699387550354f, -0.1859389841556549f, -0.20655836164951324f, 0.0677582174539566f, -0.10502579808235168f, -0.13133925199508667f, -0.19938331842422485f, 0.02199011668562889f, -0.16006097197532654f, -0.1704411804676056f, -0.48244714736938477f, 0.16933117806911469f, -0.019676659256219864f, 0.11801275610923767f, 0.06199444457888603f, 0.010854938067495823f, -0.06241161748766899f, -0.3068779408931732f, -0.1649976223707199f, 0.09533025324344635f, -0.1135207861661911f, 0.07265502214431763f, 0.1399994194507599f, 0.06204460188746452f, -0.17497991025447845f, 0.005490564741194248f, 0.16016584634780884f, -0.18740159273147583f, 0.03432527184486389f, -0.3554036617279053f, -0.0767553299665451f, 0.04843065142631531f, -0.2583598494529724f, -0.09423951059579849f, 0.11091911047697067f, -0.0667264387011528f, -0.10599712282419205f, -0.07727542519569397f, -0.17720472812652588f, 0.03681626915931702f, -0.03297189995646477f, 0.11834529787302017f, 0.2150260955095291f, -0.13087692856788635f, 0.11898954212665558f, 0.051010195165872574f, 0.10282079130411148f, -0.9628591537475586f, 0.10545259714126587f, -0.02834828570485115f, 0.0401877835392952f, 0.12638850510120392f, -0.06776654720306396f, 0.7286092042922974f, -0.11651479452848434f, 0.09789565205574036f, 0.13095161318778992f, -0.026029663160443306f },
  { -0.5657901167869568f, 0.06975769251585007f, -0.006226043216884136f, 0.03669586777687073f, -0.153158038854599f, -0.24812114238739014f, 0.07934869080781937f, -0.4235120713710785f, 0.007752378936856985f, -0.1433861255645752f, 0.12863940000534058f, -0.0220281220972538f, 0.12124259769916534f, 0.24666813015937805f, 0.05670507252216339f, -0.0806768462061882f, -0.24226172268390656f, -0.6171090602874756f, 0.10841104388237f, 0.1652640998363495f, 0.36984366178512573f, 0.10446865111589432f, 0.344521701335907f, 0.07248912751674652f, 0.1481703221797943f, -0.2393813580274582f, 0.02758166193962097f, 0.22801466286182404f, 0.19314563274383545f, 0.08508945256471634f, 0.027040034532546997f, 0.18078398704528809f, -0.10247012227773666f, 0.031140893697738647f, 1.099852442741394f, 0.3153238892555237f, 0.10938291996717453f, 0.09905760735273361f, -0.15908204019069672f, 0.02295871451497078f, 0.039730656892061234f, -0.09507602453231812f, 0.16817355155944824f, -0.13307596743106842f, 0.1745186150074005f, 0.00296312989667058f, 0.22144030034542084f, -0.14658020436763763f, -0.02773275598883629f, -0.12738880515098572f, -0.09759953618049622f, -0.4793228507041931f, -0.013997219502925873f, 0.21387530863285065f, 0.7291103601455688f, -0.056591279804706573f, 0.1607297658920288f, 0.08167501538991928f, 0.3278994560241699f, 0.10583405196666718f, 0.042613882571458817f, -0.13390494883060455f, 0.17560522258281708f, -0.0614483505487442f, -0.11738551408052444f, -0.13236984610557556f, -0.7013332843780518f, 0.09911192208528519f, 0.07127989828586578f, 0.03966357931494713f, -0.01771862432360649f, 0.41182878613471985f, -0.06558950245380402f, -0.17588110268115997f, -0.10912894457578659f, -0.08681481331586838f, -0.4697546660900116f, 0.09037867188453674f, 0.060923635959625244f, 0.38516372442245483f, 0.6571765542030334f, -0.10336875915527344f, -0.5501729846000671f, 0.460810124874115f, -0.26927128434181213f, 0.04627833515405655f, -0.2277543842792511f, -0.08500226587057114f, -0.04447954148054123f, -0.013396216556429863f, -0.057664286345243454f, -0.1656685620546341f, 0.11642763018608093f, -0.05814782902598381f, 0.1858760267496109f, 0.09563484787940979f, 0.40292423963546753f, -0.3047580122947693f, 0.16064360737800598f, -0.13207271695137024f, -0.07837140560150146f, -0.06462910026311874f, 0.15018142759799957f, 0.2085014134645462f, 0.1731000691652298f, -0.021355174481868744f, -0.10376782715320587f, 0.031356919556856155f, 0.19519871473312378f, -0.13581417500972748f, -0.04022286459803581f, 0.17690135538578033f, -0.2297879457473755f, -0.059843145310878754f, -0.0021414957009255886f, -0.2103932499885559f, -0.040246669203042984f, 0.035679589956998825f, 0.22828319668769836f, 0.09277736395597458f, 0.046573761850595474f, -0.3587319254875183f, 0.49574223160743713f, -0.13118800520896912f, 0.009813773445785046f, 0.17186608910560608f, -0.07630607485771179f, 0.21401140093803406f, -0.247039332985878f, -0.02976689673960209f, 0.029878471046686172f, -0.12347012013196945f, -0.09343116730451584f, -0.84061598777771f, 0.02177390642464161f, -0.017285574227571487f, -0.04528084769845009f, -0.19420236349105835f, -0.47835803031921387f, -0.14657287299633026f, -0.09817581623792648f, 0.015947962179780006f, 0.029525570571422577f, -0.07061980664730072f, -0.7924863696098328f, -0.1826234757900238f, -0.012215816415846348f, -0.08565723896026611f, 0.14878277480602264f, 0.09132605791091919f, -0.7271727919578552f, 0.11679713428020477f, -0.03210044652223587f, 0.01791999489068985f, 0.059343233704566956f, 0.11582077294588089f, -0.011351021006703377f, 0.22767533361911774f, -0.18565678596496582f, -0.10337451845407486f, 0.043937940150499344f, -0.1690267026424408f, 0.053031984716653824f, -0.3992222547531128f, 0.2697681486606598f, 0.05085857957601547f, -0.12264961004257202f, -0.12060341238975525f, 0.8942508697509766f, -0.08372663706541061f, -0.07051586359739304f, 0.08415108919143677f, -0.1699874848127365f, -0.05936815217137337f, -0.040452949702739716f, 0.28047898411750793f, -0.020213745534420013f, 0.0032660418655723333f, 0.16403083503246307f, -0.09612710028886795f, -0.019182609394192696f, 0.5201312899589539f, -0.050165727734565735f, -0.3651562035083771f, 0.102910615503788f, 0.08178658038377762f, 0.9459323287010193f, -0.2128542959690094f, 0.07238221913576126f, -0.18350476026535034f, 0.14230279624462128f, -0.11285249143838882f } },
  { { 0.19742335379123688f, 0.013043558225035667f, 0.44395458698272705f, 0.4261191785335541f, -0.42668741941452026f, 0.08964501321315765f, -0.08198164403438568f, -0.17399407923221588f, -0.4271295964717865f, -0.30194997787475586f, -0.35893046855926514f, 0.19155876338481903f, 0.11428447812795639f, -0.21626412868499756f, -0.39722076058387756f, -0.19125881791114807f, 0.1283000409603119f, -0.1128067672252655f, 0.3388310968875885f, -0.05940201133489609f, -0.33121809363365173f, 0.44941914081573486f, 0.39740344882011414f, -0.16860368847846985f, 0.5956003665924072f, -0.22855660319328308f, -0.09199461340904236f, 0.15786872804164886f, -0.031447429209947586f, -0.1094169095158577f, -0.15662330389022827f, 0.567776083946228f, -0.15227238833904266f, -0.060936909168958664f, 0.11691989004611969f, 0.10426666587591171f, 0.1943269520998001f, -0.08539611101150513f, -0.017292354255914688f, 0.10233256220817566f, -0.2783784568309784f, 0.08074925094842911f, -0.19508540630340576f, 0.12045130878686905f, 0.4134081304073334f, -0.2921053469181061f, 0.37769246101379395f, -0.31053030490875244f, -0.13308902084827423f, 0.40585556626319885f, 0.6063718199729919f, 0.057343967258930206f, 0.3385668992996216f, 0.12662264704704285f, 0.17230528593063354f, -0.34153634309768677f, 0.10759809613227844f, -0.033637046813964844f, -0.13584280014038086f, -0.49493953585624695f, -0.14783403277397156f, -0.6992900371551514f, 0.18912273645401f, -0.20515792071819305f, -0.24922055006027222f, 0.25754818320274353f, -0.7860362529754639f, -0.14157140254974365f, -0.30285710096359253f, -0.15903092920780182f, -0.23164531588554382f, -0.18767763674259186f, 0.5603897571563721f, 0.14193470776081085f, -0.2483719140291214f, 0.09912978112697601f, -0.3742138147354126f, -0.2803872525691986f, -0.050127483904361725f, 0.00752286147326231f, 0.8026186227798462f, 0.21693220734596252f, -0.894555926322937f, -0.1543712317943573f, -0.30948606133461f, -0.02924579754471779f, 0.1934461146593094f, -0.06081563979387283f, 0.18574556708335876f, -0.03497213125228882f, -0.03147318959236145f, 0.3097650706768036f, 0.5451062321662903f, -0.08753732591867447f, -0.25324514508247375f, 0.27754586935043335f, 0.21581724286079407f, -0.009008828550577164f, -0.01962079480290413f, 0.08528517186641693f, -0.040913306176662445f, 0.234964981675148f, 0.09475847333669662f, 0.01392087060958147f, -0.09000793099403381f, 0.04920691251754761f, -0.15660664439201355f, 0.2757912278175354f, 0.2953808903694153f, 0.39070022106170654f, -0.3358907997608185f, -0.08636949956417084f, 0.17964793741703033f, -0.014505856670439243f, -0.015675241127610207f, 0.4186823070049286f, 0.06326251477003098f, 0.15371477603912354f, -0.38438060879707336f, 0.385976642370224f, -0.09904144704341888f, 0.32552453875541687f, 0.36275792121887207f, 0.42579784989356995f, -0.030012836679816246f, 0.02258538454771042f, -0.5110317468643188f, -0.14254708588123322f, -0.2669178247451782f, -0.09434248507022858f, -0.3895827829837799f, -0.20904286205768585f, -0.22648538649082184f, 0.13491582870483398f, 0.42537808418273926f, 0.10763081163167953f, 0.05621608719229698f, -0.11215285956859589f, 0.15905049443244934f, 0.3211720585823059f, 0.0023004254326224327f, -0.04078490659594536f, 0.2742513120174408f, -0.09269984066486359f, -0.2600226104259491f, -0.18064455687999725f, 0.1356269270181656f, -0.16463573276996613f, 0.6543178558349609f, 0.25016993284225464f, 0.03381841257214546f, 0.08984817564487457f, 0.2114109843969345f, -0.04317409545183182f, -0.11520726978778839f, -0.19540391862392426f, 0.8415449261665344f, -0.12873804569244385f, 0.07845079898834229f, -0.35238930583000183f, 0.008566002361476421f, 0.2781727910041809f, 0.14881329238414764f, -1.2699648141860962f, 0.15711845457553864f, 0.13601286709308624f, -0.05664866417646408f, -0.6547946333885193f, -0.06149465963244438f, -0.46563833951950073f, -0.1621755063533783f, -0.2967603802680969f, 0.2866133153438568f, 0.2217659056186676f, -0.13897690176963806f, 0.6276437044143677f, 0.29702553153038025f, -0.009571890346705914f, -0.11248794198036194f, -0.043551165610551834f, 0.18590058386325836f, 0.2213480919599533f, 0.12730982899665833f, 0.6203951835632324f, 0.026499120518565178f, 0.2894887626171112f, -0.2259283810853958f, -0.14913785457611084f, -0.7325587868690491f, 0.2769041061401367f, -0.392245352268219f, -0.3001403212547302f },
  { 0.2034134864807129f, 0.16208399832248688f, 0.24053038656711578f, 0.29026681184768677f, -0.17410500347614288f, -0.1714133769273758f, -0.059077855199575424f, 0.16409747302532196f, -0.4164235591888428f, -0.15299049019813538f, -0.19070658087730408f, 0.21650582551956177f, 0.11936413496732712f, -0.0772332102060318f, -0.3757267892360687f, -0.027105096727609634f, -0.2508121728897095f, -0.215138241648674f, 0.17090274393558502f, -0.23425842821598053f, 0.17093759775161743f, 0.3995356559753418f, 0.17945341765880585f, 0.15184497833251953f, 0.4067196249961853f, -0.8168070316314697f, -0.03309137374162674f, 0.30040299892425537f, -0.04772539809346199f, 0.2411370873451233f, -0.3704179525375366f, 0.05449711158871651f, -0.1999487578868866f, 0.06956373900175095f, -0.1843537837266922f, 0.3023656904697418f, 0.41557368636131287f, 0.26655304431915283f, -0.26494184136390686f, -0.038334380835294724f, -0.2114412933588028f, 0.13883541524410248f, -0.1825891137123108f, -0.05301377922296524f, 0.10549905896186829f, 0.1706686168909073f, 0.46640920639038086f, -0.02259531058371067f, -0.21120157837867737f, 0.24264204502105713f, -0.09321344643831253f, -0.38616737723350525f, 0.08011304587125778f, 0.1985781043767929f, -0.1603475660085678f, -0.3973262310028076f, 0.1638336330652237f, -0.09797921776771545f, 0.1547032743692398f, -0.08539839833974838f, 0.11564018577337265f, -0.4353877007961273f, 0.3012549877166748f, -0.21364666521549225f, 0.10819590091705322f, 0.06485284864902496f, -0.1947004199028015f, -0.16531382501125336f, -0.19954431056976318f, 0.039169590920209885f, 0.14043746888637543f, -0.16502408683300018f, -0.1289091855287552f, 0.08871621638536453f, 0.003385626943781972f, 0.0479760579764843f, -0.29966142773628235f, -0.16189445555210114f, 0.011471421457827091f, -0.09450361132621765f, 0.756098747253418f, 0.15020282566547394f, -1.1047576665878296f, 0.00020787368703167886f, -0.42432597279548645f, -0.06959540396928787f, -0.03724445402622223f, -0.07624773681163788f, -0.21393492817878723f, -0.026780303567647934f, 0.0006613816367462277f, 0.29779762029647827f, 0.22065791487693787f, -0.3382832705974579f, -0.3282351493835449f, 0.09755712747573853f, 0.10377848893404007f, -0.20015379786491394f, 0.26366785168647766f, -0.1392604112625122f, 0.09166562557220459f, -0.026183713227510452f, -0.038097064942121506f, 0.09412644803524017f, 0.0677875205874443f, -0.0013921582140028477f, -0.2762031555175781f, 0.1329692155122757f, 0.6233886480331421f, 0.1940494030714035f, 0.17391027510166168f, -0.2420901507139206f, -0.176993265748024f, 0.263897567987442f, -0.15229932963848114f, 0.5265227556228638f, -0.04807383567094803f, 0.07301617413759232f, 0.1788739114999771f, 0.5654669404029846f, 0.007702238392084837f, 0.06702183932065964f, -0.012775992974638939f, 0.269979327917099f, -0.1676015704870224f, -0.13502374291419983f, -0.224618598818779f, -0.24969980120658875f, 0.4633390009403229f, 0.1237788051366806f, -0.23224934935569763f, -0.1688283532857895f, -0.13015955686569214f, -0.027119357138872147f, 0.357591837644577f, 0.01197547186166048f, 0.0587480328977108f, -0.12705481052398682f, 0.20315487682819366f, 0.27131104469299316f, 0.07677587866783142f, -0.004835412371903658f, 0.5324091911315918f, -0.32862284779548645f, -0.4158192276954651f, -0.2405266910791397f, -0.42262324690818787f, 0.0077457912266254425f, 0.31796544790267944f, 0.18155348300933838f, -0.08626098185777664f, -0.01837999001145363f, 0.017282364889979362f, -0.03132372722029686f, 0.08069270104169846f, -0.05616023764014244f, 0.5216524600982666f, -0.05310244858264923f, 0.06696458160877228f, -0.07634627819061279f, 0.16148090362548828f, -0.14789898693561554f, -0.06123818829655647f, -0.7452794313430786f, -0.18729034066200256f, 0.0726713240146637f, -0.11362878978252411f, -0.22200240194797516f, 0.09791282564401627f, -0.49162715673446655f, -0.08523331582546234f, -0.27432090044021606f, 0.1305607706308365f, 0.14893443882465363f, -0.15033067762851715f, 0.4903869330883026f, 0.3411746919155121f, -0.38017401099205017f, -0.10165883600711823f, -0.09910134971141815f, 0.2982829213142395f, -0.03645922988653183f, 0.2335832566022873f, 0.5944516658782959f, 0.03830515593290329f, -0.09405754506587982f, -0.10088468343019485f, -0.1558767706155777f, -0.38247761130332947f, 0.3495537340641022f, -0.20772527158260345f, -0.3399355411529541f },
  { 0.532031774520874f, -0.695235550403595f, 0.8811691999435425f, 0.3681721091270447f, -0.4705146849155426f, -0.20078971982002258f, -0.20585913956165314f, 0.6037880182266235f, 0.16356481611728668f, -0.20774975419044495f, -0.41691282391548157f, 0.15081430971622467f, 0.30960386991500854f, -0.294988214969635f, -0.07971274107694626f, -0.2852250337600708f, -0.19690828025341034f, -0.18220752477645874f, 0.08721455931663513f, 0.20239883661270142f, 0.5273279547691345f, 0.894239068031311f, 0.23447859287261963f, 0.1853371411561966f, 0.7890938520431519f, -0.15404252707958221f, -0.3075399398803711f, 0.1269800364971161f, 0.3802095055580139f, 0.5174172520637512f, -0.28042954206466675f, 0.2862517237663269f, -0.17206048965454102f, 0.2846595048904419f, -0.6575450301170349f, 0.9244123101234436f, 0.057140249758958817f, 0.3660906255245209f, -0.6947866678237915f, 0.06292656809091568f, -0.1368333399295807f, 0.1790463924407959f, 0.1464930772781372f, -0.508879542350769f, 0.2563629150390625f, 0.3514765799045563f, 1.9068920612335205f, 0.34144681692123413f, -0.36127182841300964f, 0.11068452894687653f, 0.16112253069877625f, -0.14070871472358704f, -0.034890513867139816f, -0.28466418385505676f, -0.17718134820461273f, -0.3826730251312256f, 0.15782834589481354f, -0.13546881079673767f, -0.07104978710412979f, -0.232119619846344f, -0.2898833155632019f, -0.6129604578018188f, 0.19203929603099823f, -0.3568509519100189f, -0.0357893668115139f, 0.6499791741371155f, -1.0954867601394653f, -0.41687268018722534f, -0.8166035413742065f, -0.4522893726825714f, -0.05679737403988838f, 0.34422704577445984f, -0.10359641909599304f, -0.23786881566047668f, -0.29805803298950195f, -0.1438896358013153f, 0.3241170048713684f, 0.7539972066879272f, -0.7662407755851746f, -0.10597702115774155f, 0.5242834091186523f, 0.6640180945396423f, -0.502054750919342f, -0.41803622245788574f, -0.8341047167778015f, -0.20337960124015808f, 1.2021337747573853f, -0.3436821699142456f, -0.5096838474273682f, 0.020655395463109016f, -0.406408429145813f, 0.9885814189910889f, 0.32863423228263855f, 0.5889186263084412f, -0.599516749382019f, -0.24481825530529022f, 0.3708331882953644f, -0.11321058869361877f, 0.3335596024990082f, 0.06872717291116714f, 0.21387746930122375f, -0.12420730292797089f, 0.2174040824174881f, -0.505837619304657f, -0.45458555221557617f, 0.01156006008386612f, -0.36879652738571167f, 0.097161203622818f, 0.27493733167648315f, 0.2214890718460083f, 0.05154326558113098f, -0.7218965291976929f, 0.004891716409474611f, -0.03225915879011154f, -0.48794662952423096f, 0.8326095938682556f, 0.1479310840368271f, 0.28306302428245544f, 0.3270059823989868f, 0.42238378524780273f, 0.12204410135746002f, 0.328321635723114f, -0.44275200366973877f, 0.25695011019706726f, -0.5069553852081299f, -0.11705215275287628f, -0.31092822551727295f, -0.09658950567245483f, -0.1331183910369873f, -0.477365106344223f, 0.006885840557515621f, -0.3225741982460022f, 0.07678215205669403f, 0.1478111892938614f, 0.15564678609371185f, -0.05004424601793289f, 0.5716297030448914f, -0.3993208408355713f, 0.5130767226219177f, 0.10818663239479065f, 0.15755333006381989f, 0.008718248456716537f, 0.6917479038238525f, -0.19322198629379272f, -0.28283900022506714f, -0.38926780223846436f, -0.30863678455352783f, 0.06425751000642776f, 0.5143100023269653f, 0.6254803538322449f, -0.20017923414707184f, 0.0689581036567688f, -0.09688875079154968f, -0.5287160277366638f, -0.4231823980808258f, 0.03693510219454765f, 0.060449887067079544f, 0.10588254034519196f, -0.10727649927139282f, -0.18994788825511932f, -0.12014147639274597f, 0.005354566965252161f, 0.05915414169430733f, -0.2282523661851883f, -0.1818588674068451f, 0.24755752086639404f, -0.29154640436172485f, -0.3832738399505615f, -0.2653390169143677f, -0.23225177824497223f, -0.2478216290473938f, -0.055661387741565704f, 0.16528867185115814f, 0.35238757729530334f, -0.6658706068992615f, 0.3798842132091522f, -0.3658599853515625f, 0.44605207443237305f, 0.18328651785850525f, -0.11874787509441376f, 0.23122918605804443f, 0.20532028377056122f, 0.4896535873413086f, -0.0880361795425415f, 0.3902492821216583f, -0.18557432293891907f, -0.07824110984802246f, -0.19384758174419403f, -0.32669001817703247f, -0.016054373234510422f, -0.24180062115192413f, -0.45547547936439514f },
  { 0.23772300779819489f, -0.16710510849952698f, 0.532604455947876f, 0.38257890939712524f, -0.5673007965087891f, 0.19419647753238678f, -0.2592150568962097f, 0.3273862600326538f, -0.4531739354133606f, -0.2362438291311264f, -0.3299139440059662f, 0.14879091084003448f, -0.18670180439949036f, -0.5526755452156067f, 0.3366251587867737f, -0.10815780609846115f, -0.4821057617664337f, -0.20844055712223053f, 0.17594698071479797f, -0.5326876044273376f, -0.02766435779631138f, 0.8291944265365601f, 0.036213718354701996f, -0.025348283350467682f, 0.4045809209346771f, -0.48174411058425903f, -0.2810373604297638f, 0.0039532543160021305f, -0.16581889986991882f, 0.519670307636261f, -0.4673334062099457f, 0.14849545061588287f, -0.10942008346319199f, 0.19882214069366455f, -0.028990577906370163f, 0.22680453956127167f, 0.23823785781860352f, -0.00553462328389287f, -0.47569724917411804f, -0.08101164549589157f, -0.24317781627178192f, 0.07725080847740173f, -0.162808358669281f, -0.35926955938339233f, 0.11939100176095963f, -0.24112127721309662f, 1.642970323562622f, 0.38247033953666687f, -0.37366947531700134f, 0.23596782982349396f, 0.17951509356498718f, -0.014419124461710453f, 0.19614234566688538f, 0.4429386854171753f, 0.3043253719806671f, -0.7816347479820251f, 0.28436407446861267f, -0.1927872747182846f, 0.41825711727142334f, -0.19163329899311066f, -0.3463045060634613f, -0.4262505769729614f, 0.04814109578728676f, -0.24532850086688995f, -0.2339533120393753f, 0.5903522372245789f, -1.1445505619049072f, -0.35165414214134216f, -0.7152391672134399f, -0.24422568082809448f, 0.22156602144241333f, -0.3230162262916565f, 0.5121318697929382f, 0.571870744228363f, -0.09662780165672302f, -0.7393845319747925f, -0.0065361554734408855f, -0.033574428409338f, -0.1606704443693161f, -0.21481260657310486f, 0.8522827625274658f, -1.3070136308670044f, -0.8407033085823059f, -0.3135906457901001f, -0.652040421962738f, -0.11576978117227554f, 0.8607627749443054f, 0.03203371912240982f, -0.2887737452983856f, -0.02841171994805336f, 0.6181643605232239f, 0.7024089694023132f, 0.641033411026001f, -0.07930182665586472f, -0.15399035811424255f, -0.1068795695900917f, 0.20124220848083496f, -0.16686014831066132f, 0.27430129051208496f, -0.1559678167104721f, 0.11931805312633514f, 0.07712069153785706f, 0.13087902963161469f, -0.03417731076478958f, -0.38224104046821594f, 0.14527836441993713f, -0.5903142690658569f, 0.3649737238883972f, 0.3692397475242615f, 0.15946228802204132f, 0.1023431047797203f, -0.23510707914829254f, 0.2110873907804489f, 0.37041595578193665f, 0.09745966643095016f, 1.8171308040618896f, 0.22187142074108124f, -0.026329440996050835f, 0.39989322423934937f, 1.017992615699768f, -0.14066162705421448f, 0.28528255224227905f, 0.17429770529270172f, 0.2921737730503082f, -0.13839149475097656f, 0.30789682269096375f, -0.20325390994548798f, -0.4368179142475128f, 0.026088625192642212f, -0.45805245637893677f, -0.2862333059310913f, -0.4030594825744629f, 0.08405298739671707f, 0.1285133957862854f, 0.8842536211013794f, 0.14198659360408783f, -0.22062715888023376f, 0.007345261517912149f, 0.5904101133346558f, 0.568333089351654f, 0.2696012854576111f, -0.09451031684875488f, 0.22612272202968597f, -0.08194001764059067f, -0.3673354685306549f, -0.22009027004241943f, 0.07994044572114944f, -0.24758963286876678f, 0.7158443331718445f, 0.2015945315361023f, -0.25919827818870544f, -0.05117588862776756f, 0.18981337547302246f, -0.4590034782886505f, 0.04656152427196503f, 0.09337016940116882f, 0.3542528450489044f, 0.08393596857786179f, 0.23652838170528412f, -0.03716706112027168f, -0.565963625907898f, -0.008998299017548561f, -0.0026503552217036486f, 0.11301111429929733f, -0.5077254772186279f, 0.13491275906562805f, -0.2679358422756195f, -0.3650595545768738f, -0.1619769036769867f, -0.4306974709033966f, -0.1840800642967224f, -0.3128375709056854f, 0.4927220344543457f, -0.048166923224925995f, 0.05481170862913132f, 0.2574288547039032f, -0.2926452159881592f, 0.09726719558238983f, -0.03079676255583763f, -0.3774661123752594f, -0.5076873898506165f, 0.07742173224687576f, 0.09290680289268494f, 0.47190940380096436f, 0.28859445452690125f, 0.02623758278787136f, -0.15821252763271332f, -0.39319726824760437f, -0.8200305700302124f, 0.35152432322502136f, -0.4782828986644745f, -0.12597332894802094f },
  { 0.0362008698284626f, -0.20696809887886047f, 0.3107146918773651f, 0.5489213466644287f, -0.3397492468357086f, -0.44655126333236694f, -0.09833084791898727f, 0.08371055126190186f, -0.027523238211870193f, -0.12810811400413513f, -0.2050781548023224f, 0.32669416069984436f, 0.2718952000141144f, -0.004475313704460859f, -0.026115160435438156f, -0.30881771445274353f, -0.2972644865512848f, -0.35351598262786865f, 0.13961009681224823f, -0.0022310183849185705f, 0.4283885061740875f, 0.3182600438594818f, 0.18569830060005188f, 0.0522729828953743f, 0.7351024746894836f, -0.3999016284942627f, -0.13089203834533691f, 0.1456684023141861f, -0.16867458820343018f, 0.2915787696838379f, -0.2238934487104416f, 0.5261476635932922f, 0.06640689074993134f, 0.2710900902748108f, -0.21683692932128906f, 0.6110249757766724f, 0.14882944524288177f, 0.08723314851522446f, -0.6293349266052246f, 0.24998019635677338f, -0.4461345672607422f, -0.027490895241498947f, -0.28833869099617004f, -0.1993441879749298f, 0.331303209066391f, 0.26820510625839233f, 0.6727113723754883f, -0.10446523874998093f, -0.18911297619342804f, -0.1502435803413391f, 0.18194714188575745f, -0.18814902007579803f, 0.030145389959216118f, 0.29302358627319336f, -0.3528202474117279f, -0.37776392698287964f, -0.01547233946621418f, -0.09517926722764969f, 0.15766507387161255f, -0.2514304220676422f, -0.2282143235206604f, -0.5940847992897034f, 0.4855961501598358f, -0.2276776283979416f, 0.02587764710187912f, 0.1406424194574356f, -0.9644279479980469f, -0.2623462975025177f, -0.4647723436355591f, -0.22808119654655457f, -0.057648468762636185f, 0.06655336171388626f, 0.044558100402355194f, -0.21016445755958557f, 0.3073301315307617f, -0.06815214455127716f, -0.11940524727106094f, 0.43193694949150085f, -0.006002639885991812f, -0.25161656737327576f, 0.4910528063774109f, 0.11004537343978882f, -0.6468589305877686f, -0.2985936403274536f, -0.6051160097122192f, -0.20401600003242493f, 0.3489006757736206f, -0.010682099498808384f, -0.3228607773780823f, -0.04755374416708946f, -0.21988114714622498f, 0.4143442213535309f, 0.4832407236099243f, 0.3212488293647766f, -0.1591838002204895f, 0.12239577621221542f, 0.2643871307373047f, 0.07169314473867416f, 0.31030645966529846f, 0.135391965508461f, 0.26344773173332214f, -0.09500215202569962f, 0.025307409465312958f, 0.2852909564971924f, 0.1888437420129776f, -0.32411447167396545f, -0.13897033035755157f, -0.12428848445415497f, 0.236782506108284f, 0.23076803982257843f, -0.13620628416538239f, -0.20063373446464539f, 0.013054639101028442f, 0.1150844544172287f, -0.05128936097025871f, 0.6480727195739746f, -0.010244320146739483f, 0.11282263696193695f, 0.26128631830215454f, 0.3552521765232086f, -0.27486345171928406f, 0.08586709201335907f, 0.07642040401697159f, 0.25072476267814636f, -0.2350742071866989f, 0.3904736638069153f, -0.12567830085754395f, -0.008767208084464073f, -0.04101521894335747f, -0.21993449330329895f, 0.09341036528348923f, -0.185594379901886f, -0.03252444416284561f, 0.3368534743785858f, 0.0908416360616684f, 0.06214599311351776f, 0.2385520190000534f, -0.1309167444705963f, 0.4013095498085022f, 0.17092670500278473f, -0.07203067094087601f, 0.03327438235282898f, 0.3130713701248169f, -0.328396737575531f, -0.551315426826477f, -0.1856411248445511f, -0.08408655971288681f, 0.020707320421934128f, 0.33842864632606506f, 0.3925238251686096f, -0.28433912992477417f, 0.20505422353744507f, 0.17610730230808258f, -0.021067187190055847f, -0.23623721301555634f, 0.03932857885956764f, 0.4113214612007141f, -0.08479804545640945f, 0.1134430468082428f, -0.11349719017744064f, 0.11571977287530899f, -0.19711129367351532f, -0.1021648645401001f, -0.918391764163971f, 0.32352593541145325f, 0.16753502190113068f, -0.5648887753486633f, -0.45826536417007446f, -0.009755820967257023f, -0.5094535946846008f, -0.2559219002723694f, -0.2533946931362152f, 0.06108727678656578f, 0.17962555587291718f, -0.40112990140914917f, 0.4942149817943573f, -0.024466518312692642f, 0.21106861531734467f, 0.017474118620157242f, -0.021038932725787163f, 0.2975277602672577f, 0.19857580959796906f, 0.12597502768039703f, 0.09805568307638168f, 0.308550626039505f, -0.19643515348434448f, -0.12716445326805115f, 0.0514347217977047f, -0.2894068658351898f, 0.4205727279186249f, -0.2515234351158142f, 0.12253699451684952f },
  { 0.17405198514461517f, -0.05762113630771637f, 0.35614025592803955f, 0.4735620617866516f, -0.15836060047149658f, 0.030656365677714348f, 0.24099548161029816f, -0.08701910078525543f, -0.02791057527065277f, -0.3469334840774536f, -0.38629814982414246f, 0.2830449640750885f, -0.08381689339876175f, -0.20661532878875732f, -0.1425277143716812f, -0.33785954117774963f, -0.2319255918264389f, -0.4827430546283722f, 0.21502377092838287f, -0.07030879706144333f, 0.36451226472854614f, 0.40105825662612915f, 0.0600973516702652f, 0.07720601558685303f, 0.6268061399459839f, -0.22419749200344086f, -0.30283138155937195f, 0.5084400773048401f, 0.47743967175483704f, 0.22221580147743225f, -0.02056955173611641f, 0.1678602695465088f, -0.13309313356876373f, 0.12083224952220917f, -0.015034093521535397f, 0.2867223620414734f, 0.06674962490797043f, 0.12871086597442627f, -0.5401808023452759f, -0.05734489485621452f, -0.3478584885597229f, 0.10384639352560043f, 0.09227907657623291f, -0.26532137393951416f, 0.35079410672187805f, 0.37956735491752625f, 0.6250206828117371f, -0.3384028673171997f, -0.2321508526802063f, 0.3600805401802063f, 0.1154790073633194f, -0.13714292645454407f, 0.02496328577399254f, -0.223226860165596f, -0.12246321886777878f, -0.21149106323719025f, 0.07739430665969849f, -0.08103416115045547f, -0.336162805557251f, 0.05964179337024689f, 0.16939345002174377f, -0.3862285315990448f, 0.23215506970882416f, -0.22695937752723694f, -0.0840369462966919f, 0.3910655379295349f, -1.0407748222351074f, -0.23749317228794098f, -0.30314362049102783f, -0.2923920750617981f, -0.08369333297014236f, 0.2439618557691574f, 0.05480731278657913f, -0.14688260853290558f, -0.03678302839398384f, 0.004749796353280544f, 0.03641011193394661f, 0.35227730870246887f, -0.048196401447057724f, 0.022627096623182297f, 0.4429146349430084f, 0.12810997664928436f, -0.5973632335662842f, 0.009702703915536404f, -0.5568123459815979f, 0.03036588616669178f, 0.27557894587516785f, -0.21688982844352722f, -0.11537443846464157f, 0.08118827641010284f, -0.03300127014517784f, 0.6463713049888611f, 0.4263152480125427f, 0.11297047883272171f, -0.3801269829273224f, -0.0047674342058598995f, 0.18016137182712555f, -0.013358332216739655f, 0.32850685715675354f, -0.025946415960788727f, -0.10574597865343094f, -0.0620560385286808f, -0.07521592080593109f, -0.19003063440322876f, 0.18675042688846588f, -0.15412761270999908f, -0.1646559089422226f, 0.19119615852832794f, 0.40902841091156006f, 0.515172004699707f, -0.06530991196632385f, -0.20646801590919495f, 0.12120991945266724f, 0.30120381712913513f, -0.14188997447490692f, 0.5150772333145142f, 0.06334889680147171f, 0.05392100289463997f, -0.19559846818447113f, 0.4768306016921997f, 0.1499919891357422f, 0.14473308622837067f, -0.16191980242729187f, 0.26971691846847534f, -0.3073066473007202f, 0.07861591130495071f, -0.2840174436569214f, -0.21261075139045715f, -0.16831184923648834f, -0.08854047954082489f, -0.13288310170173645f, -0.2260347604751587f, 0.12287309765815735f, -0.05290659889578819f, 0.621638834476471f, -0.014194896444678307f, 0.24703164398670197f, -0.3129657804965973f, 0.3881537616252899f, 0.033791013062000275f, -0.12584450840950012f, 0.006821110378950834f, 0.40938258171081543f, -0.09982325881719589f, -0.20352496206760406f, -0.22745603322982788f, -0.07971888780593872f, 0.15652939677238464f, 0.5677529573440552f, 0.3199981451034546f, -0.1395653933286667f, -0.17217214405536652f, 0.20104235410690308f, -0.14096476137638092f, -0.18251076340675354f, 0.00437815161421895f, 0.4752863049507141f, 0.21173852682113647f, -0.05675354599952698f, -0.36042776703834534f, -0.08010642230510712f, 0.031972989439964294f, 0.023179495707154274f, -0.9873972535133362f, -0.18001362681388855f, 0.16040316224098206f, 0.01648024283349514f, -0.291231632232666f, 0.005009081680327654f, -0.3792111575603485f, -0.31132593750953674f, -0.3800326883792877f, 0.034845296293497086f, 0.00433345977216959f, -0.3315354883670807f, 0.19077420234680176f, -0.052839528769254684f, 0.11527632921934128f, 0.2557203471660614f, -0.07068543136119843f, -0.010116975754499435f, 0.2513387203216553f, 0.23093096911907196f, 0.14234952628612518f, 0.20296981930732727f, -0.04701436311006546f, -0.21334119141101837f, -0.14193567633628845f, -0.4008672833442688f, -0.07140866667032242f, -0.21142874658107758f, -0.14275535941123962f },
  { 0.3995205760002136f, -0.12303006649017334f, 0.3315790891647339f, 0.10309077799320221f, -0.26521924138069153f, -0.08390641957521439f, -0.08405310660600662f, 0.3843495547771454f, -0.4506171643733978f, -0.16342030465602875f, -0.35919487476348877f, 0.034175723791122437f, -0.08444949984550476f, -0.3649507462978363f, 0.09251969307661057f, -0.3550613224506378f, -0.004196934401988983f, -0.20810556411743164f, 0.11322467029094696f, -0.071522556245327f, -0.19791439175605774f, 0.7349773645401001f, 0.474854439496994f, -0.23852691054344177f, 0.2760830521583557f, -0.5196827054023743f, -0.3095969557762146f, -0.12717249989509583f, 0.09869834780693054f, 0.22809000313282013f, -0.1529022604227066f, 0.0715302973985672f, -0.2415355145931244f, 0.17283502221107483f, 0.33676469326019287f, -0.20068533718585968f, 0.11315087229013443f, 0.11371088027954102f, -0.22073011100292206f, -0.3293130695819855f, -0.4387550950050354f, 0.06642811745405197f, -0.1021873727440834f, -0.203573539853096f, 0.11065685003995895f, -0.09365300089120865f, 1.3794602155685425f, 0.057821571826934814f, -0.177237868309021f, 0.21709895133972168f, 0.5309743881225586f, -0.2688387930393219f, 0.2213524430990219f, 0.2537395656108856f, 0.24245186150074005f, -0.8830791711807251f, 0.23452402651309967f, -0.06545557826757431f, -0.22912147641181946f, -0.07407678663730621f, -0.23970696330070496f, -0.5856692790985107f, 0.12705078721046448f, -0.19042731821537018f, 0.17808298766613007f, -0.16080816090106964f, -0.5991587042808533f, -0.18498261272907257f, -0.37626388669013977f, -0.09218864887952805f, -0.08534112572669983f, -0.1544317603111267f, 0.4064359962940216f, 0.14178718626499176f, 0.1734415590763092f, -0.4813489019870758f, -0.033250924199819565f, -0.08397293090820312f, -0.06103501468896866f, 0.02473244071006775f, 0.5774660706520081f, 0.09097325801849365f, -0.7657009959220886f, -0.12273611128330231f, -0.4005240499973297f, 0.1434071958065033f, 0.13008998334407806f, -0.07539304345846176f, -0.21467113494873047f, 0.01177883055061102f, -0.24312707781791687f, 0.38752731680870056f, 0.21130354702472687f, -0.1327880471944809f, -0.35581064224243164f, 0.20463134348392487f, 0.02720354124903679f, -0.33593013882637024f, 0.3029559850692749f, -0.28484460711479187f, 0.03393937274813652f, 0.32869836688041687f, 0.24228535592556f, 0.16634683310985565f, -0.19092509150505066f, -0.2515454590320587f, -0.4824478030204773f, 0.26660850644111633f, 0.39007842540740967f, 0.1513402909040451f, -0.16428010165691376f, -0.034714050590991974f, 0.10430607944726944f, 0.0682733878493309f, 0.08881101757287979f, 0.8091259002685547f, 0.1609971523284912f, 0.2605304718017578f, 0.3187224864959717f, 0.2996225357055664f, -0.11692366749048233f, -0.14710228145122528f, 0.21131406724452972f, 0.342599481344223f, -0.13982461392879486f, -0.15694895386695862f, 0.01929900422692299f, -0.42245224118232727f, 0.20994798839092255f, -0.17017456889152527f, -0.26662689447402954f, -0.2062540203332901f, 0.012752974405884743f, 0.43042492866516113f, 0.11886882781982422f, 0.1494007706642151f, -0.2225533127784729f, -0.2155350297689438f, 0.36960935592651367f, 0.2761388123035431f, -0.10277172923088074f, -0.11374157667160034f, 0.22322328388690948f, -0.05334778502583504f, -0.14133164286613464f, -0.18901976943016052f, -0.13576588034629822f, -0.3374496102333069f, 0.6746991872787476f, 0.6492443084716797f, 0.03117211163043976f, -0.16666001081466675f, 0.3181733191013336f, -0.3593578040599823f, 0.010750859044492245f, -0.0493016354739666f, 0.5688843131065369f, 0.020859910175204277f, 0.4081093966960907f, -0.0017183730378746986f, 0.2617260813713074f, 0.1343238204717636f, 0.19065512716770172f, -0.5439599752426147f, 0.061228569597005844f, -0.06610172241926193f, -0.16511531174182892f, -0.1745193898677826f, 0.16510668396949768f, -0.4578319191932678f, -0.02986992709338665f, -0.5118242502212524f, 0.3837410807609558f, 0.2666558027267456f, 0.058518439531326294f, 0.12284360826015472f, 0.4293680191040039f, 0.08526837825775146f, 0.03481680154800415f, -0.38019251823425293f, 0.2652518153190613f, 0.3072710931301117f, 0.016381964087486267f, 0.5088961720466614f, 0.08100634068250656f, 0.24516011774539948f, -0.31630614399909973f, -0.23437145352363586f, -0.6841700077056885f, 0.03226260840892792f, -0.47777649760246277f, -0.23324187099933624f },
