#pragma once

#include <cstddef>
#include <cstdint>

const size_t norm_bias_array_shape[3] = { 12, 2, 192 };
float norm_bias_array[12][2][192] = { { { -1.6913264989852905f, 0.038513295352458954f, -0.5902913212776184f, -0.40058183670043945f, 1.0034798383712769f, -0.34278807044029236f, -0.14124880731105804f, 0.748789370059967f, -0.09062886238098145f, 1.2301616668701172f, -0.13983339071273804f, 0.261646568775177f, -0.09819801896810532f, -0.06738574057817459f, 1.1611520051956177f, 0.8286849856376648f, -1.1733875274658203f, -0.17252783477306366f, 0.5991184711456299f, 0.008372501470148563f, 0.15636631846427917f, -0.1717609465122223f, -0.6203898787498474f, -0.05024632439017296f, -0.3992040753364563f, -0.4486788213253021f, 0.642302930355072f, 0.7649290561676025f, 0.6668478846549988f, -0.15390697121620178f, -0.13598956167697906f, -0.31955137848854065f, -1.70405912399292f, -0.7304503917694092f, -0.3140394389629364f, -0.23518255352973938f, 0.9108705520629883f, 0.21938544511795044f, -0.3784979283809662f, -0.3029387593269348f, 0.2245631068944931f, 0.13499443233013153f, 0.3929809629917145f, -0.03911707550287247f, -0.3595171868801117f, -0.1296597570180893f, -0.5565088391304016f, 0.3056598901748657f, 0.02265959419310093f, -0.4511687755584717f, -1.1550201177597046f, 0.37040209770202637f, -0.11505215615034103f, 0.32085877656936646f, -1.083491563796997f, 0.12635201215744019f, -0.5056147575378418f, 0.05228881165385246f, 0.9581761956214905f, 0.5858118534088135f, 0.7521548867225647f, 0.5764977931976318f, -0.699137806892395f, 0.06327828764915466f, 0.31297215819358826f, -0.2498505562543869f, 0.05219288170337677f, -0.011640959419310093f, 0.5086213946342468f, 0.6804322600364685f, 0.5728819966316223f, 0.9419217705726624f, -0.0542353019118309f, -0.127484992146492f, -0.1985713541507721f, 0.539797306060791f, -0.05988510698080063f, 1.088185429573059f, 0.06947942078113556f, -2.0436973571777344f, -0.3774716854095459f, 0.8876997828483582f, -0.9763650894165039f, 0.2865458130836487f, -0.17900115251541138f, 1.38157320022583f, 0.5046955943107605f, 0.6736674904823303f, -0.9431195855140686f, -0.006146179977804422f, 1.3997883796691895f, 0.881627082824707f, 0.16004620492458344f, -0.0021892746444791555f, -0.15736153721809387f, 0.016238749027252197f, 1.6089409589767456f, -1.2929497957229614f, -0.40140610933303833f, 0.960325300693512f, -0.39375099539756775f, -0.05450338125228882f, 0.2897663414478302f, -0.033878590911626816f, -0.8682572841644287f, 0.41043975949287415f, 0.07440969347953796f, 0.34574347734451294f, -0.1872166246175766f, -1.194098949432373f, 0.0791381374001503f, -0.06822706013917923f, -0.10468274354934692f, -0.6592857241630554f, 0.46955180168151855f, -0.06013717129826546f, 0.7955077886581421f, 0.9591301083564758f, -0.42054569721221924f, 0.49328723549842834f, -0.3055563271045685f, 0.031160244718194008f, 0.6132115125656128f, -0.9247914552688599f, 0.39553695917129517f, 0.3992249667644501f, 0.3941856026649475f, -0.13197211921215057f, 0.14479894936084747f, 0.18411250412464142f, 0.5228762030601501f, -0.003363017924129963f, -0.08333907276391983f, 0.5398474335670471f, -0.3197440803050995f, 0.316525399684906f, 0.5203536152839661f, -0.10782279074192047f, -1.2356750965118408f, -0.8725581765174866f, -2.092682361602783f, 0.01283829752355814f, -0.377088725566864f, 0.5630802512168884f, 1.2233515977859497f, -0.7760798335075378f, -0.23950716853141785f, -0.30439215898513794f, 0.26342472434043884f, 0.5717987418174744f, 0.7061553597450256f, -1.2847225666046143f, -0.06162624433636665f, -0.23230189085006714f, 0.03709985688328743f, 0.3594474196434021f, 0.0871211364865303f, 0.1517353355884552f, -0.6216670274734497f, -0.19756676256656647f, 0.1653764694929123f, -0.1275358498096466f, 0.32367295026779175f, -0.10970544070005417f, -0.5832222700119019f, 0.08635522425174713f, -0.6183562874794006f, 1.1030933856964111f, -0.040867194533348083f, -0.4872989058494568f, -0.004113670438528061f, -0.8162244558334351f, 0.8669365048408508f, 0.05989959090948105f, -0.19838328659534454f, 0.004149748478084803f, -0.34430304169654846f, -0.3794648051261902f, -0.3497021496295929f, 0.9221212863922119f, -0.7542678713798523f, 0.01577881909906864f, 0.099732905626297f, -0.5502716898918152f, 0.17999166250228882f, -0.10053613036870956f, -0.6922849416732788f, 0.14075517654418945f, 0.15702497959136963f, -0.6787596940994263f, 0.6204547882080078f, -0.23057276010513306f },
  { -1.0877424478530884f, 0.4584118127822876f, -0.824744701385498f, -0.8269668221473694f, 0.9776830077171326f, 0.7032389640808105f, -1.041853904724121f, 3.495587110519409f, 0.7877072691917419f, 0.5285656452178955f, -0.7821730971336365f, 0.6426250338554382f, 0.6545725464820862f, 0.606805682182312f, 0.8585147261619568f, 0.23510904610157013f, -1.3339282274246216f, 0.07873275130987167f, 1.614481806755066f, -0.34121212363243103f, 0.42532408237457275f, -1.5574069023132324f, -0.7174416780471802f, -0.6258350014686584f, -0.5202460289001465f, -0.3922080099582672f, 0.9225764274597168f, 0.03323697671294212f, 0.23596620559692383f, -0.29962825775146484f, -0.3819894790649414f, -0.3230009377002716f, -1.532968282699585f, -1.5423446893692017f, -0.11539048701524734f, 0.35379907488822937f, 1.3725454807281494f, 1.0767810344696045f, -1.1970669031143188f, -0.14200137555599213f, 0.770664632320404f, 0.27364784479141235f, 0.5709818601608276f, 0.5083904266357422f, -0.13837873935699463f, -0.8633673191070557f, 0.09551435708999634f, -0.6422075033187866f, -0.012790055945515633f, -0.7028380632400513f, -0.5554360151290894f, -0.2164517343044281f, -0.0510978028178215f, 0.11543608456850052f, -0.7594307065010071f, 0.7551482319831848f, -1.6455421447753906f, -0.029637962579727173f, 0.48846742510795593f, 1.1821258068084717f, 0.6249008774757385f, 0.276574045419693f, -2.0133986473083496f, 0.032308001071214676f, 0.3495731055736542f, -0.9424350261688232f, 0.27588173747062683f, -0.005380644463002682f, 0.31777578592300415f, 1.8042184114456177f, 0.8609684109687805f, 1.2928435802459717f, -0.2624192535877228f, -0.36446699500083923f, 0.3642328083515167f, 0.6456045508384705f, -0.35167422890663147f, 0.8071626424789429f, 1.3135980367660522f, -1.5866355895996094f, -0.7308728694915771f, 1.0312989950180054f, -0.4317507743835449f, -0.6876733899116516f, -0.05004824325442314f, 1.5190069675445557f, 0.5053583979606628f, 0.25544047355651855f, -0.936382532119751f, -0.038421425968408585f, 1.4465432167053223f, 1.119456171989441f, 0.32364094257354736f, 0.8111178278923035f, -0.06985358893871307f, -0.18755796551704407f, 1.5362852811813354f, -1.0314393043518066f, 0.3110713064670563f, 1.3540867567062378f, -0.2240060418844223f, 0.09250225126743317f, 0.42882442474365234f, 0.3466591238975525f, -1.1358494758605957f, 0.30036067962646484f, 0.0457926020026207f, 0.5564689636230469f, -0.7694050073623657f, -1.7459359169006348f, 0.3878649175167084f, 0.7483103275299072f, -0.7462852597236633f, -0.8092299699783325f, 0.7547670602798462f, 0.6359307169914246f, 0.5152300596237183f, 0.37953072786331177f, -0.4314059913158417f, 0.8642579317092896f, -0.16676190495491028f, -0.07849588245153427f, 0.8627484440803528f, -1.6670695543289185f, -0.13890987634658813f, 0.10426076501607895f, 1.1613130569458008f, 0.015654217451810837f, 0.7902069091796875f, 0.7906008958816528f, 0.05156300589442253f, -0.03353917598724365f, 0.7823479175567627f, -0.02858571521937847f, -0.17445139586925507f, 0.22601117193698883f, -0.8607845902442932f, 0.5522103309631348f, -0.29257839918136597f, -1.2134538888931274f, -1.3108285665512085f, 0.06961140036582947f, -0.845255434513092f, 0.8496677875518799f, 0.8495249152183533f, -0.6068884134292603f, -0.2791813015937805f, -0.6367743015289307f, -0.9412585496902466f, 0.7957212328910828f, 0.13345085084438324f, -1.067162275314331f, -0.5973901152610779f, -0.045271970331668854f, -0.030725320801138878f, 0.732588529586792f, 1.0462262630462646f, 0.08433954417705536f, -1.6394386291503906f, -0.09119679033756256f, -0.27492594718933105f, -1.0761350393295288f, -0.5976569652557373f, -0.2164994478225708f, -0.07533515989780426f, 0.6955571174621582f, -0.6145930290222168f, 0.6035499572753906f, 0.46568289399147034f, -0.3566860258579254f, 0.05459164083003998f, -1.2628782987594604f, -0.09258992969989777f, -0.10014624893665314f, -0.8200935125350952f, -0.06886431574821472f, 0.14171527326107025f, 0.036476362496614456f, 0.18064351379871368f, 1.4028047323226929f, -0.24111558496952057f, 0.05859033390879631f, 0.8317340016365051f, -0.755954921245575f, -0.05709793418645859f, 0.047434814274311066f, 0.3842327296733856f, 0.03324027359485626f, 0.11468441784381866f, -0.5445627570152283f, 0.3698911666870117f, -1.3773748874664307f } },
  { { -0.3603661060333252f, -0.05336478725075722f, -0.47562387585639954f, -0.3013766407966614f, 0.18161723017692566f, 0.048169851303100586f, -0.18907666206359863f, -0.0033742778468877077f, -0.007191627752035856f, 1.0604455471038818f, -0.09446241706609726f, 0.01738721877336502f, 0.25169187784194946f, 0.8612715601921082f, 0.7118271589279175f, 0.25215762853622437f, -0.3752284348011017f, -1.3213542699813843f, 0.6462022066116333f, -0.49927473068237305f, -0.22670568525791168f, -0.40728020668029785f, -0.5862754583358765f, -0.1921221911907196f, -0.2856198847293854f, -0.5027686953544617f, 0.40580880641937256f, 0.7254143953323364f, -1.8813457489013672f, 0.01849091239273548f, -0.25505632162094116f, 0.35433995723724365f, -0.78812175989151f, -0.7432942390441895f, 0.010774281807243824f, 1.339426040649414f, 0.9228025078773499f, 0.36142081022262573f, -0.027513520792126656f, -0.3757994472980499f, 0.21413879096508026f, 0.13391834497451782f, 0.22676019370555878f, -0.4794882833957672f, 0.31086140871047974f, 0.2682484984397888f, -0.06421146541833878f, -0.9412252306938171f, -0.06690620630979538f, -0.1803397387266159f, 0.50666344165802f, -0.5642030835151672f, 0.028469745069742203f, 0.9185307025909424f, -0.8382357954978943f, 0.42851731181144714f, -0.45495927333831787f, -0.06286809593439102f, -0.4647841155529022f, 0.44395944476127625f, 0.33103856444358826f, 0.08130981028079987f, -0.9924487471580505f, -0.04874201864004135f, -0.13791833817958832f, -0.7179458141326904f, 1.0724612474441528f, -0.14297346770763397f, 0.2193145602941513f, 0.14144045114517212f, 0.05138403922319412f, 0.47028878331184387f, 0.2135544717311859f, -0.17820322513580322f, 0.19484086334705353f, 0.7424872517585754f, -0.2146003544330597f, 0.16901180148124695f, 0.06502700597047806f, -0.8106642961502075f, -0.622281551361084f, 0.435983806848526f, 1.865676760673523f, -0.732490599155426f, -0.2118431031703949f, 0.7074669599533081f, 0.9985020160675049f, 0.12501837313175201f, -0.6580341458320618f, -0.0046831523068249226f, 1.206050992012024f, 1.5066550970077515f, 0.0696728527545929f, 0.4360695779323578f, 0.10339158773422241f, -0.02472759410738945f, 0.6379718780517578f, -0.3685043752193451f, 0.19787274301052094f, 0.7255426049232483f, 0.538215696811676f, -0.33436039090156555f, -0.3335910141468048f, 0.11490753293037415f, -0.3400982916355133f, 0.15558484196662903f, 0.4099469780921936f, 0.23474004864692688f, -0.3151424527168274f, -1.145750880241394f, 0.25287359952926636f, -0.03580459952354431f, -0.4238548278808594f, 0.18639160692691803f, 0.030928924679756165f, 0.7231270670890808f, -0.4418335258960724f, 0.1480863392353058f, -0.3933663070201874f, 0.49777016043663025f, 0.09152533113956451f, -0.12191437929868698f, 0.5203825831413269f, -0.23758848011493683f, -0.08792688697576523f, 0.16531111299991608f, 0.6190094947814941f, 0.14670555293560028f, -0.10233131051063538f, 0.403870165348053f, -0.110848568379879f, 0.029543355107307434f, 0.668276309967041f, 0.47158294916152954f, -0.3347848653793335f, -1.3417017459869385f, -0.12376636266708374f, -0.012594220228493214f, -0.625321626663208f, -0.5771633982658386f, -0.2844674587249756f, 0.08541125804185867f, -0.05184752494096756f, 0.4886665940284729f, 0.4775855541229248f, -0.7821480631828308f, 0.2928985357284546f, -0.8318289518356323f, -0.15861570835113525f, 0.4276452958583832f, 0.7745059132575989f, -0.13485214114189148f, -0.906801164150238f, -0.5369300842285156f, -0.3241230845451355f, 0.3821192979812622f, 0.7143765687942505f, -0.2396584004163742f, -0.31813064217567444f, -0.09105508029460907f, 0.18186844885349274f, -0.10253370553255081f, -0.1887717992067337f, -0.8951448798179626f, -0.2290688157081604f, 0.27593469619750977f, -0.20654696226119995f, 0.2576199769973755f, -0.6669989228248596f, -0.32872599363327026f, -0.3185514807701111f, -0.2816707193851471f, 0.12011870741844177f, -0.23160770535469055f, -0.23687642812728882f, -0.2864018380641937f, -0.05189846083521843f, 0.1847773939371109f, 0.13369561731815338f, 0.42529162764549255f, 0.07247639447450638f, 0.23874133825302124f, 0.2061420977115631f, -0.5522891879081726f, -0.0624554418027401f, -0.36426907777786255f, 0.09066689759492874f, 0.36072176694869995f, 0.21491405367851257f, 0.37365487217903137f, -0.6441405415534973f, -0.2177460789680481f },
  { -0.032287850975990295f, -0.566344141960144f, -0.44637206196784973f, 0.04113052040338516f, -0.45916059613227844f, 0.6444937586784363f, -0.12981387972831726f, 2.1669442653656006f, -0.08793454617261887f, 0.17464783787727356f, 0.10389900952577591f, -0.4207036793231964f, 0.10726458579301834f, 1.2069638967514038f, 0.14564092457294464f, 0.47627902030944824f, -0.19082652032375336f, -0.09165080636739731f, -0.20990368723869324f, -0.325070858001709f, -0.8636327981948853f, 0.2291276901960373f, -0.5251656770706177f, 0.337740033864975f, -0.3208317756652832f, -0.9302879571914673f, -0.08295463770627975f, 0.5500922799110413f, -1.0812679529190063f, 0.22363421320915222f, 0.0509142205119133f, -0.35637107491493225f, -0.47043851017951965f, -0.1877150982618332f, -0.5575699806213379f, 1.996376633644104f, 0.8127934336662292f, -0.001342264236882329f, -0.3859596252441406f, -0.6478694081306458f, -0.03470444306731224f, -0.05003698542714119f, 0.042888250201940536f, -0.2696022391319275f, -0.07746380567550659f, 0.5614089369773865f, -0.8406417369842529f, -0.3412801921367645f, 0.008775065653026104f, -0.16492405533790588f, 0.2887566089630127f, 0.04291514307260513f, 0.19581511616706848f, 1.1973894834518433f, -0.6386362910270691f, 0.4172256588935852f, 0.19649919867515564f, -0.005461172200739384f, -0.51649010181427f, -0.34628474712371826f, 0.3635440468788147f, -0.006137201562523842f, -0.7557600140571594f, -0.01410404872149229f, -0.4089692533016205f, -0.29668813943862915f, 3.1505935192108154f, -0.018862998113036156f, 0.0672515407204628f, -0.3288184702396393f, 0.08899320662021637f, 0.03847184777259827f, 0.17785926163196564f, -0.21844646334648132f, 0.40810665488243103f, 0.44337430596351624f, 0.21525938808918f, -0.11092046648263931f, -0.4128495752811432f, -0.5570976138114929f, -0.5593717694282532f, 0.23014137148857117f, 4.303864002227783f, -0.45448416471481323f, -0.022713083773851395f, 0.3206369876861572f, 1.1441808938980103f, -0.07228944450616837f, -0.5667007565498352f, -0.0058959913440048695f, 0.4067702889442444f, 1.586991786956787f, -0.5620236992835999f, -0.0609385222196579f, -0.4594021737575531f, 0.2915923297405243f, -0.3631441593170166f, -0.289654403924942f, -0.42804214358329773f, 0.4864770174026489f, 0.7581097483634949f, 0.05837590619921684f, -0.49568742513656616f, -0.11703615635633469f, -0.45082607865333557f, 0.32285499572753906f, -0.05919588729739189f, -0.2756042778491974f, -0.43826308846473694f, -0.2723904848098755f, -0.18488456308841705f, -0.9591386914253235f, -1.2647784948349f, 0.004812093451619148f, -0.24155527353286743f, 0.07134964317083359f, -0.5724872350692749f, -0.24190407991409302f, -0.38867634534835815f, -0.1273735910654068f, -0.33693844079971313f, 0.09663049131631851f, 0.22173117101192474f, -0.2075074315071106f, -0.24843434989452362f, 0.20302045345306396f, 0.0914064273238182f, 0.4110569357872009f, -0.02265821024775505f, 0.3999037444591522f, -0.5323206186294556f, 0.004335454199463129f, 0.2742810547351837f, -0.2620333433151245f, -0.7258054614067078f, -0.29965290427207947f, 0.38889217376708984f, -0.0523974671959877f, -0.0021707487758249044f, -0.4851902723312378f, 0.056566160172224045f, 0.007967797107994556f, 0.2668558955192566f, 0.5360071659088135f, 0.25986921787261963f, -0.6576951742172241f, 0.6945550441741943f, -0.7598299980163574f, 0.19131198525428772f, 0.2410401701927185f, 0.8284445405006409f, -0.6801181435585022f, -0.7447484731674194f, -0.5712643265724182f, 0.11436224728822708f, -0.19925779104232788f, 0.4104686677455902f, -0.44597697257995605f, -0.02400216832756996f, -0.24781088531017303f, -0.01681705005466938f, 0.3132690191268921f, -0.09654811024665833f, 0.3188081979751587f, -0.31602129340171814f, 0.3350834250450134f, 0.017890306189656258f, 0.4621669054031372f, -1.3184988498687744f, -0.12181519716978073f, -0.6056628823280334f, -0.128210186958313f, 0.8970069289207458f, -0.4640989601612091f, 0.03958185762166977f, -0.33381226658821106f, -0.005990402773022652f, 0.00020754864090122283f, -0.10609949380159378f, -0.22449712455272675f, 0.2719581127166748f, -0.28662729263305664f, -0.34068402647972107f, 0.20944271981716156f, -0.24168863892555237f, -0.5433131456375122f, 0.631817102432251f, -0.2778048515319824f, 0.02760975807905197f, 0.08076275885105133f, -0.9603956937789917f, 0.07967319339513779f } },
  { { 0.09869466722011566f, -0.3672555685043335f, -0.29357022047042847f, -0.12433972209692001f, -0.27806660532951355f, 0.46455395221710205f, 0.058677054941654205f, 0.9247565269470215f, -0.03865208849310875f, 0.08813687413930893f, 0.09183752536773682f, -0.3567018508911133f, 0.005482940003275871f, 0.4635016918182373f, 0.19523735344409943f, 0.423769474029541f, 0.007466926705092192f, 0.06542019546031952f, -0.02626379393041134f, -0.29237130284309387f, -0.4543951153755188f, 0.0240043755620718f, -0.5916290283203125f, 0.11500528454780579f, -0.33383283019065857f, -0.5236876010894775f, -0.01518617570400238f, 0.3289513885974884f, -1.1364637613296509f, 0.2127067595720291f, 0.1829630583524704f, -0.13956370949745178f, -0.30631715059280396f, -0.10321447998285294f, -0.5578778982162476f, 0.8227905631065369f, 0.4517001509666443f, -0.0955348089337349f, 0.008998422883450985f, -0.3541044294834137f, -0.006010042037814856f, 0.008086825720965862f, 0.13960890471935272f, -0.33118149638175964f, 0.10398518294095993f, 0.3466254770755768f, -0.4950914680957794f, -0.3720683455467224f, -0.3438349664211273f, -0.1861197054386139f, 0.3410978615283966f, -0.0412919707596302f, 0.03979192301630974f, 0.7203282117843628f, -0.6148176789283752f, 0.38459938764572144f, 0.1034679189324379f, -0.2266198694705963f, -0.4828813672065735f, -0.18151026964187622f, 0.2503323256969452f, 0.1560380756855011f, -0.547789454460144f, -0.12759549915790558f, -0.3946739733219147f, -0.281046062707901f, 0.7329128980636597f, -0.4671626389026642f, 0.15483443439006805f, -0.3937089741230011f, 0.015472492203116417f, 0.09882120043039322f, 0.21432600915431976f, -0.13820216059684753f, 0.34038689732551575f, 0.4372473955154419f, 0.2262386679649353f, -0.008706415072083473f, -0.270828515291214f, -0.30449753999710083f, -0.7160622477531433f, 0.14290140569210052f, 2.7833733558654785f, -0.5525508522987366f, -0.5841611623764038f, 0.14396293461322784f, 0.9013032913208008f, 0.04457080736756325f, -0.39452680945396423f, -0.025015814229846f, 0.5113632678985596f, 0.868497908115387f, -0.4112672209739685f, 0.05248367786407471f, -0.19411632418632507f, 0.08327481150627136f, -0.2027757614850998f, -0.12856143712997437f, -0.17428328096866608f, 0.46046367287635803f, 0.5846354961395264f, 0.04064277559518814f, -0.3895302414894104f, -0.12637703120708466f, 0.12254830449819565f, 0.21660006046295166f, 0.21193233132362366f, -0.08049146831035614f, -0.38987934589385986f, -0.5145149827003479f, -0.11578112840652466f, -0.581446647644043f, -0.2689542770385742f, 0.07756441831588745f, -0.19252923130989075f, 0.19627273082733154f, -0.4182738959789276f, -0.16802889108657837f, -0.39247891306877136f, -0.0991729125380516f, -0.08515305817127228f, -0.1772211641073227f, 0.36324775218963623f, -0.007012531626969576f, -0.17613820731639862f, 0.16612033545970917f, 0.20317499339580536f, 0.2321019470691681f, -0.18057745695114136f, 0.18919061124324799f, -0.22064539790153503f, -0.339371919631958f, 0.29978692531585693f, 0.03684118762612343f, -0.5720810890197754f, -0.16120587289333344f, 0.2018982619047165f, -0.016887765377759933f, -0.04455016925930977f, -0.27279794216156006f, 0.2557716369628906f, 0.2923485338687897f, 0.08519638329744339f, 0.46436381340026855f, 0.13264301419258118f, -0.41478681564331055f, 0.667066216468811f, -0.5547635555267334f, 0.08588847517967224f, 0.0050783962942659855f, 0.5090010762214661f, -0.17813128232955933f, -0.683339536190033f, -0.4636971354484558f, -0.0469583198428154f, -0.09082528948783875f, 0.40297845005989075f, -0.364889919757843f, 0.09906097501516342f, -0.15164710581302643f, 0.0031278408132493496f, 0.26769962906837463f, -0.012387491762638092f, 0.17968398332595825f, -0.3944787383079529f, 0.2304600030183792f, 0.06706991046667099f, 0.24259746074676514f, -0.339235782623291f, -0.037122245877981186f, -0.16871212422847748f, -0.08006486296653748f, 0.23097898066043854f, -0.4084305763244629f, 0.08287413418292999f, -0.374096542596817f, 0.0006407570326700807f, 0.07573734223842621f, 0.00211602752096951f, 0.0027710210997611284f, 0.2112068384885788f, -0.018061628565192223f, -0.22631487250328064f, -0.059880271553993225f, -0.234063521027565f, -0.38755717873573303f, 0.6223587989807129f, -0.04529421031475067f, 0.08796995878219604f, 0.12554632127285004f, -0.7120064496994019f, 0.22223545610904694f },
  { -0.06339601427316666f, -0.43956032395362854f, -0.2727014124393463f, 0.07574174553155899f, -0.35258257389068604f, 0.28163692355155945f, 0.12389213591814041f, 2.3974709510803223f, -0.07678575813770294f, 0.395723819732666f, 0.14134472608566284f, -0.18284673988819122f, -0.09309936314821243f, 0.6300719380378723f, 0.04489612579345703f, 0.1801353245973587f, 0.15990319848060608f, -0.010469497181475163f, -0.3416344225406647f, -0.22377072274684906f, -0.3497595191001892f, 0.12563104927539825f, -0.3049171268939972f, -0.14124925434589386f, -0.2795352637767792f, -0.3959689736366272f, -0.20075228810310364f, 0.5304204225540161f, -0.7815170288085938f, 0.20179694890975952f, 0.11010171473026276f, -0.018734680488705635f, -0.040284886956214905f, 0.2548143267631531f, -0.03887074068188667f, 0.7620692253112793f, 0.19656991958618164f, -0.10644590854644775f, 0.6487918496131897f, -0.15818293392658234f, -0.00706366915255785f, 0.10351882874965668f, 0.20048503577709198f, -0.23892763257026672f, 0.0513620525598526f, 0.2613561153411865f, -0.507490873336792f, -0.46217724680900574f, 0.012030337005853653f, -0.10238908976316452f, 0.1744871437549591f, -0.20060904324054718f, 0.2622717320919037f, 0.2760038673877716f, 0.1228451356291771f, 0.18117956817150116f, 0.16948051750659943f, 0.02951323427259922f, -0.4216814935207367f, -0.26255014538764954f, 0.11603400111198425f, 0.1321106255054474f, -0.2852741479873657f, -0.02688765712082386f, -0.38628101348876953f, -0.2102145552635193f, 0.26072990894317627f, -0.032504964619874954f, 0.08156118541955948f, -0.6075193285942078f, -0.11031566560268402f, -0.1529930680990219f, 0.33718493580818176f, -0.15944021940231323f, 0.18494221568107605f, 0.3307657837867737f, 0.18497972190380096f, -0.13417929410934448f, -0.09741970896720886f, -0.08019672334194183f, -0.3214353024959564f, 0.039994724094867706f, 2.1302127838134766f, -0.40349093079566956f, -0.09711464494466782f, -0.23886585235595703f, 0.45870116353034973f, -0.11884786188602448f, -0.21627309918403625f, 0.004215637221932411f, 0.005346164107322693f, 0.6851521730422974f, -0.37040144205093384f, -0.4623474180698395f, -0.031506236642599106f, 0.24225282669067383f, -0.3094037175178528f, 0.2586529850959778f, -0.32516810297966003f, 0.08890558779239655f, 0.3096321225166321f, -0.09887991100549698f, -0.3544468581676483f, -0.4548299312591553f, 0.24415099620819092f, -0.18520022928714752f, -0.10189472883939743f, -0.03245873004198074f, -0.07652673870325089f, -0.2667066752910614f, -0.1606418639421463f, -0.6100685596466064f, -0.6759390234947205f, 0.059674713760614395f, -0.2025444507598877f, 0.1031523272395134f, -0.3314940631389618f, -0.18520048260688782f, -0.41667062044143677f, -0.1939961016178131f, -0.3422565460205078f, 0.17497603595256805f, 0.16567844152450562f, 0.19978517293930054f, -0.36154472827911377f, -0.04622745141386986f, -0.06208330765366554f, 0.0759054571390152f, -0.20820654928684235f, -0.1129957064986229f, -0.05293377488851547f, 0.0028846077620983124f, 0.05022330582141876f, -0.324501633644104f, -0.3175540268421173f, 0.49795886874198914f, 0.38417771458625793f, -0.22082732617855072f, -0.15020330250263214f, -0.08940871059894562f, 0.023221323266625404f, -0.0012527072103694081f, 0.08523483574390411f, 0.2903140187263489f, 0.1259523183107376f, -0.23593829572200775f, -0.2019699215888977f, -0.14900362491607666f, 0.17568986117839813f, 0.03231397643685341f, 0.36293360590934753f, -0.07587254047393799f, -0.8791319131851196f, -0.35405850410461426f, -0.12538106739521027f, -0.16923651099205017f, 0.12749631702899933f, -0.1047486811876297f, 0.07070266455411911f, 0.0750972107052803f, 0.20653194189071655f, 0.34378865361213684f, 0.05202249065041542f, 0.32293805480003357f, -0.35929128527641296f, 0.007400691043585539f, 0.12102996557950974f, -0.012748388573527336f, -0.07086997479200363f, -0.18427327275276184f, 0.07163055986166f, 0.09749669581651688f, 0.46774575114250183f, -0.34040114283561707f, 0.10089974105358124f, -0.34460189938545227f, 0.25721830129623413f, -0.17632727324962616f, -0.04747830331325531f, -0.1129382997751236f, 0.3164892792701721f, 0.00563506456092f, -0.28617116808891296f, -0.13543716073036194f, -0.19056221842765808f, -0.43204939365386963f, -0.0765242874622345f, -0.04409604147076607f, -0.008447699248790741f, 0.03260165452957153f, -0.558146595954895f, 0.4121168851852417f } },
  { { 0.31991875171661377f, -0.3663741946220398f, 0.22467008233070374f, 0.1592029333114624f, -0.32034987211227417f, -0.26023051142692566f, 0.15305708348751068f, 0.07096382975578308f, -0.1737624555826187f, -0.37268510460853577f, 0.006486757192760706f, -0.5446521639823914f, 0.15995511412620544f, 1.6934894323349f, -0.12275803089141846f, -0.08588700741529465f, -0.08518113940954208f, 0.10138457268476486f, -0.19205431640148163f, -0.09534922242164612f, 0.05236290395259857f, 0.4507123529911041f, 0.18810845911502838f, 0.05583978444337845f, 0.6609008312225342f, -0.522746741771698f, -0.06736277043819427f, 0.36563315987586975f, -0.5006400942802429f, 0.21851852536201477f, -0.2193891406059265f, 0.25899362564086914f, -0.002061922801658511f, 0.20159362256526947f, -0.5585138201713562f, 0.7246046662330627f, 0.015250870026648045f, 0.2721123695373535f, -0.16971498727798462f, -0.2103051245212555f, -0.2998740077018738f, 0.0312749482691288f, -0.011613900773227215f, -0.21799403429031372f, 0.0497274249792099f, 0.23890931904315948f, -0.1684083193540573f, -0.20617996156215668f, 0.13141940534114838f, 0.010545391589403152f, 0.15812215209007263f, 0.03372946381568909f, 0.23759326338768005f, 0.2350425124168396f, -0.1692490428686142f, 0.00394845986738801f, 0.3188875615596771f, -0.25243446230888367f, -0.10603904724121094f, -0.42513060569763184f, 0.07671075314283371f, -0.19356045126914978f, 0.10181033611297607f, -0.11569767445325851f, -0.1675191968679428f, 0.0756019875407219f, 0.14423055946826935f, -1.1865154504776f, -0.2951623499393463f, -0.22419188916683197f, -0.06091230362653732f, -0.14193426072597504f, -0.17409630119800568f, -0.039602894335985184f, -0.0633620172739029f, 0.004284911789000034f, 0.15998472273349762f, -0.0048321811482310295f, -0.27695178985595703f, -0.26223334670066833f, 0.21390968561172485f, 0.1639355570077896f, 4.074625015258789f, -0.21776941418647766f, -0.6031664609909058f, -0.16904857754707336f, 0.042032402008771896f, -0.0851738452911377f, -0.0499560572206974f, -0.12392109632492065f, 0.10597877204418182f, 0.9041664600372314f, -0.13045938313007355f, -0.3127562403678894f, -0.40690910816192627f, 0.2984180748462677f, -0.13180866837501526f, -0.3002813458442688f, -0.14009371399879456f, 0.1298152506351471f, 0.17728160321712494f, -0.05537930503487587f, -0.3103328049182892f, 0.06728120148181915f, 0.004103425424546003f, 0.07962452620267868f, 2.1715004444122314f, 0.15962545573711395f, 0.0942087471485138f, 0.4709289073944092f, -0.21207444369792938f, -0.4053688645362854f, -0.5888410806655884f, 0.2959926128387451f, -0.06686130166053772f, -0.7682337164878845f, -0.27179720997810364f, -0.04383235052227974f, -0.16326963901519775f, 0.4140334725379944f, -0.03849126771092415f, 0.11879478394985199f, 0.020503057166934013f, 0.25124800205230713f, 0.036266427487134933f, -0.21926212310791016f, -0.1800777018070221f, 0.22789037227630615f, -0.009233972057700157f, -0.02187681943178177f, -0.10751713812351227f, 0.20219913125038147f, -0.1347123384475708f, -0.2264793962240219f, -0.2718556523323059f, -1.1944143772125244f, 0.21141162514686584f, 0.06421016901731491f, 0.26155081391334534f, 0.2840511202812195f, -0.0898350402712822f, 0.9577016234397888f, 0.26057907938957214f, 0.03122710809111595f, -0.19178874790668488f, -0.31548768281936646f, -0.42461755871772766f, 0.060765210539102554f, 0.2145080417394638f, 0.09669537842273712f, 0.2586703598499298f, -0.06972302496433258f, 0.17654280364513397f, -0.2775249779224396f, 0.268662691116333f, -0.0944131463766098f, 0.19939696788787842f, -0.07725197821855545f, -0.10040087252855301f, -0.029411543160676956f, -0.008947347290813923f, 0.21895867586135864f, -0.048206716775894165f, -0.55016028881073f, -0.038907457143068314f, 0.013167091645300388f, -0.1850404441356659f, -0.2290603667497635f, -0.5238222479820251f, -0.21658572554588318f, -0.595983624458313f, -0.16279149055480957f, -1.625448226928711f, -0.11174804717302322f, 0.0006466071354225278f, -0.3015710711479187f, -0.27764540910720825f, -0.029088094830513f, -0.06887684762477875f, -0.4606347382068634f, 0.12996219098567963f, -0.16169390082359314f, -0.09892857074737549f, 0.589790403842926f, -0.11737488955259323f, -0.010240116156637669f, 0.1910342276096344f, -0.34548673033714294f, 0.15846383571624756f, 0.10127893835306168f, -0.768466055393219f, 0.11162804067134857f },
  { 0.2005397230386734f, -0.5334489345550537f, 0.4750169515609741f, 0.2136133909225464f, -0.1144055724143982f, -0.17315596342086792f, -0.15442456305027008f, 0.8473568558692932f, -0.459522008895874f, -0.3230343461036682f, -0.26260024309158325f, -0.7398240566253662f, 0.2837352156639099f, 0.5244614481925964f, -0.08433213084936142f, -0.13441193103790283f, -0.310634970664978f, -0.07968644797801971f, 0.11738711595535278f, -0.17971965670585632f, 0.4058155119419098f, 0.5283573865890503f, 0.5137490034103394f, 0.2547905445098877f, 0.7186835408210754f, -0.7130864262580872f, -0.15463435649871826f, 0.41110533475875854f, 0.04991406947374344f, 0.026147212833166122f, -0.3070794939994812f, 0.06876319646835327f, -0.10126566886901855f, 0.3167780041694641f, -0.2302379012107849f, 0.4786970317363739f, -0.11861953884363174f, 0.6267419457435608f, -0.5638679265975952f, -0.1908557415008545f, -0.488452285528183f, -0.01291475910693407f, -0.031716734170913696f, -0.30018433928489685f, -0.10385585576295853f, 0.36209800839424133f, -0.40006789565086365f, -0.1708950698375702f, 0.03385089337825775f, 0.2430429309606552f, 0.04815945029258728f, 0.1389203518629074f, 0.053295888006687164f, 0.35721564292907715f, 0.1894502341747284f, -0.24719351530075073f, 0.3321501910686493f, 0.10695897787809372f, 0.22734399139881134f, -0.34355396032333374f, 0.14199866354465485f, -0.8436842560768127f, 0.2943440079689026f, 0.06349238008260727f, -0.2502906620502472f, 0.13208332657814026f, -0.38927021622657776f, -0.02709995210170746f, -0.5549774765968323f, 0.12862618267536163f, 0.32648590207099915f, 0.20854903757572174f, -0.624060332775116f, 0.18481266498565674f, 0.12069808691740036f, -0.6091192960739136f, 0.07491739094257355f, 0.12201015651226044f, -0.5988537669181824f, -0.4184046685695648f, 0.5575907230377197f, 0.4163011312484741f, 4.78640604019165f, -0.30471450090408325f, -0.012393573299050331f, -0.11136209964752197f, -0.28178074955940247f, 0.18680036067962646f, 0.024876737967133522f, 0.06523220986127853f, -0.1515820026397705f, 0.4181697368621826f, 0.041443608701229095f, -0.21985982358455658f, -0.6000930666923523f, 0.30341804027557373f, -0.02809026837348938f, -0.5096684694290161f, -0.08910120278596878f, 0.4399626851081848f, 0.30534276366233826f, -0.16099169850349426f, -0.22622692584991455f, 0.3624996542930603f, -0.830909013748169f, 0.34693142771720886f, 0.5129163861274719f, 0.30182570219039917f, 0.20726388692855835f, 0.7185639142990112f, -0.19130325317382812f, -0.049448493868112564f, -0.41309869289398193f, 0.4536532163619995f, -0.18827636539936066f, -0.8930054903030396f, -0.2220616489648819f, 0.16274666786193848f, 0.36017337441444397f, 0.4805072844028473f, -0.11248330026865005f, -0.034667909145355225f, 0.024972815066576004f, 0.25085723400115967f, 0.1839633584022522f, -0.43724796175956726f, 0.05590958893299103f, -0.045228417962789536f, 0.38158005475997925f, 0.09927935898303986f, -0.06091310828924179f, -0.03824775293469429f, -0.24964748322963715f, -0.31134846806526184f, -0.3744701147079468f, -0.11351203918457031f, 0.4184665083885193f, -0.06646227091550827f, 0.3041073977947235f, 0.17298418283462524f, -0.5209209322929382f, 0.09010328352451324f, 0.5469972491264343f, -0.05603023245930672f, -0.11570195108652115f, -0.43306177854537964f, -0.4455134868621826f, -0.18066906929016113f, 0.4446532726287842f, 0.2633781135082245f, 0.03294271230697632f, -0.023136205971240997f, 0.2681894302368164f, -0.21884381771087646f, 0.4088643491268158f, 0.053642865270376205f, 0.6556441783905029f, -0.16039365530014038f, -0.12599895894527435f, -0.09310270100831985f, 0.017203764989972115f, 0.059514835476875305f, 0.006875333841890097f, -0.5272814035415649f, 0.015430915169417858f, 0.11920725554227829f, -0.3791855573654175f, -0.10094306617975235f, -0.9298822283744812f, -0.3112930953502655f, -0.07644032686948776f, -0.14052321016788483f, -0.8240782022476196f, -0.03866277262568474f, -0.1183200478553772f, 0.009760362096130848f, -0.5631539225578308f, -0.008099859580397606f, -0.20477540791034698f, -0.3064611256122589f, -0.2330997735261917f, -0.3753921687602997f, 0.3020329475402832f, 0.7527618408203125f, 0.13771067559719086f, 0.2389340102672577f, 0.01647822931408882f, -0.48395559191703796f, 0.20445527136325836f, 0.18070830404758453f, -0.5533302426338196f, -0.259174644947052f } },
  { { 0.025235900655388832f, -0.06609389185905457f, -0.1519143134355545f, -0.09033459424972534f, 0.03623466566205025f, -0.05980582907795906f, -0.027981452643871307f, 0.5200899839401245f, -0.023196041584014893f, -0.11964431405067444f, 0.07922773063182831f, -0.5628705024719238f, 0.07735052704811096f, 0.5842515230178833f, 0.09945453703403473f, 0.1317320466041565f, -0.04725217819213867f, -0.13130201399326324f, 0.06281910836696625f, -0.12283457070589066f, 0.210554838180542f, -0.14533281326293945f, 0.09062454104423523f, -0.0511704757809639f, 0.004939364269375801f, -0.07337230443954468f, 0.03928099572658539f, 0.03373395651578903f, -0.18288080394268036f, -0.1300707459449768f, -0.055277060717344284f, -0.016252903267741203f, 0.055009402334690094f, 0.07266269624233246f, -0.15423759818077087f, 0.07480926811695099f, -0.14254924654960632f, 0.14692220091819763f, -0.16430363059043884f, -0.04739636927843094f, -0.15309515595436096f, -0.16920308768749237f, -0.013740108348429203f, -0.1402936428785324f, -0.16200850903987885f, -0.03110318072140217f, -0.11106429249048233f, -0.09717077016830444f, 0.13961230218410492f, -0.051465362310409546f, -0.19813309609889984f, 0.15223892033100128f, -0.07756474614143372f, 0.1130128800868988f, 0.005803190171718597f, 0.15035368502140045f, 0.05568614974617958f, 0.01858585514128208f, 0.100030817091465f, -0.10455295443534851f, 0.17805325984954834f, -0.27800241112709045f, -0.013620654121041298f, -0.01059636939316988f, -0.17309701442718506f, -0.173566535115242f, -0.016150755807757378f, -0.22624659538269043f, 0.01271138060837984f, 0.15840549767017365f, 0.021872544661164284f, 0.11247050017118454f, -0.43791574239730835f, 0.11123958230018616f, 0.09880813956260681f, -0.25690406560897827f, 0.12879177927970886f, 0.10335739701986313f, -0.3498072326183319f, -0.18140333890914917f, 0.046649787575006485f, -0.34130024909973145f, 2.611382484436035f, -0.05938210338354111f, -0.04210197553038597f, -0.06588234007358551f, -0.21875153481960297f, 0.13772056996822357f, 0.07809992879629135f, -0.07771191745996475f, -0.10550393164157867f, 0.2162250578403473f, -0.24902622401714325f, -0.16018545627593994f, -0.07141856104135513f, 0.07523482292890549f, -0.14147520065307617f, -0.3518711030483246f, -0.15365159511566162f, 0.30805057287216187f, 0.1849779635667801f, -0.11361575871706009f, -0.22579604387283325f, 0.0960305705666542f, -0.14066901803016663f, 0.2000378966331482f, 1.1439125537872314f, -0.0278322696685791f, -0.19910764694213867f, 0.20140129327774048f, -0.0797090157866478f, 0.12468147277832031f, -0.18659743666648865f, 0.13171930611133575f, -0.12402571737766266f, -0.6241171956062317f, -0.1554391086101532f, -0.08820805698633194f, 0.1828354299068451f, -0.04567019268870354f, -0.008285095915198326f, -0.3196582496166229f, 0.027727192267775536f, 0.009243683889508247f, 0.16215327382087708f, -0.13743096590042114f, 0.16452312469482422f, 0.21417421102523804f, 0.07751228660345078f, 0.12463071942329407f, 0.14272315800189972f, -0.05443999916315079f, -0.1124187558889389f, -0.2875140905380249f, -0.18170210719108582f, -0.40089672803878784f, 0.19097165763378143f, 0.012148791924118996f, 0.0948822870850563f, -0.08535157889127731f, -0.1318250596523285f, 0.38636016845703125f, -0.015010317787528038f, 0.1718132346868515f, 0.007866285741329193f, -0.06652845442295074f, -0.10196869820356369f, -0.15745452046394348f, -0.10835576057434082f, -0.18283489346504211f, -0.007499675266444683f, 0.03681871294975281f, 0.05700080469250679f, 0.04181867092847824f, 0.25278884172439575f, -0.0367455817759037f, 0.07817317545413971f, -0.12296642363071442f, -0.1865295171737671f, 0.046715859323740005f, -0.047058723866939545f, 0.07083514332771301f, 0.02474966272711754f, -0.0303372573107481f, 0.015065462328493595f, 0.11614804714918137f, -0.08571160584688187f, 0.12692378461360931f, -0.7192305326461792f, 0.1666771024465561f, -0.20212990045547485f, 0.0500011220574379f, -2.300837755203247f, -0.17939545214176178f, 0.0901118814945221f, -0.3104679584503174f, -0.3950650691986084f, -0.046441495418548584f, -0.06801483780145645f, 0.007984842173755169f, -0.27241721749305725f, -0.38196083903312683f, -0.007548181340098381f, 0.13939756155014038f, -0.06468802690505981f, 0.11954430490732193f, 0.03369301185011864f, -0.4257476031780243f, 0.7993110418319702f, -0.0669947937130928f, -0.06522045284509659f, 0.17888109385967255f },
  { 0.14443925023078918f, 0.1656336635351181f, 0.2414878010749817f, -0.014491175301373005f, 0.2401372343301773f, -0.049828119575977325f, -0.15040063858032227f, 1.4169762134552002f, 0.30963385105133057f, 0.12233424931764603f, -0.18551352620124817f, -0.46390658617019653f, -0.17039163410663605f, 0.11849972605705261f, 0.1187271997332573f, -0.11234483122825623f, 0.35271504521369934f, -0.4038524627685547f, 0.21139323711395264f, -0.014648609794676304f, 0.33727869391441345f, -0.014325474388897419f, 0.20187921822071075f, -0.15100201964378357f, -0.11691171675920486f, 0.15941669046878815f, -0.03885018825531006f, 0.2924191355705261f, -0.39096423983573914f, -0.06096702814102173f, -0.03217267245054245f, 0.0756591409444809f, -0.13505029678344727f, 0.08918092399835587f, -0.2516518235206604f, -0.01267254538834095f, -0.10137749463319778f, 0.07918790727853775f, -0.3808160722255707f, 0.20414596796035767f, 0.022627994418144226f, 0.05766093730926514f, -0.11436893045902252f, 0.12568603456020355f, 0.16284014284610748f, -0.059499967843294144f, -0.001873463625088334f, -0.3855286240577698f, -0.007729065138846636f, -0.339681476354599f, -0.08323293924331665f, -0.15047596395015717f, 0.12347927689552307f, 0.014157415367662907f, 0.2379109114408493f, 0.28372663259506226f, 0.1811547726392746f, 0.022013550624251366f, 0.11141527444124222f, 0.10917863994836807f, 0.2667877972126007f, -0.5199390649795532f, -0.08497068285942078f, -0.05274758115410805f, 0.013809152878820896f, 0.07633935660123825f, -0.5694713592529297f, 0.024648962542414665f, 0.11119266599416733f, -0.12699490785598755f, 0.002671938156709075f, -0.003775188000872731f, -0.11821074038743973f, 0.04265718162059784f, 0.08381830155849457f, 0.00913914479315281f, 0.02347053773701191f, 0.03550172224640846f, -0.45517316460609436f, 0.16098840534687042f, 0.14263880252838135f, -0.24992366135120392f, 4.570149898529053f, -0.2763221859931946f, -0.08556133508682251f, 0.06268196552991867f, -0.19406263530254364f, 0.3695389926433563f, 0.29360899329185486f, 0.038353562355041504f, -0.24404914677143097f, 0.27766844630241394f, 0.0735495388507843f, 0.014369012787938118f, -0.24375857412815094f, 0.09201880544424057f, -0.2330329269170761f, -0.26251327991485596f, 0.07424142956733704f, 0.049917470663785934f, 0.1416013389825821f, -0.09710726886987686f, 0.1281905323266983f, 0.2066798359155655f, -0.6198087930679321f, 0.01679641380906105f, 0.32290521264076233f, -0.08074470609426498f, -0.11758854985237122f, 0.18236400187015533f, 0.028801288455724716f, 0.2932351231575012f, -0.11292702704668045f, 0.02162458933889866f, -0.1497817188501358f, -0.9179542064666748f, 0.09716610610485077f, 0.019854731857776642f, 0.359205961227417f, -0.14910556375980377f, 0.09960832446813583f, -0.2801017761230469f, -0.1966215968132019f, -0.31433409452438354f, 0.18684539198875427f, 0.080438032746315f, -0.07227364927530289f, 0.19934646785259247f, -0.07330553233623505f, 0.11820805817842484f, 0.2527618408203125f, -0.024987980723381042f, -0.019726160913705826f, -0.14812135696411133f, 0.22479881346225739f, -0.3317296802997589f, -0.040840648114681244f, -0.17965704202651978f, -0.09993261098861694f, -0.13911637663841248f, -0.12652727961540222f, 0.03146525099873543f, -0.007786225061863661f, -0.013983584009110928f, -0.08794765919446945f, 0.08994702994823456f, -0.5603525638580322f, -0.20206882059574127f, -0.05100104212760925f, -0.11440887302160263f, -0.25717222690582275f, 0.08949660509824753f, 0.2758762538433075f, -0.026138130575418472f, 0.4510653614997864f, 0.23691029846668243f, -0.1670597493648529f, 0.2396693378686905f, -0.32555699348449707f, 0.06780660897493362f, 0.016155216842889786f, -0.0400116890668869f, 0.286033570766449f, -0.5157944560050964f, 0.40001779794692993f, 0.16175684332847595f, -0.07775774598121643f, 0.2778785526752472f, -0.9825811386108398f, -0.1498652994632721f, -0.2513434588909149f, 0.17242559790611267f, 0.00584952300414443f, 0.0768125131726265f, 0.06176534667611122f, 0.028248252347111702f, -0.3811967372894287f, 0.028223486617207527f, -0.1026136502623558f, 0.12924981117248535f, -0.3685711920261383f, -0.30913934111595154f, -0.06633976101875305f, 0.17349585890769958f, -0.18762683868408203f, -0.15589937567710876f, -0.2502953112125397f, -0.10804944485425949f, 0.5698451399803162f, 0.00709780165925622f, -0.08219551295042038f, 0.2708333730697632f } },
  { { 0.03985595703125f, -0.23763024806976318f, 0.48393020033836365f, 0.1409531682729721f, -0.368717759847641f, -0.04815690591931343f, -0.18306668102741241f, -0.3539036214351654f, -0.3056214153766632f, 0.37458735704421997f, -0.2569015622138977f, -0.07837691903114319f, -0.16039663553237915f, -0.17692254483699799f, 0.14351201057434082f, -0.22933146357536316f, 0.08382773399353027f, -0.13607338070869446f, -0.16058345139026642f, 0.01239578053355217f, 0.42022913694381714f, 0.5219987034797668f, 0.016687478870153427f, -0.27389174699783325f, 0.24058769643306732f, -0.15317513048648834f, -0.06758047640323639f, 0.5414302945137024f, -0.18915772438049316f, 0.10112868994474411f, -0.26754042506217957f, 0.1900601089000702f, 0.09693010151386261f, 0.1637350171804428f, -0.27920088171958923f, -0.06568757444620132f, 0.16323554515838623f, -0.14532716572284698f, -0.09607794135808945f, -0.16292501986026764f, -0.2045515775680542f, -0.23326890170574188f, -0.21407613158226013f, -0.08310973644256592f, 0.06308801472187042f, -0.1451541632413864f, -0.044486746191978455f, 0.2915343940258026f, 0.3413107991218567f, -0.02992602065205574f, 0.21559953689575195f, -0.07573015987873077f, 0.0030452979262918234f, -0.12353779375553131f, 0.29978784918785095f, 0.1547456979751587f, 0.20177677273750305f, 0.10151506960391998f, -0.027618467807769775f, -0.09372209012508392f, -0.1647339165210724f, -0.4150804877281189f, 0.3416566252708435f, -0.23685763776302338f, 0.43884772062301636f, 0.13269053399562836f, 0.22548937797546387f, -0.27593696117401123f, -0.24321851134300232f, -0.08305024355649948f, -0.027104439213871956f, 0.14991642534732819f, 0.12125016003847122f, -0.21080592274665833f, -0.014478247612714767f, 0.03666272014379501f, -0.02542128786444664f, -0.0617179349064827f, -0.024632660672068596f, -0.0668470561504364f, 0.18875844776630402f, -0.009692993946373463f, 2.9662153720855713f, -0.37269914150238037f, 0.3050386607646942f, -0.15078645944595337f, -0.06617558747529984f, 0.05981675535440445f, 0.22917449474334717f, -0.020905233919620514f, -0.18529069423675537f, -0.0742877870798111f, 0.4247365891933441f, 0.11678206920623779f, -0.057163432240486145f, 0.19737152755260468f, 0.19149042665958405f, -0.3057229518890381f, 0.15509618818759918f, 0.16057495772838593f, -0.09242017567157745f, -0.028165025636553764f, -0.04458288848400116f, 0.09434229880571365f, -0.20194680988788605f, 0.09734336286783218f, 0.1008942574262619f, -0.17928975820541382f, 0.05423642322421074f, 0.24348166584968567f, 0.09218554943799973f, -0.015135738998651505f, 0.05213356018066406f, 0.001073000836186111f, -0.08825909346342087f, -0.6700310707092285f, 0.08602685481309891f, 0.1521451771259308f, 0.3741343319416046f, 0.27648624777793884f, 0.025949766859412193f, -0.19174477458000183f, 0.14279332756996155f, 0.047527920454740524f, 0.3205192983150482f, -0.12227582931518555f, -0.38672587275505066f, -0.08434271812438965f, 0.19964659214019775f, 0.09909341484308243f, -0.13294196128845215f, -0.35545870661735535f, -0.1906239092350006f, -0.04720062389969826f, 0.25404831767082214f, -0.20366160571575165f, 0.17136378586292267f, -0.22893041372299194f, 0.08915785700082779f, 0.23381680250167847f, 0.0664844736456871f, -0.2042693942785263f, 0.3169494569301605f, -0.03420402109622955f, -0.23476140201091766f, -0.28252196311950684f, -0.115084208548069f, 0.16764920949935913f, 0.31237107515335083f, 0.5488337874412537f, -0.1847984790802002f, 0.009033266454935074f, -0.05066871643066406f, -0.16736094653606415f, 0.04488661140203476f, 0.15830059349536896f, -0.12266266345977783f, 0.0037720887921750546f, 0.43368110060691833f, -0.06581850349903107f, 0.252535879611969f, -0.08732683211565018f, 0.002448538551107049f, -0.9221791625022888f, 0.2522924542427063f, 0.07147665321826935f, -0.45258018374443054f, 0.2838665843009949f, -0.39105483889579773f, -0.20084084570407867f, -0.12035075575113297f, -0.32963892817497253f, -2.8437302112579346f, -0.24947409331798553f, -0.33622288703918457f, 0.38310518860816956f, -0.44398269057273865f, -0.051904454827308655f, -0.38254988193511963f, -0.41929900646209717f, 0.046802110970020294f, -0.15026061236858368f, 0.14489978551864624f, 0.321685791015625f, -0.16235575079917908f, 0.0341067835688591f, -0.07209619879722595f, 0.006843699607998133f, 0.3316265344619751f, 0.0941697433590889f, -0.3492288887500763f, -0.38368797302246094f },
  { 0.23222006857395172f, -0.13806132972240448f, 0.4683819115161896f, -0.21538954973220825f, -0.5286630988121033f, -0.03934520483016968f, -0.12139392644166946f, 0.06405510008335114f, -0.29916295409202576f, -0.12644338607788086f, 0.26776042580604553f, 0.5821481347084045f, -0.15813826024532318f, 0.12105318158864975f, -0.19498957693576813f, -0.6430237889289856f, -0.005803826730698347f, -0.058200277388095856f, 0.2284643054008484f, 0.014010880142450333f, 0.2036927491426468f, 0.6509779095649719f, 0.08405233174562454f, 0.149156853556633f, 0.29163071513175964f, -0.03265056014060974f, 0.2578308582305908f, 0.6824516654014587f, -0.0015676538459956646f, 0.03503334894776344f, -0.06738714128732681f, 0.18626266717910767f, 0.024963628500699997f, 0.45864927768707275f, -0.20696136355400085f, 0.31655821204185486f, 0.18528524041175842f, -0.018724704161286354f, -0.2469562292098999f, -0.2146293669939041f, -0.37178152799606323f, 0.10636391490697861f, -0.18710747361183167f, 0.11874108761548996f, 0.014962831512093544f, 0.23215921223163605f, 0.17074795067310333f, 0.7221628427505493f, 0.020224416628479958f, 0.2512006461620331f, 0.15590514242649078f, 0.23551176488399506f, 0.375713050365448f, 0.1815113127231598f, 0.23919428884983063f, -0.17209665477275848f, 0.06709224730730057f, 0.09174984693527222f, 0.16423140466213226f, -0.18878991901874542f, -0.5545769333839417f, -0.3199760317802429f, 0.17675012350082397f, -0.014368654228746891f, 0.6882892847061157f, 0.4442828893661499f, 0.722420871257782f, 0.042724158614873886f, -0.2205047607421875f, 0.1997654289007187f, -0.19164176285266876f, 0.09539365023374557f, 0.06730286777019501f, -0.24992676079273224f, -0.19610103964805603f, -0.09854816645383835f, -0.007218513172119856f, 0.022795110940933228f, 0.1450182944536209f, -0.4303302466869354f, 0.23640543222427368f, 0.24894991517066956f, 4.633434772491455f, -0.2928445041179657f, 0.018420707434415817f, -0.2023620456457138f, -0.06321124732494354f, -0.22277216613292694f, 0.047309406101703644f, 0.12127462774515152f, -0.016465138643980026f, 0.758515477180481f, 0.4106088876724243f, 0.042267657816410065f, -0.27570870518684387f, 0.11659374833106995f, 0.6228553056716919f, -0.3242674469947815f, 0.26937249302864075f, -0.11379212886095047f, -0.31306979060173035f, 0.4306427240371704f, 0.23360960185527802f, 0.09394071996212006f, -0.09509382396936417f, 0.05065345764160156f, 0.2848302125930786f, -0.47824040055274963f, 0.5567033886909485f, 0.55544513463974f, 0.30923765897750854f, -0.34629082679748535f, -0.33805957436561584f, 0.4815109372138977f, -0.13166125118732452f, -0.5275790691375732f, 0.16202561557292938f, 0.550248920917511f, 0.43719571828842163f, 0.2993226945400238f, 0.38927412033081055f, -0.010613838210701942f, 0.5095770955085754f, -0.09800200909376144f, 0.2673071324825287f, 0.48417457938194275f, -0.27122896909713745f, -0.49574026465415955f, 0.4949094355106354f, 0.04070019721984863f, -0.32610177993774414f, 0.043032508343458176f, -0.21138855814933777f, -0.18739598989486694f, 0.1519317924976349f, -0.020532719790935516f, 0.4308825135231018f, -0.291083425283432f, -0.07067150622606277f, 0.5942292213439941f, -0.1343255639076233f, 0.06387025117874146f, 0.45567235350608826f, -0.26155155897140503f, -0.4726616442203522f, -0.35357481241226196f, 0.15393564105033875f, -0.2390058934688568f, 0.29610520601272583f, 0.8771494030952454f, 0.19270765781402588f, -0.12103720754384995f, -0.07554686069488525f, -0.04162976145744324f, -0.18972280621528625f, 0.07864585518836975f, 0.03779466077685356f, 0.10234390944242477f, 0.564285933971405f, -0.22631964087486267f, 0.37145864963531494f, 0.0165962316095829f, 0.06718883663415909f, -1.355090856552124f, 0.05846622586250305f, -0.5232239365577698f, -0.5648094415664673f, 0.043828923255205154f, -0.6154626607894897f, -0.004916591569781303f, 0.12364906072616577f, -0.5310952663421631f, -0.001880472875200212f, 0.22138258814811707f, -0.5157007575035095f, 0.5099371075630188f, -0.03198321908712387f, -0.25027263164520264f, -0.7517534494400024f, -0.11658642441034317f, 0.356373131275177f, -0.3723738491535187f, 0.1258736252784729f, 0.42698433995246887f, -0.2461947202682495f, 0.25995561480522156f, 0.0852699726819992f, 0.022307459264993668f, 0.48967790603637695f, 0.2835756838321686f, -0.46996238827705383f, -0.3217555284500122f } },
  { { 0.11839558929204941f, 0.16222508251667023f, 0.08649296313524246f, -0.2346334457397461f, -0.1878136843442917f, 0.023226045072078705f, 0.12708598375320435f, -0.16039811074733734f, -0.329184889793396f, 0.039737019687891006f, 0.264395147562027f, 0.11027336865663528f, -0.15357203781604767f, -0.14715567231178284f, -0.14799325168132782f, 0.10171103477478027f, 0.05867287889122963f, -0.15211191773414612f, -0.026981785893440247f, -0.020395005121827126f, 0.14192025363445282f, 0.4054638743400574f, -0.09305576235055923f, -0.14784525334835052f, -0.08805768936872482f, 0.12411191314458847f, 0.012870868667960167f, 0.12341658025979996f, -0.24040192365646362f, -0.008415418677031994f, -0.1796148121356964f, -0.05036480724811554f, 0.317893922328949f, -0.00458621047437191f, -0.303749680519104f, -0.12730176746845245f, -0.06521473824977875f, 0.06358350813388824f, 0.01103944331407547f, 0.16222383081912994f, -0.10218164324760437f, 0.103126160800457f, -0.052494242787361145f, -0.11160732805728912f, -0.3137114942073822f, 0.10826258361339569f, -0.08801879733800888f, 0.2869579493999481f, 0.1566152572631836f, 0.15074549615383148f, -0.1255582571029663f, 0.0632704496383667f, -0.1298191398382187f, 0.13747401535511017f, 0.051378801465034485f, -0.053906865417957306f, 0.23825815320014954f, 0.020276613533496857f, 0.23660387098789215f, -0.13979297876358032f, -0.15976102650165558f, -0.21636125445365906f, 0.13275770843029022f, -0.25606009364128113f, 0.09970025718212128f, 0.07419510930776596f, -0.07889402657747269f, -0.03909214958548546f, -0.18766969442367554f, 0.08070024102926254f, -0.27664080262184143f, -0.12485899776220322f, -0.02215617522597313f, -0.06128900498151779f, -0.026433633640408516f, 0.0902617946267128f, 0.06073049083352089f, -0.12061289697885513f, 0.1135239452123642f, -0.0961284264922142f, -0.14693234860897064f, -0.11634409427642822f, 2.5063376426696777f, -0.13171634078025818f, 0.17436416447162628f, -0.04950735345482826f, -0.1138952299952507f, -0.06532102078199387f, 0.14220957458019257f, -0.10685618221759796f, -0.015742259100079536f, 0.21094872057437897f, 0.006050119176506996f, -0.0828767940402031f, -0.1194419264793396f, 0.02412220649421215f, -0.08343300223350525f, -0.08166845887899399f, 0.03423147648572922f, -0.13314254581928253f, -0.2824656367301941f, 0.19344249367713928f, -0.08260298520326614f, -0.09952110797166824f, 0.024788392707705498f, 0.0369771383702755f, 0.22222906351089478f, -0.0789729580283165f, 0.026048798114061356f, -0.02025073766708374f, 0.1645774245262146f, -0.06070636212825775f, 0.04511719197034836f, -0.003927323035895824f, -0.0010281420545652509f, -0.5101469159126282f, 0.1984761357307434f, -0.020255306735634804f, 0.2436715066432953f, -0.08706177026033401f, 0.13129867613315582f, -0.20501640439033508f, 0.12061339616775513f, 0.09347914159297943f, 0.22919759154319763f, 0.15677180886268616f, -0.09605173021554947f, -0.22306878864765167f, 0.1885765939950943f, -0.2071508765220642f, -0.07987427711486816f, 0.07470396906137466f, -0.08851025253534317f, -0.09973140805959702f, 0.14524602890014648f, -0.14572741091251373f, 0.11260564625263214f, 0.16905683279037476f, -0.016681184992194176f, 0.083331398665905f, 0.09529239684343338f, -0.08987956494092941f, 0.06920166313648224f, 0.0009260201477445662f, -0.2266087830066681f, -0.25431200861930847f, 0.187156081199646f, -0.11916675418615341f, -0.13078050315380096f, -0.004135990981012583f, -0.08920688182115555f, 0.05128977447748184f, 0.04947482794523239f, 0.07892673462629318f, -0.059894055128097534f, 0.030609499663114548f, -0.06585153937339783f, 0.03957661986351013f, 0.18924181163311005f, 0.00934181921184063f, 0.1607494205236435f, 0.14028699696063995f, 0.03015843965113163f, -0.6519259214401245f, 0.14143945276737213f, -0.19554497301578522f, -0.14281874895095825f, 0.15769758820533752f, -0.7303643226623535f, 0.1462126225233078f, -0.08338818699121475f, -0.06553194671869278f, -1.8820915222167969f, -0.0699523314833641f, -0.11029629409313202f, -0.09868723899126053f, -0.19610469043254852f, -0.18392956256866455f, -0.1391948163509369f, 0.20597104728221893f, 0.025082377716898918f, -0.3804948031902313f, -0.056395191699266434f, -0.05524459108710289f, -0.14708009362220764f, 0.277864009141922f, 0.0783873051404953f, -0.15060025453567505f, 0.3497104346752167f, 0.030133463442325592f, -0.046439360827207565f, -0.24495720863342285f },
  { 0.2889566719532013f, 0.3955783247947693f, -0.01205269992351532f, -0.7078179717063904f, -0.13785089552402496f, -0.2527652978897095f, 0.16262711584568024f, 0.15261463820934296f, 0.3787304759025574f, -0.39836516976356506f, 0.3574635982513428f, 0.5146655440330505f, 0.04536488279700279f, 0.13809138536453247f, -0.4062853157520294f, -0.40996280312538147f, -0.07187581807374954f, -0.5466616749763489f, 0.241661936044693f, 0.26047173142433167f, -0.10122290998697281f, 0.3878517150878906f, 0.05199534446001053f, 0.3257392346858978f, 0.20452384650707245f, 0.02946268953382969f, -0.02001148648560047f, -0.17733599245548248f, 0.413909912109375f, -0.058208972215652466f, 0.13838772475719452f, -0.378170371055603f, 0.17836153507232666f, -0.17552050948143005f, 0.047137051820755005f, 0.06663287431001663f, -0.03337138891220093f, 0.18578746914863586f, -0.2740098834037781f, 0.2591792047023773f, -0.2585844397544861f, -0.1931249350309372f, -0.6246323585510254f, 0.7444430589675903f, -0.043457627296447754f, 0.4275166094303131f, 0.36973586678504944f, 0.2408970147371292f, 0.07167500257492065f, 0.2562451958656311f, -0.36314117908477783f, 0.2792380750179291f, -0.14766919612884521f, 0.3252384662628174f, -0.14488700032234192f, -0.4143533706665039f, -0.037422336637973785f, 0.2558446526527405f, 0.1449078917503357f, -0.07809063792228699f, -0.21399842202663422f, 0.2294631004333496f, 0.06640756875276566f, -0.43814072012901306f, -0.08716009557247162f, -0.07144072651863098f, -0.7015168070793152f, 0.009534379467368126f, -0.48854130506515503f, 0.3344186246395111f, -0.05680563673377037f, -0.08673230558633804f, -0.035574838519096375f, 0.0330500453710556f, -0.2860594093799591f, -0.2275877296924591f, -0.19751927256584167f, -0.08061078190803528f, 0.3919224739074707f, -0.5973519682884216f, 0.43274661898612976f, -0.007686205208301544f, 5.179180145263672f, 0.07811714708805084f, -0.3122953474521637f, -0.27205488085746765f, 0.11882622539997101f, 0.0038193902000784874f, -0.45357438921928406f, -0.005182943306863308f, 0.12691082060337067f, 0.38713112473487854f, -0.3507993519306183f, -0.11424731463193893f, -0.6951978802680969f, -0.6420111656188965f, 0.06732909381389618f, 0.21180278062820435f, 0.3193349838256836f, -0.8448899388313293f, -0.23876577615737915f, 0.297224760055542f, 0.023599036037921906f, -0.18109627068042755f, -0.05235261470079422f, -0.06889772415161133f, 0.5955222249031067f, -0.3725309669971466f, -0.1181093379855156f, 0.4094141721725464f, -0.026068752631545067f, -0.39917534589767456f, 0.00178679043892771f, 0.5401272177696228f, 0.02227659523487091f, -0.8290224671363831f, 0.14688518643379211f, 0.2248619943857193f, 0.15165428817272186f, -0.5879493951797485f, 0.19710859656333923f, -0.41910266876220703f, -0.11676353961229324f, -0.22915330529212952f, 0.06488071382045746f, 0.4346660077571869f, 0.3394552171230316f, -0.5437374114990234f, 0.558644711971283f, -0.418800950050354f, -0.15667398273944855f, -0.0665980875492096f, 0.014584779739379883f, -0.031957607716321945f, 0.3151884377002716f, -0.6971664428710938f, 0.13230200111865997f, 0.4876551628112793f, 0.0779077410697937f, 0.027712944895029068f, -0.1203073188662529f, 0.4334886372089386f, -0.24071909487247467f, -0.339404821395874f, 0.04050389677286148f, -0.1718118041753769f, 0.07731782644987106f, 0.07160650938749313f, 0.18189112842082977f, 0.1365349441766739f, 0.167384073138237f, -0.5416003465652466f, -0.12430724501609802f, 0.0714183896780014f, -0.07205510139465332f, 0.14165718853473663f, -0.13640554249286652f, 0.30378004908561707f, 0.0327819287776947f, -0.10044682770967484f, 0.18720661103725433f, 0.2907697558403015f, 0.08881660550832748f, -0.46502256393432617f, -0.1426612138748169f, -0.7562379837036133f, -0.188933864235878f, -0.250590980052948f, -0.99751216173172f, 0.42878225445747375f, -0.36365747451782227f, -0.4431515336036682f, -0.006853396538645029f, 0.3110073208808899f, 0.044766865670681f, -0.0376373790204525f, -0.12458033114671707f, -0.1398644745349884f, -0.6777976751327515f, 0.46316561102867126f, 0.2364027500152588f, -0.18822257220745087f, 0.20062673091888428f, 0.3650939166545868f, -0.03030361980199814f, 0.3088172972202301f, 0.1198040097951889f, 0.13242751359939575f, 0.12086624652147293f, -0.24623297154903412f, -0.07548755407333374f, 0.06677203625440598f } },
  { { 0.300593763589859f, -0.00015064574836287647f, 0.47957107424736023f, 0.20530574023723602f, -0.5947225093841553f, 0.13859710097312927f, 0.041807569563388824f, 0.05377078428864479f, 0.10726039111614227f, -0.024878012016415596f, 0.01066699530929327f, 0.43369558453559875f, 0.06666036695241928f, -0.17239660024642944f, -0.3445892035961151f, -0.5670386552810669f, -0.1448124200105667f, -0.23430009186267853f, -0.0669843852519989f, 0.19578203558921814f, 0.06445807963609695f, 0.30649709701538086f, -0.09316930919885635f, 0.019029881805181503f, 0.18926894664764404f, 0.1950780749320984f, 0.23479728400707245f, 0.07639260590076447f, 0.14364156126976013f, -0.17212161421775818f, -0.6318323612213135f, -0.3445931077003479f, 0.20810329914093018f, -0.1452692747116089f, 0.0473778061568737f, -0.04977530613541603f, 0.3764462172985077f, 0.23771405220031738f, 0.12726955115795135f, -0.25457820296287537f, -0.261772483587265f, -0.3448977768421173f, 0.013982775621116161f, 0.41643568873405457f, -0.24204708635807037f, -0.11946997046470642f, 0.47979381680488586f, 0.3713113069534302f, 0.07777468115091324f, 0.33159345388412476f, -0.2951907813549042f, -0.19367901980876923f, -0.33256301283836365f, 0.044212706387043f, 0.4127310812473297f, 0.029935484752058983f, 0.14806659519672394f, -0.34824275970458984f, 0.33892858028411865f, -0.1065848171710968f, -0.27525344491004944f, -0.05715337023139f, 0.6757054328918457f, -0.2119920551776886f, 0.45890384912490845f, 0.03426695242524147f, -0.4775729775428772f, -0.3737568259239197f, 0.03227286413311958f, -0.06510736793279648f, -0.32450512051582336f, 0.006473992485553026f, -0.06236052140593529f, -0.019056176766753197f, 0.10318763554096222f, -0.0734342709183693f, -0.14174363017082214f, 0.058683812618255615f, 0.43200957775115967f, 0.1372358649969101f, 0.22911231219768524f, -0.12129899859428406f, 3.195071220397949f, 0.2539428472518921f, -0.24421705305576324f, 0.06018664687871933f, -0.07496479898691177f, -0.6516785621643066f, 0.09082691371440887f, -0.021730853244662285f, -0.013429539278149605f, 0.11200548708438873f, 0.3002752363681793f, 0.35174110531806946f, -0.001805956126190722f, -0.6019539833068848f, 0.2888000011444092f, 0.45027199387550354f, 0.32423967123031616f, -0.36161255836486816f, -0.23253843188285828f, 0.3177574574947357f, -0.23765777051448822f, 0.3203682601451874f, 0.17182886600494385f, -0.4066911041736603f, -0.3770280182361603f, -0.29697951674461365f, 0.03433002158999443f, -0.1917838454246521f, 0.29355573654174805f, 0.058812353760004044f, 0.16185994446277618f, 0.217990905046463f, -0.05537058785557747f, -0.50335693359375f, 0.14737071096897125f, -0.29873165488243103f, 0.09991282969713211f, 0.18846984207630157f, 0.26282480359077454f, -0.29128509759902954f, 0.4621964991092682f, -0.03254060447216034f, -0.1446104794740677f, -0.008564049378037453f, 0.16686773300170898f, -0.9347288012504578f, -0.06578230112791061f, 0.03130420297384262f, -0.2681596279144287f, -0.017957571893930435f, -0.04365704953670502f, 0.06940921396017075f, -0.051342736929655075f, 0.035880714654922485f, -0.023542281240224838f, -0.23268474638462067f, 0.05555460602045059f, 0.08591180294752121f, -0.5200961828231812f, 0.2445664405822754f, 0.22505219280719757f, -0.12893737852573395f, -0.157615527510643f, 0.01988874562084675f, 0.056112177670001984f, 0.2593546509742737f, -0.44206517934799194f, 0.12432460486888885f, -0.05231551453471184f, 0.29926809668540955f, -0.04840974509716034f, 0.20357689261436462f, -0.4642287790775299f, -0.07228582352399826f, 0.04873688146471977f, 0.00025651283795014024f, 0.015675650909543037f, -0.15144671499729156f, 0.6156126856803894f, 0.08497937023639679f, 0.07133451849222183f, -0.38519617915153503f, -0.008984156884253025f, -0.7920951247215271f, -0.4957599341869354f, -0.05840538814663887f, -0.4095107316970825f, 0.38599851727485657f, -0.050308942794799805f, -0.37265744805336f, -3.028820037841797f, 0.14261187613010406f, -0.23363609611988068f, 0.33385488390922546f, -0.04483519494533539f, -0.3856067657470703f, -0.01696564257144928f, -0.32804256677627563f, 0.13251528143882751f, -0.0533733144402504f, 0.26690641045570374f, -0.11000951379537582f, -0.18281087279319763f, 0.5898529291152954f, -0.2147572636604309f, 0.16691049933433533f, -0.4501303434371948f, 0.19261325895786285f, -0.11941616982221603f, 0.11802767962217331f },
  { 0.8788288235664368f, 0.4396100640296936f, 1.0140998363494873f, -0.08352570980787277f, -0.9246600866317749f, 0.5400015711784363f, 0.3215140104293823f, 0.18687038123607635f, 0.0384298674762249f, -0.29126977920532227f, 0.008098437450826168f, 0.7247198820114136f, -0.6318672299385071f, 0.45576032996177673f, -1.4662864208221436f, -1.3926293849945068f, 0.17939507961273193f, -0.4425947070121765f, 0.033230725675821304f, -0.3753291964530945f, 0.766895055770874f, 0.4138343334197998f, 0.18409866094589233f, 0.29566359519958496f, 0.4172978103160858f, -0.25604015588760376f, -0.018717989325523376f, 0.06986161321401596f, 0.5034379363059998f, -1.0823265314102173f, 0.03615031763911247f, -0.09764072299003601f, 0.19526569545269012f, -0.26316899061203003f, 0.6514606475830078f, -0.638560950756073f, 0.21348883211612701f, 0.21040906012058258f, 0.1713493913412094f, -0.7401458024978638f, -0.7633498311042786f, -0.5004366636276245f, 0.14090469479560852f, 0.8342885375022888f, -0.5860727429389954f, -0.1800684779882431f, 0.6336659789085388f, 1.2559598684310913f, 0.023611098527908325f, 0.8146485090255737f, -0.1913379579782486f, 0.2775748670101166f, 1.2218292951583862f, 0.13760221004486084f, 0.45961785316467285f, 0.3040792942047119f, 0.49674245715141296f, 0.06197468563914299f, 0.5311537981033325f, 0.33324339985847473f, 0.13342802226543427f, -0.3411461114883423f, 0.36889374256134033f, 0.021370578557252884f, 0.3499068319797516f, -0.041662734001874924f, -0.5247465372085571f, -0.22010886669158936f, 0.6555870175361633f, 0.39161255955696106f, -0.0500042550265789f, 0.05370710417628288f, 0.24562792479991913f, -0.08851975947618484f, 0.7098263502120972f, 0.2678191363811493f, -0.055857352912425995f, 0.5629561543464661f, 0.6239480972290039f, -0.46414482593536377f, 0.17388950288295746f, -0.29975587129592896f, 3.472262382507324f, 0.914609432220459f, -0.31378939747810364f, -0.6716625094413757f, -0.21301938593387604f, -0.6106561422348022f, -0.08519984781742096f, -0.33530038595199585f, 0.02088407799601555f, 1.5907388925552368f, 0.8736857175827026f, 0.42958956956863403f, -0.18926666676998138f, -0.3599364161491394f, 1.104366660118103f, 0.3852846920490265f, 0.11827338486909866f, -0.8858481049537659f, 0.020562421530485153f, 1.1193020343780518f, 0.583080530166626f, 0.09061967581510544f, 0.3732202351093292f, -0.2242264747619629f, 0.13712069392204285f, -0.8463631272315979f, -0.127538800239563f, 0.4256659746170044f, 0.24756120145320892f, -0.06704715639352798f, -0.17007990181446075f, 0.4954405725002289f, 0.3220873475074768f, 0.3512248694896698f, 0.31676411628723145f, -0.4529867172241211f, 0.39525046944618225f, 0.4385020136833191f, 0.13162097334861755f, 0.16056066751480103f, -0.1692207008600235f, -0.47889938950538635f, -0.5168436765670776f, 0.14851383864879608f, -0.3148481845855713f, -0.7102833986282349f, -0.5293664336204529f, -0.20343314111232758f, -0.5352999567985535f, 0.09936826676130295f, -0.09377685189247131f, 0.7041376829147339f, -0.11451537907123566f, -0.35293248295783997f, -0.37234148383140564f, -0.17063821852207184f, -0.009118529036641121f, 0.6225351095199585f, -0.7382974028587341f, 1.423937439918518f, -0.2420841008424759f, -0.25483185052871704f, -0.01911945827305317f, -0.014073023572564125f, -0.3537917733192444f, -0.7490295767784119f, 0.4597330093383789f, 0.6387025117874146f, 0.6514512896537781f, -0.4493617117404938f, 0.18983148038387299f, 0.7953084707260132f, -0.6078830361366272f, -0.1506958156824112f, 0.13237127661705017f, 0.6583707332611084f, -0.28260537981987f, -1.1741750240325928f, 0.9500076174736023f, 0.7963259816169739f, -0.4672299325466156f, -0.03546121343970299f, 0.14720983803272247f, -1.4195797443389893f, -1.4958432912826538f, 0.4040853977203369f, -1.0235145092010498f, 0.8233504891395569f, -0.14318974316120148f, 0.2572985589504242f, -0.15097126364707947f, -0.12126579880714417f, -0.8392753005027771f, 0.7404554486274719f, 0.535639762878418f, -0.16927865147590637f, -0.16909202933311462f, -0.23138828575611115f, 0.41213738918304443f, 0.01273314282298088f, 0.22845913469791412f, 0.4523235261440277f, -0.8476371169090271f, 0.611443817615509f, -0.601981520652771f, 0.28002721071243286f, -0.26630234718322754f, 0.4168105125427246f, -0.11068839579820633f, 0.39208194613456726f } },
  { { 0.4606621265411377f, 0.3128311336040497f, 0.29117339849472046f, 0.18515993654727936f, -0.3714708685874939f, 0.16503676772117615f, 0.08938678354024887f, 0.08371269702911377f, -0.10778520256280899f, -0.10007256269454956f, 0.042782288044691086f, 0.299937903881073f, -0.39461594820022583f, 0.22780470550060272f, -0.6496891379356384f, -0.585487961769104f, 0.0808446854352951f, -0.20299778878688812f, -0.04244668781757355f, -0.18647873401641846f, 0.33914491534233093f, 0.18225735425949097f, 0.1297674924135208f, 0.26040205359458923f, 0.21694661676883698f, -0.07417129725217819f, -0.00758177088573575f, -0.07966858148574829f, -0.010675783269107342f, -0.26310455799102783f, 0.17991876602172852f, 0.09418968856334686f, 0.12541985511779785f, 0.06951415538787842f, 0.12658536434173584f, -0.47877025604248047f, -0.06033280864357948f, 0.03703796863555908f, -0.008566263131797314f, -0.33377256989479065f, -0.33075034618377686f, -0.3940317630767822f, 0.06363313645124435f, 0.2946229577064514f, -0.21518872678279877f, -0.03261777013540268f, -0.08740904182195663f, 0.6782962679862976f, 0.005804598797112703f, 0.1641181856393814f, -0.32833147048950195f, 0.051805973052978516f, 0.5012878775596619f, -0.1521725207567215f, 0.09196652472019196f, 0.13196758925914764f, 0.3795301914215088f, 0.19178639352321625f, 0.25194042921066284f, 0.0752878338098526f, -0.1307845264673233f, -0.023194437846541405f, 0.173579141497612f, 0.04920903593301773f, -0.12809494137763977f, -0.03599182143807411f, -0.2911749482154846f, -0.1289813071489334f, 0.23996146023273468f, 0.2330332100391388f, -0.005766171962022781f, -0.10257749259471893f, -0.04107605293393135f, 0.1866685301065445f, 0.28905317187309265f, 0.1183864176273346f, 0.1502435952425003f, 0.23159147799015045f, 0.34392786026000977f, -0.3330601453781128f, 0.012812475673854351f, -0.14101092517375946f, 2.0212161540985107f, 0.4890640079975128f, -0.12928901612758636f, -0.17313919961452484f, -0.23787054419517517f, -0.3081347644329071f, -0.07820326834917068f, -0.10185699909925461f, 0.24037733674049377f, 0.6746354103088379f, 0.36496198177337646f, 0.153695210814476f, -0.017339292913675308f, -0.1766510158777237f, 0.27087149024009705f, 0.20681117475032806f, 0.05657264590263367f, -0.5639767646789551f, -0.2164539396762848f, 0.49041056632995605f, 0.2761474549770355f, -0.030400212854146957f, 0.021943913772702217f, -0.10739675909280777f, 0.5573351383209229f, -0.17372603714466095f, -0.2664482593536377f, 0.04891838878393173f, 0.3339155614376068f, -0.09395474940538406f, 0.022739265114068985f, 0.20717567205429077f, 0.11880037188529968f, -0.5113943219184875f, 0.29094788432121277f, -0.21991299092769623f, 0.3593909442424774f, 0.13696828484535217f, 0.09500662237405777f, -0.002919366816058755f, -0.1649707853794098f, 0.00429905578494072f, -0.05129903927445412f, -0.013631496578454971f, -0.07765201479196548f, -0.20751053094863892f, 0.027696529403328896f, -0.33806926012039185f, -0.0706566795706749f, 0.018743207678198814f, -0.1369960904121399f, 0.41424626111984253f, -0.08271512389183044f, -0.7024883031845093f, -0.20093832910060883f, 0.05095947906374931f, -0.18662862479686737f, 0.23946775496006012f, -0.4179156720638275f, 0.4450172483921051f, -0.028079446405172348f, -0.14542409777641296f, -0.1325947493314743f, -0.05310569703578949f, -0.011365166865289211f, -0.34676221013069153f, 0.07516586780548096f, 0.24718782305717468f, 0.07377718389034271f, -0.20050561428070068f, 0.051690973341464996f, 0.3308551013469696f, -0.4154443144798279f, -0.25495675206184387f, -0.03546356037259102f, 0.5248570442199707f, -0.2283151000738144f, -0.4970255196094513f, 0.3513987958431244f, 0.29712891578674316f, -0.2706611752510071f, 0.710891842842102f, -0.10929501801729202f, -0.7278115153312683f, -0.5348665714263916f, 0.11982571333646774f, -0.784142792224884f, 0.38621658086776733f, -0.4306536912918091f, 0.021336987614631653f, -1.4342501163482666f, -0.17941422760486603f, -0.2345626950263977f, 0.25619208812713623f, 0.138179749250412f, -0.13449327647686005f, -0.13003408908843994f, -0.25361016392707825f, 0.17508140206336975f, -0.12658634781837463f, 0.10933820903301239f, 0.11153077334165573f, -0.10020128637552261f, 0.376797080039978f, -0.1771174818277359f, 0.14041633903980255f, -0.4824291467666626f, 0.18696284294128418f, -0.0328364335000515f, 0.12545788288116455f },
  { 0.36081695556640625f, 0.7235391736030579f, 0.5794368386268616f, -0.08756449073553085f, -0.25189587473869324f, -0.27895015478134155f, 0.25768744945526123f, -0.5926066040992737f, -0.23551157116889954f, -0.08014744520187378f, 0.04404894635081291f, 0.4953281581401825f, -0.6087283492088318f, 1.005651831626892f, -1.2719604969024658f, -0.7252665162086487f, 0.25876349210739136f, -0.7077187895774841f, -0.16598308086395264f, -0.5064507722854614f, 0.2533873915672302f, 0.6958375573158264f, 0.6858749389648438f, 0.71110600233078f, 0.31924134492874146f, -0.17936912178993225f, -0.2941657602787018f, -0.2831679582595825f, 0.34782665967941284f, -0.22449752688407898f, 0.609100878238678f, 0.04564543068408966f, 0.42443573474884033f, -0.08188218623399734f, 0.6525564789772034f, -0.5882671475410461f, 0.07893615961074829f, -0.22445456683635712f, -0.08570753037929535f, -0.5290777683258057f, -0.7091227173805237f, -0.34623467922210693f, -0.21385349333286285f, 0.656711220741272f, -0.43754661083221436f, 0.1327599138021469f, 0.31000638008117676f, 0.4310333728790283f, -0.3859347701072693f, 0.5818790197372437f, -0.3246908485889435f, 0.12548643350601196f, 0.6365366578102112f, -0.4041401743888855f, -0.2489526867866516f, -0.13129471242427826f, 0.44864150881767273f, 0.24084019660949707f, 0.34391066431999207f, -0.03706612437963486f, -0.2373552769422531f, -0.14840780198574066f, 0.16093651950359344f, -0.0885782241821289f, -0.18545575439929962f, 0.12541645765304565f, -1.1829936504364014f, -0.2918199896812439f, 0.6239060759544373f, 0.5527694225311279f, 0.12999145686626434f, -0.09752889722585678f, 0.015005505643785f, 0.06675021350383759f, 0.7983875870704651f, 0.29511070251464844f, 0.32305124402046204f, 0.6502853631973267f, 0.4429471790790558f, -0.7590923309326172f, -0.22051620483398438f, -0.16555681824684143f, 2.8323230743408203f, 0.7118588089942932f, -0.1785636693239212f, -0.6700601577758789f, -0.2491014301776886f, -0.3029969334602356f, -0.3141363263130188f, 0.0901327058672905f, 0.35536131262779236f, 1.0242863893508911f, 0.3262229263782501f, 0.048442598432302475f, -0.29745054244995117f, 0.12932901084423065f, 1.008157730102539f, 0.07061456143856049f, 0.4100631773471832f, -0.9503803253173828f, -0.06105225160717964f, 0.9981078505516052f, 0.38898736238479614f, -0.2845955789089203f, 0.16104242205619812f, -0.3228166699409485f, 0.5682339072227478f, -0.4008549749851227f, -0.38817980885505676f, 0.2274537980556488f, 0.17608532309532166f, -0.02291330136358738f, -0.2324579507112503f, 0.01298920251429081f, 0.4215660095214844f, -1.0180104970932007f, 0.6411497592926025f, -0.02654195763170719f, 0.4640129506587982f, 0.33640041947364807f, 0.3178829550743103f, 0.12747418880462646f, -0.34075456857681274f, -0.11169034987688065f, 0.12793786823749542f, -0.3629496097564697f, 0.026379313319921494f, -0.4932902753353119f, -0.1159420907497406f, -0.3198140561580658f, -0.043749984353780746f, -0.15616245567798615f, -0.08028390258550644f, 1.035378098487854f, -0.13186727464199066f, -1.3063453435897827f, -0.28144243359565735f, 0.10396431386470795f, -0.2109857052564621f, 0.6471492648124695f, -0.5058203339576721f, 1.5370582342147827f, -0.5623994469642639f, -0.619815468788147f, 0.48919782042503357f, 0.02037959173321724f, 0.08180287480354309f, -0.9937058687210083f, 0.734752357006073f, 0.32988670468330383f, 0.1266578584909439f, -0.779859721660614f, -0.20281951129436493f, 0.7313268184661865f, -0.5251164436340332f, -0.2634361684322357f, 0.4277033805847168f, 0.9091013073921204f, -0.25196129083633423f, -0.9934574961662292f, 0.26987192034721375f, 0.2803440988063812f, -0.41889476776123047f, 0.8077242970466614f, -0.2750164270401001f, -0.7526536583900452f, -1.0395582914352417f, 0.17732791602611542f, -0.616269052028656f, 0.27826446294784546f, -0.911151111125946f, 0.07542985677719116f, -1.7947362661361694f, -0.1986464560031891f, -0.3188558518886566f, 0.8370888233184814f, 0.2540348172187805f, 0.09975502640008926f, -0.3677363693714142f, -0.0288833174854517f, 0.372114896774292f, 0.012779797427356243f, 0.08285578340291977f, 0.14231052994728088f, -0.40141546726226807f, 0.601329505443573f, -0.0020892114844173193f, 0.6380401253700256f, -0.6848821640014648f, -0.2591783404350281f, 0.23103028535842896f, 0.5654977560043335f } },
  { { 0.1879810094833374f, 0.5019086599349976f, 0.6067735552787781f, 0.15489187836647034f, -0.2936440408229828f, -0.14992180466651917f, 0.4620804488658905f, -0.5540773868560791f, 0.203046977519989f, -0.11349154263734818f, 0.17677152156829834f, 0.31109949946403503f, -0.4914417564868927f, 0.7678977847099304f, -0.8226707577705383f, -0.786392331123352f, -0.21328143775463104f, -0.4978315532207489f, -0.06097672879695892f, -0.03469320014119148f, 0.1211009994149208f, 0.3773570954799652f, 0.10581141710281372f, 0.4937327802181244f, 0.23080050945281982f, -0.24310079216957092f, -0.21708707511425018f, 0.27468520402908325f, 0.11199454218149185f, -0.05220756307244301f, 0.2643074095249176f, -0.03416949138045311f, 0.21535824239253998f, -0.20973137021064758f, 0.31060126423835754f, -0.3524349629878998f, 0.09581676870584488f, 0.17849750816822052f, 0.2971227169036865f, -0.25876617431640625f, -0.5597484707832336f, 0.09295730292797089f, -0.11735166609287262f, 0.4229534864425659f, -0.21271343529224396f, 0.3118608593940735f, 0.2441398650407791f, 0.32312655448913574f, -0.5511517524719238f, 0.548803448677063f, -0.19942322373390198f, -0.23826822638511658f, 0.1636737734079361f, 0.06333141028881073f, -0.02638108842074871f, -0.18185119330883026f, 0.36701345443725586f, 0.0033008111640810966f, 0.11440704017877579f, -0.16857142746448517f, -0.18808956444263458f, -0.07700514793395996f, -0.16952766478061676f, -0.06313861161470413f, 0.2621033191680908f, 0.03813846781849861f, -0.8459793925285339f, 0.02908390201628208f, 0.6857070326805115f, 0.2928222715854645f, 0.04366855323314667f, 0.07099247723817825f, -0.20947694778442383f, 0.029057100415229797f, 0.5658098459243774f, -0.16810552775859833f, 0.07514622807502747f, 0.24766109883785248f, 0.6687986850738525f, -0.3403082489967346f, 0.07690763473510742f, -0.25761550664901733f, 2.460911750793457f, 0.42623409628868103f, -0.11749149858951569f, -0.38094526529312134f, -0.1283937692642212f, -0.17993225157260895f, -0.009113356471061707f, 0.07792118191719055f, -0.06170541048049927f, 0.2459089308977127f, 0.23673897981643677f, 0.3161800801753998f, -0.25978007912635803f, -0.13943393528461456f, 0.6978132724761963f, 0.19811588525772095f, 0.07943646609783173f, -0.8561804890632629f, -0.09693798422813416f, 0.7452511787414551f, -0.0280046034604311f, -0.2986280024051666f, 0.4283481240272522f, -0.3745628297328949f, 0.32890015840530396f, -0.2537139058113098f, 0.09309959411621094f, 0.09329220652580261f, 0.28508463501930237f, -0.043246716260910034f, -0.07500354200601578f, -0.1993657648563385f, 0.24536143243312836f, -1.0375908613204956f, 0.38937118649482727f, -0.4018435776233673f, 0.37413761019706726f, 0.37247544527053833f, -0.0031455650459975004f, 0.17478394508361816f, 0.07526414096355438f, -0.39750030636787415f, -0.06559152156114578f, -0.05921489745378494f, -0.015919772908091545f, -0.04828934371471405f, 0.051655370742082596f, -0.3927331268787384f, -0.0687284842133522f, -0.0956602543592453f, 0.2586933672428131f, 0.9091380834579468f, -0.2050243765115738f, -0.9199290871620178f, -0.4623347520828247f, -0.24280689656734467f, 0.04230133071541786f, 0.6914399266242981f, -0.34930333495140076f, 0.5909855365753174f, -0.29567286372184753f, -0.6122896671295166f, -0.06043713912367821f, -0.36262303590774536f, -0.22014614939689636f, -0.40425580739974976f, 0.06045409291982651f, 0.053322866559028625f, -0.0955938845872879f, -0.14526057243347168f, 0.04588724300265312f, 0.3871433436870575f, -0.5007360577583313f, -0.2684236168861389f, 0.4796694219112396f, 0.3897493779659271f, -0.3516082763671875f, -0.8565240502357483f, 0.3664382994174957f, 0.03022725321352482f, -0.12704910337924957f, 2.611501455307007f, 0.05157345160841942f, -0.41943812370300293f, -0.38550978899002075f, 0.1967972069978714f, -0.40807703137397766f, 0.03602450713515282f, -0.47234001755714417f, -0.16159717738628387f, -2.363149881362915f, 0.05901172012090683f, -0.2605186402797699f, 0.7385342121124268f, 0.27073630690574646f, -0.28296512365341187f, -0.1845504343509674f, 0.08209560811519623f, 0.27145782113075256f, 0.15863783657550812f, -0.08002399653196335f, 0.24627435207366943f, -0.06814932823181152f, 0.4622875452041626f, -0.11973617970943451f, 0.5997236371040344f, -1.1539039611816406f, -0.46778544783592224f, 0.11562075465917587f, 0.3215409219264984f },
  { -1.1750304698944092f, 4.0932793617248535f, 6.920344829559326f, -0.1836410015821457f, 2.7945423126220703f, 0.7746866345405579f, 1.456796407699585f, 3.4710538387298584f, 3.497053384780884f, -0.11389674246311188f, -1.8973244428634644f, 1.9655494689941406f, 3.2983076572418213f, -3.136579990386963f, 3.3607022762298584f, 0.6829538941383362f, 0.4189932644367218f, 0.5225894451141357f, 0.6734462380409241f, -0.9208649396896362f, 6.661161422729492f, -1.258270025253296f, -0.2862531840801239f, -0.4181833863258362f, 1.9461219310760498f, 1.826206922531128f, -2.2943570613861084f, 2.623621702194214f, -0.7610505819320679f, 0.28801143169403076f, 2.7643537521362305f, -0.06414075195789337f, 3.519904136657715f, -2.3759572505950928f, 3.824892044067383f, -0.331307053565979f, 3.0992472171783447f, 4.42464542388916f, 1.2777622938156128f, 0.7354774475097656f, 3.29260516166687f, 2.752551317214966f, -1.952992558479309f, 2.4954030513763428f, -0.2093002051115036f, 2.321112871170044f, 3.8371450901031494f, 5.325395584106445f, 2.4819624423980713f, 2.8727288246154785f, 5.910808086395264f, -1.8171626329421997f, 3.2146682739257812f, 2.75791597366333f, 3.2304139137268066f, 4.11614990234375f, -2.011317014694214f, 0.417363703250885f, -1.4302784204483032f, -1.0302155017852783f, 0.9104344248771667f, -1.2782148122787476f, -1.439136266708374f, 1.838309645652771f, -1.1011253595352173f, 1.7840473651885986f, 6.301851272583008f, 2.9107449054718018f, 2.8328425884246826f, 3.7906577587127686f, 4.9286909103393555f, 0.48709580302238464f, 2.710063934326172f, -0.19481176137924194f, 6.314194679260254f, 1.2600983381271362f, 0.9410408139228821f, -0.45821458101272583f, 5.007376670837402f, 2.091823101043701f, 0.5838500261306763f, 0.8660601377487183f, 1.9492857456207275f, 1.7616522312164307f, 0.6504970192909241f, -2.61698579788208f, 1.9509038925170898f, 1.760719656944275f, 2.3885655403137207f, 3.132775068283081f, -1.5800029039382935f, 3.8577094078063965f, 2.2481532096862793f, -0.7877566814422607f, 2.8254830837249756f, 0.26217120885849f, 3.8570749759674072f, 2.9438316822052f, 2.184093713760376f, 0.28136536478996277f, -2.1969408988952637f, 4.933326721191406f, 4.817233562469482f, 0.20148272812366486f, 6.209344387054443f, -1.3157716989517212f, -2.5099992752075195f, 0.7429085969924927f, 2.648160934448242f, 0.8699347972869873f, 0.5733056664466858f, 1.2141894102096558f, -3.039262056350708f, -0.07143642753362656f, 5.654225826263428f, 9.197324752807617f, -1.357478380203247f, -0.9102917313575745f, -0.22042705118656158f, 2.9131381511688232f, 0.7420158982276917f, 2.74403977394104f, 1.205614686012268f, -1.2548543214797974f, -2.886457920074463f, -0.3065323829650879f, 3.3382620811462402f, -1.2218252420425415f, 3.061160087585449f, 0.6525181531906128f, 2.2013957500457764f, -3.487661123275757f, 0.6835141181945801f, 5.021510601043701f, 1.4236270189285278f, 5.180366516113281f, -3.5623152256011963f, 2.2300121784210205f, 1.6942870616912842f, 5.313416004180908f, -0.01504979096353054f, -0.4411051273345947f, -2.6256632804870605f, -2.3940606117248535f, -0.13662655651569366f, -1.755123257637024f, -1.2237000465393066f, 4.810194969177246f, -0.8520674705505371f, 1.8438061475753784f, 1.8292170763015747f, -2.833857297897339f, 2.5869760513305664f, 5.099335193634033f, -0.26721760630607605f, 2.3541769981384277f, -0.23383411765098572f, 2.3404903411865234f, 0.7368083596229553f, -0.11448143422603607f, 5.95224666595459f, 2.030026912689209f, 1.9900281429290771f, 3.410166025161743f, 5.319180965423584f, 0.556652843952179f, -0.561127781867981f, -0.3339064121246338f, 2.0373423099517822f, 3.529298782348633f, 5.8539018630981445f, -0.5367668271064758f, -2.6978304386138916f, 1.3183828592300415f, 1.7231788635253906f, -0.8243021965026855f, 4.096651077270508f, 0.8328539133071899f, 1.2181612253189087f, 3.0843043327331543f, 3.0112249851226807f, 2.665339946746826f, -1.03848135471344f, 2.0590474605560303f, 1.6822001934051514f, 2.1212217807769775f, 1.9279975891113281f, 5.863422393798828f, 5.210848331451416f, -0.8644969463348389f, 3.0876574516296387f, 0.0012874925741925836f } },
  { { 0.19256439805030823f, 0.6199407577514648f, 0.5595887899398804f, 0.39029839634895325f, -0.36628860235214233f, -0.0196749959141016f, 0.33049869537353516f, -0.1977469027042389f, -0.03987089544534683f, -0.30873942375183105f, 0.4856263995170593f, 0.018028108403086662f, -0.44749653339385986f, 1.2229115962982178f, -1.1031159162521362f, -0.7195979356765747f, -0.09099861979484558f, -0.4395216107368469f, -0.4113992750644684f, -0.12431011348962784f, 0.11242495477199554f, 0.5840798616409302f, 0.5677050948143005f, 0.5624526739120483f, 0.37142136693000793f, -0.5652188062667847f, -0.2442239373922348f, 0.13388463854789734f, 0.09301193058490753f, 0.29733017086982727f, 0.6645083427429199f, 0.22163762152194977f, -0.169230654835701f, -0.2960812449455261f, -0.12816371023654938f, -0.3809787929058075f, -0.12161403894424438f, 0.048992451280355453f, 0.29598113894462585f, -0.24738742411136627f, -1.171790599822998f, -0.18040744960308075f, 0.3032841980457306f, 0.3356762230396271f, -0.10328133404254913f, 0.37842196226119995f, 0.2997399866580963f, 0.33047229051589966f, -0.33839377760887146f, 0.13257373869419098f, -0.32471635937690735f, -0.11341321468353271f, 0.3318462669849396f, -0.20370163023471832f, -0.30746665596961975f, -0.3676995635032654f, 0.8010867238044739f, 0.061499595642089844f, 0.4653511345386505f, -0.14537593722343445f, -0.41847413778305054f, -0.14940349757671356f, -0.25550612807273865f, -0.1436437964439392f, -0.23156027495861053f, 0.35013338923454285f, -1.0506134033203125f, 0.05284183472394943f, 0.45328110456466675f, -0.13084976375102997f, 0.02879348397254944f, -0.28331097960472107f, -0.2508513927459717f, 0.31566542387008667f, 0.48049208521842957f, 0.1976289451122284f, 0.16301631927490234f, -0.07012670487165451f, 0.6359753608703613f, -0.38076820969581604f, -0.03495572879910469f, -0.39256805181503296f, 2.838728666305542f, 0.40868139266967773f, 0.06861790269613266f, -0.2896812856197357f, -0.09493006765842438f, 0.1669345498085022f, -0.01630818098783493f, -0.033185672014951706f, 0.6496555209159851f, 0.16136452555656433f, 0.12972083687782288f, 0.11251141875982285f, -0.44906672835350037f, 0.11805228143930435f, 0.7249606251716614f, 0.2633408308029175f, 0.12473058700561523f, -0.5964186787605286f, -0.268265038728714f, 0.4181005656719208f, 0.2261923849582672f, -0.2419312745332718f, -0.0570114329457283f, -0.002667300635948777f, 0.6817439794540405f, -0.26940518617630005f, -0.10763915628194809f, -0.47407200932502747f, 0.3003315329551697f, -0.09078327566385269f, 0.1832214593887329f, -0.06680326163768768f, 0.35448527336120605f, -2.4965877532958984f, 0.801803469657898f, -0.6404348015785217f, 0.3171209394931793f, 0.04661858454346657f, 0.046148329973220825f, 0.3196776509284973f, -0.0036861689295619726f, -0.32732871174812317f, -0.31344306468963623f, -0.03296581655740738f, -0.07859742641448975f, 0.2432858794927597f, -0.23480793833732605f, -0.5954700112342834f, 0.5047941207885742f, -0.20412132143974304f, 0.28552863001823425f, 1.429591178894043f, -0.2594003677368164f, -1.489114761352539f, -0.40941181778907776f, -0.2339339703321457f, -0.3311022222042084f, 0.48007410764694214f, -0.2572479546070099f, 1.0220873355865479f, -0.35621997714042664f, -0.40966299176216125f, -0.055811043828725815f, 0.08414299041032791f, -0.14148500561714172f, -0.5365495085716248f, 0.4409242868423462f, 0.39249709248542786f, -0.43248075246810913f, 0.1209678128361702f, 0.01523368339985609f, 0.5001778602600098f, -0.4056255519390106f, -0.20358861982822418f, 0.8486600518226624f, 0.7447990775108337f, -0.39035871624946594f, -0.7074624300003052f, 0.12779195606708527f, -0.044678300619125366f, 0.08137687295675278f, 8.06174087524414f, 0.0653318241238594f, -0.12824760377407074f, -0.37916937470436096f, 0.22683952748775482f, -0.7102133631706238f, 0.26430872082710266f, -1.1143074035644531f, -0.07467599958181381f, -1.9746989011764526f, -0.12244768440723419f, -0.5242269039154053f, 1.3809847831726074f, 0.22323638200759888f, -0.5691239237785339f, 0.03928022459149361f, -0.569618821144104f, 0.38667604327201843f, 0.1599157452583313f, 0.14740657806396484f, -0.281078577041626f, -0.15294276177883148f, 0.4500553607940674f, 0.35118648409843445f, 0.4594755172729492f, -1.7430864572525024f, -0.7841103076934814f, 0.26250794529914856f, -0.11652709543704987f },
  { -0.08204077184200287f, 1.4200176000595093f, 1.8336678743362427f, 0.3024914264678955f, 0.0367240272462368f, -0.5140475630760193f, 0.5274494886398315f, 0.6809351444244385f, -0.07924908399581909f, -0.8759284615516663f, 0.43480798602104187f, 0.7804279327392578f, -0.9692032933235168f, 1.5001283884048462f, -1.2363624572753906f, -0.11507982760667801f, -0.029975982382893562f, -0.12874889373779297f, -0.743091344833374f, -0.44259634613990784f, 1.2580617666244507f, -0.06318860501050949f, 0.9921955466270447f, -0.21566267311573029f, 1.5677340030670166f, -0.9486618638038635f, -1.3332751989364624f, 0.7216418981552124f, -0.3590341806411743f, -0.07825664430856705f, 1.3259544372558594f, 0.5463119745254517f, 0.6609672904014587f, -1.195081353187561f, 0.07831214368343353f, -0.7786881923675537f, 0.1641257107257843f, 0.31769490242004395f, 0.7951050400733948f, 0.03067677840590477f, -0.3812393844127655f, 0.3174731135368347f, -0.5491775870323181f, -0.18901626765727997f, -0.3918311893939972f, 0.7222490310668945f, 1.1864752769470215f, 0.9609270095825195f, 0.09307604283094406f, 0.15623964369297028f, 0.20890304446220398f, -0.27124732732772827f, 0.24916818737983704f, 0.09810955077409744f, -1.3187146186828613f, -0.3462652862071991f, 0.8086751699447632f, 1.1075576543807983f, 0.38002946972846985f, -0.9615738987922668f, -0.371087908744812f, -0.5920695662498474f, -1.1219160556793213f, 0.01821252331137657f, -0.3872983157634735f, 1.0793277025222778f, -0.2262992113828659f, 0.06659165024757385f, 1.0486183166503906f, -0.21262837946414948f, 0.3998327851295471f, -0.17776593565940857f, -0.2902432680130005f, -0.28540125489234924f, 2.2841875553131104f, 0.3060457408428192f, 0.5002609491348267f, -0.5356410145759583f, 0.6623806357383728f, -0.6551992893218994f, 0.10021475702524185f, -1.175210952758789f, -0.12035498768091202f, 0.102055624127388f, 0.35732775926589966f, -0.40515831112861633f, 0.1994362622499466f, 0.7560092210769653f, 0.17710994184017181f, 0.26692667603492737f, 0.7789250016212463f, 1.429612636566162f, 0.06332527846097946f, -0.10762044042348862f, 0.09440292418003082f, 0.3518109619617462f, 1.3614422082901f, 0.5979821681976318f, 0.5839536190032959f, -1.8799413442611694f, -0.18426716327667236f, 1.0165249109268188f, 0.32592707872390747f, -0.12892302870750427f, 0.9146503210067749f, -0.13830333948135376f, 0.8335397839546204f, -0.13062019646167755f, 0.3109239339828491f, -1.1114681959152222f, 0.014315281994640827f, 0.23877038061618805f, -0.6782070994377136f, -0.09209026396274567f, 0.6889440417289734f, -0.9085885882377625f, 1.0074387788772583f, -0.21032696962356567f, 1.1554468870162964f, 0.12381044775247574f, -0.9077091217041016f, 0.8546369671821594f, -0.37300318479537964f, 0.009358626790344715f, -1.0832730531692505f, -0.6961724758148193f, 1.1486610174179077f, -1.3259353637695312f, -0.42252302169799805f, -0.2868340015411377f, 0.9731755256652832f, -0.9792763590812683f, 0.16660653054714203f, 2.7295150756835938f, -0.29497095942497253f, -1.7194468975067139f, -0.4376221001148224f, -0.4047437012195587f, -0.26915162801742554f, 2.3091444969177246f, -0.17367622256278992f, 1.9712109565734863f, -1.101538062095642f, -0.12506593763828278f, -0.2965845763683319f, 0.05922137200832367f, 0.30747953057289124f, -0.058481365442276f, -0.06479892879724503f, 0.943809449672699f, -0.4858796000480652f, -1.0095462799072266f, 0.027275225147604942f, 1.6711047887802124f, -1.0666452646255493f, 0.20677705109119415f, 1.4252983331680298f, -0.0224639680236578f, -0.80708909034729f, -0.7671700716018677f, 1.4331309795379639f, -0.6640554070472717f, 0.73727947473526f, 5.103767395019531f, 1.3088726997375488f, -0.5618453621864319f, -0.3699663579463959f, -0.39559945464134216f, -0.7294921875f, 0.7378597855567932f, -0.7865856885910034f, -0.2579247057437897f, -0.15854349732398987f, -0.16971856355667114f, -0.5109574794769287f, 1.2822513580322266f, 0.3499215543270111f, -1.2699910402297974f, 1.057708978652954f, 0.32493871450424194f, 0.8593334555625916f, 0.44093289971351624f, 0.5425308346748352f, -0.0017947477754205465f, -0.1656556874513626f, 0.11757214367389679f, 0.9756750464439392f, 2.2152533531188965f, -1.592111349105835f, -1.887934684753418f, 1.2435258626937866f, 0.5382247567176819f } },
  { { -0.008160705678164959f, 0.37034639716148376f, 0.907392144203186f, 0.32590368390083313f, 0.20408742129802704f, -0.04940421134233475f, 0.18369698524475098f, -0.22466634213924408f, -0.0610780194401741f, -0.45886847376823425f, 0.011606670916080475f, 0.3868768513202667f, -0.5045754313468933f, 0.7256737947463989f, -0.4340432286262512f, -0.17670586705207825f, 0.14720632135868073f, -0.44116735458374023f, -0.29269182682037354f, -0.29946887493133545f, 0.7113556861877441f, -0.13233225047588348f, 0.32814347743988037f, 0.06373711675405502f, 0.7015489339828491f, -0.24573948979377747f, -0.27794960141181946f, 0.31297022104263306f, -0.233429953455925f, 0.2838488221168518f, 0.647041916847229f, -0.025293176993727684f, 0.17060455679893494f, -0.22002005577087402f, 0.2943625748157501f, -0.1933298408985138f, 0.14874719083309174f, -0.07113969326019287f, -0.006554183084517717f, -0.27737662196159363f, -0.4368347227573395f, 0.13195596635341644f, 0.074332594871521f, -0.032198820263147354f, -0.06187273561954498f, 0.2216959446668625f, 0.594268262386322f, 0.6270266175270081f, -0.030108537524938583f, -0.33799225091934204f, -0.06052393466234207f, 0.025092557072639465f, 0.04734085127711296f, 0.08998105674982071f, -0.4974637031555176f, 0.208290696144104f, 0.006938080303370953f, 0.05119720846414566f, 0.4695013165473938f, -0.4656413495540619f, -0.07747893035411835f, -0.3373056948184967f, -0.8542611002922058f, 0.1585748940706253f, -0.24759560823440552f, 0.7369847893714905f, 0.28124934434890747f, 0.308104008436203f, 0.37575748562812805f, -0.1508939117193222f, -0.08562947064638138f, 0.252028226852417f, -0.4523789882659912f, -0.03333011269569397f, 0.9394087791442871f, 0.1279343217611313f, 0.3146551251411438f, -0.4077829420566559f, 0.5854704976081848f, -0.1541723608970642f, -0.012275920249521732f, -0.32677873969078064f, 1.6437138319015503f, -0.00915466994047165f, -0.09629549831151962f, -0.12759938836097717f, 0.014803626574575901f, 0.5549811720848083f, 0.016961682587862015f, -0.15180084109306335f, 0.16572554409503937f, -0.126961812376976f, -0.1616518795490265f, 0.003564784536138177f, -0.20157502591609955f, 0.008220072835683823f, 0.35033565759658813f, 0.1901225596666336f, 0.2464406043291092f, -1.0219594240188599f, -0.5895107984542847f, 0.5657151341438293f, 0.25074470043182373f, -0.22246544063091278f, 0.7052493095397949f, -0.31518667936325073f, 0.2647989094257355f, -0.027142085134983063f, 0.18940548598766327f, -0.8848691582679749f, 0.2862430214881897f, 0.019323507323861122f, -0.3667820990085602f, -0.1808236837387085f, -0.031033596023917198f, -1.6963939666748047f, 0.5680589079856873f, -0.01598919928073883f, 0.3859986662864685f, -0.2715415358543396f, -0.45790261030197144f, 0.21174441277980804f, -0.29360702633857727f, -0.3969636559486389f, -0.39131149649620056f, -0.28295817971229553f, 0.15576840937137604f, -0.4201015830039978f, -0.004291916266083717f, -0.18647998571395874f, 0.20104604959487915f, -0.3593922257423401f, 0.18209978938102722f, 1.1208314895629883f, 0.005735622253268957f, -0.8337250351905823f, -0.21367371082305908f, -0.4793420135974884f, -0.2767834961414337f, 1.0006134510040283f, 0.012352620251476765f, 0.23074305057525635f, -0.6730902791023254f, -0.4843901991844177f, -0.28319740295410156f, -0.20324556529521942f, -0.20611929893493652f, -0.08003977686166763f, -0.1696280986070633f, 0.44979655742645264f, -0.4234415590763092f, -0.1681123822927475f, 0.02403230592608452f, 0.8361255526542664f, -0.4848037660121918f, -0.30837270617485046f, 0.7297887206077576f, 0.15230852365493774f, -0.544876217842102f, -0.48625877499580383f, 0.4181098937988281f, -0.3291979432106018f, 0.1440832018852234f, 13.420761108398438f, 0.5997298955917358f, -0.1756017953157425f, 0.016475850716233253f, -0.3123675286769867f, -0.3224159777164459f, 0.18990328907966614f, -0.4723522365093231f, -0.3933383822441101f, -0.7450808882713318f, -0.19007080793380737f, -0.37475502490997314f, 0.6811808943748474f, -0.10648291558027267f, -0.7774457335472107f, 0.3756612539291382f, -0.05859837308526039f, 0.25191575288772583f, 0.2729470729827881f, -0.04063877463340759f, -0.2031562328338623f, -0.1417407989501953f, -0.10734278708696365f, 0.34905141592025757f, 0.5549484491348267f, -1.1395392417907715f, -0.7759604454040527f, 0.6815299987792969f, -0.16607323288917542f },
