#pragma once

#include <cstddef>
#include <cstdint>

const size_t patch_embed_bias_array_shape[1] = { 192 };
float patch_embed_bias_array[192] = { 1.6589939594268799f, -0.03530910611152649f, 0.4766205847263336f, 0.20197662711143494f, -0.9379123449325562f, 0.29253530502319336f, 0.13363389670848846f, -0.47077715396881104f, 0.10721069574356079f, -1.9149949550628662f, 0.14465533196926117f, -0.20955444872379303f, 0.03367055952548981f, -0.18252189457416534f, -1.0167508125305176f, -0.7609237432479858f, 1.1967835426330566f, -0.3364575207233429f, -0.4049561619758606f, 0.0034930179826915264f, -0.10262399911880493f, 0.1988605111837387f, 0.5358874201774597f, 0.05440245568752289f, 0.37825489044189453f, 0.38961732387542725f, -0.5829141139984131f, -0.759644627571106f, -0.7150316834449768f, 0.3302313983440399f, -0.2026589810848236f, 0.388670951128006f, 1.674432635307312f, 0.6203588843345642f, -0.015356317162513733f, 0.16608712077140808f, -0.7336407899856567f, -0.2008344531059265f, 0.24820595979690552f, 0.21489647030830383f, -0.20389658212661743f, -0.10243956744670868f, -0.24850107729434967f, 0.06072529777884483f, 0.3931354880332947f, 0.15168017148971558f, 0.4707707166671753f, -0.29713913798332214f, 0.21230840682983398f, 0.3192439079284668f, 1.9769246578216553f, -0.38251787424087524f, 0.019744671881198883f, -0.244744673371315f, 1.5236257314682007f, -0.13959522545337677f, 0.4398503005504608f, -0.0733424499630928f, -0.9925105571746826f, -0.6198754906654358f, -0.7113193869590759f, -0.36423709988594055f, 0.6546221971511841f, 0.5063526630401611f, -0.2912219762802124f, 0.2410944253206253f, -0.11353456228971481f, -0.18675105273723602f, -0.4204712510108948f, -0.6307470202445984f, -0.5109124183654785f, -0.8137996196746826f, -0.0389765202999115f, 0.12632159888744354f, 0.15056802332401276f, -0.5493842363357544f, 0.043299634009599686f, -0.7763530015945435f, -0.06245645508170128f, 2.3904078006744385f, 0.17449568212032318f, -0.7287309169769287f, 0.9335729479789734f, -0.11398910731077194f, 0.8023509979248047f, -1.4584490060806274f, -0.569793701171875f, -0.5126246213912964f, 0.9335234761238098f, -0.5929949879646301f, -1.9641525745391846f, -0.770374596118927f, -0.25788551568984985f, 0.10062368959188461f, 0.09273683279752731f, -0.14144010841846466f, -1.9320217370986938f, 1.2456752061843872f, 0.2471078485250473f, -0.8051456212997437f, 0.4068649113178253f, 0.18860052525997162f, -0.1764967441558838f, 0.011564957909286022f, 0.769076406955719f, -0.2802196145057678f, 0.34732216596603394f, -0.2811329662799835f, 0.09007428586483002f, 1.1926298141479492f, -0.06971044093370438f, 0.02121918648481369f, 0.156712144613266f, 0.4785969853401184f, -0.36856722831726074f, 0.1029810905456543f, -0.6167619824409485f, -0.822496771812439f, 0.31801703572273254f, -0.36101004481315613f, 0.3244095742702484f, 0.08177398145198822f, -0.5278838276863098f, 0.8306853175163269f, -0.2659226357936859f, -0.3406851291656494f, -0.2743625044822693f, 0.2948765754699707f, -0.15130232274532318f, -0.16655264794826508f, -0.3387776017189026f, 0.06370297819375992f, 0.20774392783641815f, -0.5808162093162537f, 0.240311861038208f, 0.654904305934906f, -0.38132867217063904f, 0.0957886353135109f, 1.4622987508773804f, 0.8115783929824829f, 2.6890435218811035f, -0.016665756702423096f, 0.3498152494430542f, -0.40974077582359314f, -1.7297492027282715f, 0.8202703595161438f, 0.17031271755695343f, 0.25515374541282654f, -0.2797114849090576f, -0.49177393317222595f, -0.9101015329360962f, 1.2677546739578247f, 0.1502431482076645f, 0.13058486580848694f, -0.032251518219709396f, -0.2505302429199219f, 0.023486120626330376f, -0.04524757340550423f, 0.4648350179195404f, 0.11169125139713287f, -0.13708479702472687f, 0.07983803749084473f, -0.22815227508544922f, -0.0010367544600740075f, 1.1278074979782104f, -0.06586442142724991f, 0.5714532136917114f, -1.0264434814453125f, 0.06808073073625565f, 0.4518132507801056f, 0.07937094569206238f, 0.7114730477333069f, -4.224751949310303f, -0.04624702408909798f, 0.13360299170017242f, -0.023575792089104652f, 0.32680967450141907f, 0.5079160332679749f, 0.2655019462108612f, -0.7614714503288269f, 0.618053138256073f, 0.16355685889720917f, -0.05061812698841095f, 0.5330490469932556f, -0.20750801265239716f, 0.1064969152212143f, -0.4866749942302704f, -0.4815291166305542f, -0.47236835956573486f, 1.0004996061325073f, -0.56606125831604f, 0.2726045846939087f };
