#pragma once

#include <cstddef>
#include <cstdint>

const size_t patch_embed_weights_array_shape[4] = { 192, 3, 16, 16 };
float patch_embed_weights_array[192][3][16][16] = { { { { -0.0724937915802002f, -0.020029937848448753f, -0.026796327903866768f, -0.02559654973447323f, -0.06468231976032257f, -0.0406554751098156f, 0.0034588268026709557f, 0.027430111542344093f, 0.06192475184798241f, 0.07772257179021835f, 0.06502001732587814f, 0.01789380982518196f, -0.006473036948591471f, -0.022906096652150154f, -0.02476496808230877f, -0.09304031729698181f },
  { -0.07013393938541412f, -0.015818074345588684f, 0.006236222572624683f, 0.020838560536503792f, -0.010671369731426239f, -0.008675317279994488f, 0.038054488599300385f, 0.072280153632164f, 0.08269767463207245f, 0.097392238676548f, 0.05460485443472862f, 0.023262081667780876f, 0.01813971810042858f, 0.0058642784133553505f, 0.003357471665367484f, -0.06494973599910736f },
  { -0.07434672117233276f, -0.004547426477074623f, 0.025664130225777626f, 0.030695494264364243f, 0.004945048596709967f, 0.004313732963055372f, 0.054415903985500336f, 0.07646653056144714f, 0.11487158387899399f, 0.1024840846657753f, 0.06225458160042763f, 0.011953105218708515f, 0.01526434812694788f, 0.012447680346667767f, 0.0033506022300571203f, -0.08103685826063156f },
  { -0.06408804655075073f, -0.0331215001642704f, -0.01662631332874298f, -0.010049824602901936f, 0.004686941392719746f, 0.014485355466604233f, 0.015876248478889465f, 0.04467072710394859f, 0.07798442244529724f, 0.10930166393518448f, 0.0337846465408802f, 0.012995955534279346f, 0.01107852440327406f, 0.010470222681760788f, -0.030977388843894005f, -0.12390273809432983f },
  { -0.03747926279902458f, -0.03436971455812454f, -0.031519170850515366f, -0.01233673095703125f, 0.014610346406698227f, 0.03539605438709259f, 0.02396886795759201f, -0.005284139886498451f, 0.044279083609580994f, 0.06673721969127655f, 0.025402473285794258f, 0.011374935507774353f, 0.03524383157491684f, 0.039661817252635956f, -0.016657432541251183f, -0.11058852821588516f },
  { -0.02818223088979721f, -0.034931693226099014f, -0.02495628409087658f, -0.014572849497199059f, -0.0018360449466854334f, 0.0005975055391900241f, -0.012135811150074005f, -0.046110816299915314f, 0.007296559400856495f, 0.051803022623062134f, 0.01897302456200123f, 0.009705737233161926f, 0.04353320971131325f, 0.04200905188918114f, 0.0009560140897519886f, -0.08523830771446228f },
  { -0.03086034394800663f, -0.012341544032096863f, -0.02599715255200863f, 0.012757798656821251f, -0.009799791499972343f, -0.03426559641957283f, -0.038787130266427994f, -0.04725288599729538f, -0.0316019244492054f, 0.016875095665454865f, -0.01561203133314848f, -0.031634096056222916f, 0.004089901223778725f, 0.012070225551724434f, 0.008705198764801025f, -0.04742085561156273f },
  { -0.036512017250061035f, -0.011589703150093555f, 0.010250604711472988f, 0.015703951939940453f, -0.022724229842424393f, -0.052811019122600555f, -0.02986336499452591f, -0.03516736626625061f, -0.06304308772087097f, -0.05204419046640396f, -0.0525486133992672f, -0.07422356307506561f, -0.06582678109407425f, -0.012625039555132389f, 0.030360810458660126f, 0.007512681186199188f },
  { -0.048940565437078476f, 0.016764184460043907f, -0.0086974510923028f, -0.05128131061792374f, -0.09301889687776566f, -0.03979974612593651f, -0.03185076266527176f, -0.0746389850974083f, -0.08547031134366989f, -0.05335923284292221f, -0.06895378232002258f, -0.06077340990304947f, -0.049998506903648376f, 0.006902931723743677f, 0.06568016111850739f, 0.05525669455528259f },
  { -0.010793241672217846f, 0.07991524785757065f, 0.020973337814211845f, -0.05572039261460304f, -0.01596948690712452f, 0.041990868747234344f, -0.010101060383021832f, -0.06378797441720963f, -0.04083642736077309f, -0.04138556867837906f, -0.07235013693571091f, -0.05519704893231392f, -0.03097345679998398f, 0.02810896374285221f, 0.08450852334499359f, 0.08766210079193115f },
  { 0.0205240435898304f, 0.11765168607234955f, 0.07505110651254654f, 0.03009404055774212f, 0.054892003536224365f, 0.08700834959745407f, 0.021451035514473915f, 0.012563923373818398f, 0.03885095566511154f, -0.024395862594246864f, -0.05382848531007767f, -0.03954670578241348f, -0.024689272046089172f, 0.04004434496164322f, 0.08940286934375763f, 0.05739854648709297f },
  { 0.016018804162740707f, 0.09892772883176804f, 0.07175391167402267f, 0.05280701816082001f, 0.06425695866346359f, 0.03671380504965782f, 0.02185680903494358f, 0.07893359661102295f, 0.0777377337217331f, 0.02861214242875576f, -0.013094784691929817f, -0.0016082117799669504f, 0.03583553805947304f, 0.08373580127954483f, 0.11754269897937775f, 0.09094692766666412f },
  { -0.01301481295377016f, 0.019721196964383125f, 0.021069366484880447f, 0.024225568398833275f, 0.021863356232643127f, -0.0017886341083794832f, 0.008111372590065002f, 0.041506171226501465f, 0.05245554447174072f, 0.016500892117619514f, 0.04249677434563637f, 0.027465861290693283f, 0.05428927764296532f, 0.1116485521197319f, 0.1356486976146698f, 0.07959117740392685f },
  { -0.033293962478637695f, -0.01744033955037594f, -0.04216453805565834f, -0.009179034270346165f, 0.0009939088486135006f, -0.021700842306017876f, -0.052850186824798584f, -0.03199264034628868f, 0.0010778057621791959f, 0.020856166258454323f, 0.015004528686404228f, 0.026848962530493736f, 0.021894829347729683f, 0.07779446244239807f, 0.08334163576364517f, 0.04200218245387077f },
  { -0.03219953179359436f, -0.030759133398532867f, -0.05123129487037659f, -0.05199790745973587f, -0.0269993357360363f, -0.04653814062476158f, -0.0739203691482544f, -0.06169158220291138f, -0.011628132313489914f, 0.0030363525729626417f, 0.019028229638934135f, -0.0004447969258762896f, 0.0009757219231687486f, 0.028403207659721375f, 0.0260715764015913f, -0.02128518559038639f },
  { -0.08012054860591888f, -0.08221612125635147f, -0.13245151937007904f, -0.13356024026870728f, -0.13092249631881714f, -0.1678454726934433f, -0.18170909583568573f, -0.1291886568069458f, -0.08495128899812698f, -0.026906903833150864f, -0.012276167050004005f, -0.03771236911416054f, -0.030898841097950935f, -0.02571781724691391f, -0.02999652549624443f, -0.07144170999526978f } },
  { { -0.08390803635120392f, -0.03030373901128769f, -0.027151349931955338f, -0.043332893401384354f, -0.10176271945238113f, -0.09835131466388702f, -0.04960368573665619f, -0.01539014745503664f, 0.03009398654103279f, 0.07110550254583359f, 0.04582568258047104f, 0.007876317016780376f, -0.0031049514655023813f, -0.01516702026128769f, -0.03603179007768631f, -0.09533857554197311f },
  { -0.053508661687374115f, 0.00908278301358223f, 0.04205746576189995f, 0.026568878442049026f, -0.037955619394779205f, -0.03731219470500946f, 0.00102108099963516f, 0.0476723350584507f, 0.06699302047491074f, 0.09943950921297073f, 0.05189543962478638f, 0.05326513573527336f, 0.019410105422139168f, 0.016769135370850563f, -0.004187771584838629f, -0.08488643914461136f },
  { -0.05995650589466095f, -0.0015425840392708778f, 0.03283360227942467f, 0.03853120654821396f, 0.012382575310766697f, 0.01216520369052887f, 0.059586282819509506f, 0.06149425730109215f, 0.11375746130943298f, 0.13362890481948853f, 0.09236659109592438f, 0.030663635581731796f, 0.016095221042633057f, 0.024796629324555397f, 0.002018936211243272f, -0.08259403705596924f },
  { -0.04013032838702202f, -0.02236413210630417f, 0.021972358226776123f, 0.02867312915623188f, 0.03741256892681122f, 0.03961808234453201f, 0.008218955248594284f, 0.04984474554657936f, 0.07408420741558075f, 0.12638014554977417f, 0.07305170595645905f, 0.04248553141951561f, 0.03611690178513527f, 0.007905148901045322f, -0.019108116626739502f, -0.11918208003044128f },
  { 0.008178334683179855f, 0.010697754099965096f, 0.01387423649430275f, 0.03444264829158783f, 0.05201352387666702f, 0.06686173379421234f, 0.023887675255537033f, -0.036941055208444595f, 0.028841570019721985f, 0.08892026543617249f, 0.07467114180326462f, 0.03995233774185181f, 0.07410421967506409f, 0.036669597029685974f, -0.018787462264299393f, -0.12541858851909637f },
  { 0.024667449295520782f, 0.003978479187935591f, 0.00517134228721261f, 0.02868737280368805f, 0.025242937728762627f, 0.016374535858631134f, -0.015135499648749828f, -0.06739439070224762f, 0.0034340370912104845f, 0.05081352964043617f, 0.03901749849319458f, 0.04327680915594101f, 0.08858925104141235f, 0.07545873522758484f, -0.014824183657765388f, -0.1153639480471611f },
  { 0.014648253098130226f, 0.01783035323023796f, 0.028235137462615967f, 0.07390256971120834f, 0.0035302736796438694f, -0.029286181554198265f, -0.021811436861753464f, -0.03955233469605446f, -0.03203073889017105f, 0.038566820323467255f, -0.026826925575733185f, -0.011974077671766281f, 0.02649560756981373f, 0.02802627719938755f, 0.012054313905537128f, -0.08042515814304352f },
  { 0.002887042472139001f, 0.023304540663957596f, 0.030912086367607117f, 0.024544769898056984f, -0.031235933303833008f, -0.06402743607759476f, -0.03083856590092182f, -0.006115361116826534f, -0.021242689341306686f, -0.05006611347198486f, -0.06012652814388275f, -0.08571408689022064f, -0.06943631917238235f, -0.014849553816020489f, 0.006261759903281927f, -0.00741288298740983f },
  { -0.006141838617622852f, 0.060868315398693085f, 0.012993630021810532f, -0.05569755658507347f, -0.09645050019025803f, -0.042662087827920914f, -0.031562529504299164f, -0.054431889206171036f, -0.07011321187019348f, -0.06337162107229233f, -0.06983111798763275f, -0.07046358287334442f, -0.04939381033182144f, 0.03928001970052719f, 0.06785507500171661f, 0.055354442447423935f },
  { 0.04062650352716446f, 0.10144642740488052f, 0.05847847834229469f, -0.0454154908657074f, -0.006244531366974115f, 0.06723958253860474f, -0.010302606970071793f, -0.07286551594734192f, -0.04623476043343544f, -0.04611751437187195f, -0.06088956072926521f, -0.04013007506728172f, -0.01632571965456009f, 0.052978988736867905f, 0.08873144537210464f, 0.08685579895973206f },
  { 0.07056768238544464f, 0.16599513590335846f, 0.14186131954193115f, 0.09092878550291061f, 0.10392767935991287f, 0.11550012230873108f, 0.03825363144278526f, 0.013348789885640144f, 0.07140349596738815f, 0.010760199278593063f, -0.02483687363564968f, -0.02512466534972191f, 0.008764488622546196f, 0.04667382687330246f, 0.07621892541646957f, 0.06543803960084915f },
  { 0.05976668745279312f, 0.14084792137145996f, 0.13608196377754211f, 0.11179038882255554f, 0.1189013347029686f, 0.0631423369050026f, 0.04538710042834282f, 0.11314768344163895f, 0.11185154318809509f, 0.07478377223014832f, 0.025764601305127144f, 0.03436700627207756f, 0.048719942569732666f, 0.09552399069070816f, 0.11029381304979324f, 0.07162803411483765f },
  { 0.03494800627231598f, 0.0561847947537899f, 0.04490034282207489f, 0.05913391709327698f, 0.04834502190351486f, 0.0348876416683197f, 0.01660296693444252f, 0.05853542685508728f, 0.08250187337398529f, 0.041385866701602936f, 0.044414110481739044f, 0.02718454599380493f, 0.053046952933073044f, 0.10846459120512009f, 0.12635394930839539f, 0.05071653425693512f },
  { 0.019605647772550583f, 0.0018749554874375463f, -0.00828634761273861f, -0.007647871505469084f, 0.023033184930682182f, -0.00945829227566719f, -0.04599929600954056f, -0.03407835587859154f, -0.004058958496898413f, 0.01828802563250065f, 0.033475685864686966f, -0.003731141332536936f, 0.030595596879720688f, 0.07471617311239243f, 0.0843898355960846f, 0.022330837324261665f },
  { -0.006831400562077761f, -0.00841233879327774f, -0.052319109439849854f, -0.06314294040203094f, -0.04240628331899643f, -0.06143425032496452f, -0.11629683524370193f, -0.10530818998813629f, -0.05430087819695473f, -0.004521721974015236f, -0.01525209005922079f, -0.02370724454522133f, -0.02941383607685566f, -0.0007705686148256063f, -0.0013415301218628883f, -0.05410214141011238f },
  { -0.0665484368801117f, -0.07000719010829926f, -0.1137310266494751f, -0.14054282009601593f, -0.16384243965148926f, -0.17156237363815308f, -0.2038266807794571f, -0.1738826036453247f, -0.12004555761814117f, -0.07335326075553894f, -0.05040745437145233f, -0.06822595745325089f, -0.05876464396715164f, -0.0414259172976017f, -0.06863732635974884f, -0.1171424463391304f } },
  { { -0.10450491309165955f, -0.05729411169886589f, -0.06410516798496246f, -0.1083579733967781f, -0.13280163705348969f, -0.14096148312091827f, -0.10654287040233612f, -0.0714719370007515f, -0.04610147327184677f, -0.004468261264264584f, -0.010730307549238205f, -0.023309098556637764f, -0.01840803399682045f, -0.02348526380956173f, -0.018201090395450592f, -0.056362349539995193f },
  { -0.0886596143245697f, -0.03385070711374283f, -0.009901611134409904f, -0.03611879050731659f, -0.0814996063709259f, -0.09146715700626373f, -0.061839379370212555f, -0.022300289943814278f, 0.005488987546414137f, 0.02263820357620716f, 0.005582685116678476f, 0.007663095369935036f, 0.014081880450248718f, 0.019480232149362564f, 0.006306380499154329f, -0.020947765558958054f },
  { -0.08631495386362076f, -0.03583582490682602f, -0.026723327115178108f, -0.02068992890417576f, -0.06249336153268814f, -0.048290472477674484f, -0.03221463784575462f, -0.010505978018045425f, 0.00971116591244936f, 0.04131065309047699f, 0.027727186679840088f, 0.008297329768538475f, 0.01520125288516283f, 0.026349317282438278f, 0.011051123961806297f, -0.045214638113975525f },
  { -0.06696145236492157f, -0.05569620802998543f, -0.044790804386138916f, -0.026834873482584953f, -0.031244445592164993f, -0.02137412130832672f, -0.03816523030400276f, -0.03170083835721016f, -0.024419104680418968f, 0.044227100908756256f, 0.027967577800154686f, 0.014703811146318913f, 0.019317878410220146f, 0.031838059425354004f, 0.0003522196493577212f, -0.046124715358018875f },
  { -0.035192396491765976f, -0.033380959182977676f, -0.03540943190455437f, -0.02713262103497982f, -0.0029163481667637825f, 0.0009001639555208385f, -0.05435008183121681f, -0.10596878826618195f, -0.06756111979484558f, 0.01365080289542675f, 0.012230148538947105f, 0.01248949859291315f, 0.04450451210141182f, 0.034793294966220856f, 0.01566874049603939f, -0.060946524143218994f },
  { -0.014056888408958912f, -0.04368677735328674f, -0.03459508344531059f, -0.01082325354218483f, -0.02814524993300438f, -0.037756286561489105f, -0.09631997346878052f, -0.13667717576026917f, -0.07201344519853592f, -0.01883966289460659f, -0.013762294314801693f, 0.009288432076573372f, 0.044656820595264435f, 0.052978284657001495f, 0.016541147604584694f, -0.06359972059726715f },
  { -0.02112838812172413f, -0.026818348094820976f, 0.0005181894521228969f, 0.01699966937303543f, -0.05134761705994606f, -0.07826095074415207f, -0.06248005852103233f, -0.057513680309057236f, -0.05985993519425392f, -0.049876727163791656f, -0.06772297620773315f, -0.05195879936218262f, -0.000619370664935559f, 0.01474423985928297f, 0.009194652549922466f, -0.03867006674408913f },
  { -0.024698518216609955f, -0.009814132004976273f, -0.01293059904128313f, -0.007403249386698008f, -0.07597453892230988f, -0.0738319680094719f, -0.02465825341641903f, -0.00784005131572485f, -0.027363497763872147f, -0.08678747713565826f, -0.12090756744146347f, -0.11058565229177475f, -0.06407110393047333f, -0.02987064979970455f, 0.012343899346888065f, 0.00388240534812212f },
  { -0.02033366821706295f, -0.0023067535366863012f, -0.004727925639599562f, -0.05373295396566391f, -0.10455233603715897f, -0.0630602240562439f, -0.006400505546480417f, -0.010477718897163868f, -0.04769240319728851f, -0.06531614810228348f, -0.10695883631706238f, -0.06417553126811981f, -0.04698168486356735f, -0.001198776182718575f, 0.06026412919163704f, 0.04820866137742996f },
  { 0.01240580901503563f, 0.0746287927031517f, 0.03374837338924408f, -0.03356098011136055f, -0.014929945580661297f, 0.03390724956989288f, -0.010065803304314613f, -0.059221215546131134f, -0.04888778552412987f, -0.04268644377589226f, -0.06742444634437561f, -0.05201692134141922f, -0.02268684282898903f, 0.032209113240242004f, 0.06283178925514221f, 0.07311201095581055f },
  { 0.057079873979091644f, 0.11657056957483292f, 0.10482227802276611f, 0.07428623735904694f, 0.10354004800319672f, 0.0909290686249733f, 0.019921759143471718f, -0.010072974488139153f, 0.0035591430496424437f, -0.006539034191519022f, -0.02645093761384487f, -0.005683056078851223f, 0.006744437385350466f, 0.036960169672966f, 0.06923152506351471f, 0.06341008841991425f },
  { 0.07025747746229172f, 0.11470603942871094f, 0.09727855771780014f, 0.0913795456290245f, 0.09398292005062103f, 0.08079258352518082f, 0.05827445536851883f, 0.0817141979932785f, 0.07895252853631973f, 0.05648239329457283f, 0.036982182413339615f, 0.045803461223840714f, 0.03193461149930954f, 0.07969225943088531f, 0.09126651287078857f, 0.0670495256781578f },
  { 0.042757172137498856f, 0.06785040348768234f, 0.056641608476638794f, 0.06711554527282715f, 0.07970606535673141f, 0.0572533905506134f, 0.03182925656437874f, 0.053324535489082336f, 0.06483186781406403f, 0.04998252913355827f, 0.06261498481035233f, 0.050042301416397095f, 0.046165741980075836f, 0.1057531014084816f, 0.11592667549848557f, 0.060712240636348724f },
  { 0.04250966012477875f, 0.028453024104237556f, 0.01047338917851448f, 0.023706959560513496f, 0.05224142596125603f, 0.03902934119105339f, -0.01619449444115162f, -0.0033147141803056f, 0.03276805952191353f, 0.04442225396633148f, 0.04911090433597565f, 0.039295464754104614f, 0.028407875448465347f, 0.06253255158662796f, 0.07502445578575134f, 0.03844337910413742f },
  { 0.02866525948047638f, 0.014092188328504562f, -0.02157408930361271f, 0.009411334991455078f, 0.01822664402425289f, 0.010676118545234203f, -0.0394454188644886f, -0.036380402743816376f, 0.008929912932217121f, 0.024532470852136612f, 0.0074002244509756565f, -0.003153762547299266f, -0.00968292634934187f, 0.0022136440966278315f, 0.00013135146582499146f, -0.021047750487923622f },
  { -0.011777244508266449f, -0.013337853364646435f, -0.06270335614681244f, -0.0634939894080162f, -0.06219230964779854f, -0.08322899043560028f, -0.09921629726886749f, -0.05679187551140785f, -0.03396772965788841f, 0.0017321736086159945f, -0.005804125685244799f, 0.009603065438568592f, -0.018249694257974625f, -0.012214296497404575f, -0.007936893962323666f, -0.04992513731122017f } } },
  { { { 0.04737042263150215f, 0.018564818426966667f, -0.024125857278704643f, -0.020790452137589455f, -0.08536285161972046f, -0.08709044009447098f, -0.0772198960185051f, 0.03126419335603714f, -0.005165823269635439f, 0.022114738821983337f, 0.03922739997506142f, 0.08379124850034714f, 0.053261786699295044f, 0.02318596839904785f, 0.030336551368236542f, 0.056213948875665665f },
  { 0.008030086755752563f, -0.019614484161138535f, -0.04071257635951042f, 0.017964307218790054f, -0.01595197431743145f, -0.03308301791548729f, 0.0002612005337141454f, 0.11232390254735947f, 0.01778963953256607f, -0.03792453929781914f, -0.0016474651638418436f, -0.018556645140051842f, -0.070475272834301f, -0.054929737001657486f, -0.018387870863080025f, 0.006666562054306269f },
  { -0.025795860216021538f, -0.02132808417081833f, -0.037474099546670914f, 0.052280113101005554f, 0.00383170647546649f, -0.05924755334854126f, -0.046630989760160446f, 0.09633143991231918f, -0.007708112709224224f, -0.04812322184443474f, -0.01326767634600401f, 0.0013004427310079336f, -0.02795604057610035f, -0.02755046635866165f, -0.01892816834151745f, -0.015308302827179432f },
  { -0.04135837033390999f, -0.04858621209859848f, -0.016783224418759346f, 0.08700276911258698f, 0.010929586365818977f, -0.09556912630796432f, -0.10702290385961533f, 0.03752756118774414f, -0.01993666961789131f, -0.015213698148727417f, 0.03389562666416168f, 0.07037746161222458f, 0.04734203219413757f, 0.009266995824873447f, -0.04178814962506294f, -0.051003556698560715f },
  { -0.049359336495399475f, -0.0590512715280056f, -0.04675570875406265f, 0.0026034682523459196f, -0.039308663457632065f, -0.07012076675891876f, -0.10489200800657272f, 0.03603924438357353f, 0.0013286255998536944f, 0.025419626384973526f, 0.04607173800468445f, 0.0399065725505352f, 0.007424203213304281f, -0.04580964148044586f, -0.0551612488925457f, -0.043299928307533264f },
  { 0.004623554181307554f, -0.01231139712035656f, -0.08681537955999374f, -0.03830588608980179f, -0.05513691529631615f, -0.035223908722400665f, -0.09944974631071091f, 0.009023531340062618f, 0.04403230920433998f, 0.0869935005903244f, 0.04774831607937813f, 0.03807045891880989f, -0.01872674934566021f, -0.021255094558000565f, 0.009431958198547363f, 0.06754767894744873f },
  { 0.046926114708185196f, -0.007155532483011484f, -0.06122395396232605f, -0.048184942454099655f, -0.048454828560352325f, -0.0400860533118248f, -0.1107766330242157f, 0.005153199657797813f, 0.03225430101156235f, 0.03953751549124718f, 0.05309922248125076f, 0.053540054708719254f, -0.008711539208889008f, -0.011549452319741249f, 0.045290060341358185f, 0.11145249009132385f },
  { 0.05395977571606636f, -0.0076379128731787205f, -0.06493142992258072f, 0.04595310986042023f, 0.04287748783826828f, 0.010034897364675999f, -0.028710730373859406f, 0.02684330940246582f, -0.05009618401527405f, 0.008603474125266075f, 0.06068120151758194f, 0.07394491136074066f, 0.04210769757628441f, 0.016174355521798134f, -0.005665995646268129f, 0.07687800377607346f },
  { 0.0328439436852932f, -0.05176631733775139f, -0.06501929461956024f, 0.06349622458219528f, 0.015135345980525017f, -0.04977058246731758f, -0.040077079087495804f, -0.0322348028421402f, -0.10664574801921844f, 0.016756465658545494f, 0.05834728851914406f, 0.053038641810417175f, 0.07806722819805145f, 0.02480873093008995f, -0.02058466337621212f, 0.0037197130732238293f },
  { 0.061118170619010925f, 0.018619950860738754f, -0.028407981619238853f, -0.015366965904831886f, -0.06533993035554886f, -0.017952935770154f, 0.001419268548488617f, 0.007192043121904135f, -0.050594959408044815f, 0.06173991039395332f, 0.03998459875583649f, 0.053832605481147766f, 0.10946398228406906f, 0.10934832692146301f, 0.038670070469379425f, 0.007235211320221424f },
  { 0.08161526173353195f, 0.027517015114426613f, -0.0518433041870594f, -0.06353995203971863f, -0.10209624469280243f, 0.02385147102177143f, 0.09145795553922653f, 0.0725213959813118f, -0.038195472210645676f, 0.004782011266797781f, -0.0428457073867321f, -0.024318069219589233f, 0.0438726432621479f, 0.055305346846580505f, 0.023617135360836983f, 0.02535439096391201f },
  { 0.06121198087930679f, 0.01118864119052887f, -0.05250808596611023f, -0.028728438541293144f, 0.0015363018028438091f, 0.07243233919143677f, 0.06360729783773422f, 0.03958164155483246f, -0.06832060217857361f, -0.014449464157223701f, -0.034309353679418564f, -0.04248419776558876f, -0.046796783804893494f, -0.03203291818499565f, -0.01411867793649435f, -0.010843770578503609f },
  { 0.01875254698097706f, -0.04078085348010063f, -0.06101279333233833f, 0.04724712669849396f, 0.07831858843564987f, 0.04512561485171318f, -0.09653580188751221f, -0.09409677237272263f, -0.08772322535514832f, 0.020585622638463974f, 0.023561812937259674f, 0.028295382857322693f, -0.03498045727610588f, -0.05736338719725609f, -0.058837730437517166f, -0.05362826585769653f },
  { 0.027361147105693817f, -0.014532923698425293f, 0.002635005861520767f, 0.11816685646772385f, 0.11751467734575272f, 0.016796212643384933f, -0.13824082911014557f, -0.07130002230405807f, -0.014592286199331284f, 0.0369514562189579f, 0.07239138334989548f, 0.06123876944184303f, 0.03843836486339569f, 0.019658299162983894f, -0.024003200232982635f, -0.04678342118859291f },
  { 0.006878960877656937f, 0.004937819205224514f, -0.0019974911119788885f, 0.0953294187784195f, 0.07376541197299957f, 0.00023059062368702143f, -0.08567807078361511f, 0.0038742301985621452f, 0.03274234011769295f, 0.036951012909412384f, 0.005952924489974976f, 0.029380062595009804f, 0.027869820594787598f, 0.03053111955523491f, -0.013122163712978363f, -0.054196640849113464f },
  { 0.006296305917203426f, -0.012187948450446129f, -0.01591465063393116f, 0.053691502660512924f, 0.024919399991631508f, 0.022325806319713593f, -0.017304452136158943f, 0.06800384074449539f, 0.05759206414222717f, 0.016814226284623146f, -0.07039379328489304f, -0.07002891600131989f, -0.06132977455854416f, -0.035754378885030746f, -0.05880745127797127f, -0.08968412131071091f } },
  { { 0.05694138631224632f, 0.04889710620045662f, 0.00540215102955699f, 0.027969717979431152f, -0.04916159436106682f, -0.0707053542137146f, -0.06766434013843536f, 0.03020903840661049f, -0.01642770506441593f, -0.0022524241358041763f, 0.02188715524971485f, 0.054171714931726456f, 0.01789696514606476f, 0.027650553733110428f, 0.04348241537809372f, 0.06830728054046631f },
  { 0.027205755934119225f, 0.008782483637332916f, 0.0009703734540380538f, 0.04882451891899109f, 0.020114906132221222f, 0.00025272995117120445f, 0.02421417646110058f, 0.15539826452732086f, 0.04225316643714905f, -0.01974727213382721f, -0.03803054243326187f, -0.048993948847055435f, -0.1050780639052391f, -0.05979837104678154f, -0.008326640352606773f, 0.02784596011042595f },
  { 0.001030081883072853f, -0.0025090109556913376f, 0.023593224585056305f, 0.11955730617046356f, 0.09561335295438766f, -0.003335607936605811f, 0.019696993753314018f, 0.1444307118654251f, -0.0034143112134188414f, -0.03237837925553322f, -0.0412023700773716f, -0.02294415980577469f, -0.0793028250336647f, -0.05388126149773598f, -0.02562600187957287f, -0.0076401554979383945f },
  { -0.01603339985013008f, 0.009956556372344494f, 0.0638473778963089f, 0.20145724713802338f, 0.150064617395401f, 0.011221352033317089f, -0.018590111285448074f, 0.0909491777420044f, -0.014347630552947521f, -0.0010575692867860198f, 0.05765672028064728f, 0.07963345944881439f, 0.01153828389942646f, -0.02556455321609974f, -0.03163326904177666f, -0.031182456761598587f },
  { -0.03510592505335808f, 0.00495903892442584f, 0.0130710918456316f, 0.12621983885765076f, 0.09567151218652725f, 0.03050186112523079f, -0.047534454613924026f, 0.04786162078380585f, -0.004058122169226408f, 0.005478707142174244f, 0.029606914147734642f, 0.056774720549583435f, -0.02374199964106083f, -0.06581807881593704f, -0.06595796346664429f, -0.030504032969474792f },
  { 0.06224237009882927f, 0.04162636771798134f, 0.00291883060708642f, 0.054241929203271866f, 0.035677529871463776f, 0.012036322616040707f, -0.05020223930478096f, 0.03608940914273262f, 0.07071670889854431f, 0.07241150736808777f, 0.0084008127450943f, 0.033987466245889664f, -0.044609446078538895f, -0.040894828736782074f, 0.01066451333463192f, 0.09617926180362701f },
  { 0.10266482830047607f, 0.03968106210231781f, -0.016955750063061714f, -0.0017574896337464452f, -0.00781767163425684f, -0.006525448523461819f, -0.0997675359249115f, 0.048366397619247437f, 0.032458752393722534f, -0.006079955957829952f, -0.0374760664999485f, 0.005013822577893734f, -0.04855380579829216f, -0.02143055573105812f, 0.030781365931034088f, 0.13408830761909485f },
  { 0.0926317572593689f, 1.720185173326172e-05f, -0.04241478443145752f, 0.06348136812448502f, 0.04046652838587761f, -0.020982690155506134f, -0.03789159283041954f, 0.08119890838861465f, -0.04969283193349838f, -0.05319194868206978f, -0.04738602787256241f, 0.033060312271118164f, -0.003512959461659193f, 0.004675625823438168f, 0.009986886754631996f, 0.08067097514867783f },
  { 0.024894284084439278f, -0.05684869736433029f, -0.0804799348115921f, 0.03725520521402359f, -0.022421056404709816f, -0.11385654658079147f, -0.10118025541305542f, -0.05344077944755554f, -0.16665871441364288f, -0.05778633430600166f, -0.02303379587829113f, 0.024580880999565125f, 0.04122744873166084f, 0.016482263803482056f, -0.025203999131917953f, -0.018631551414728165f },
  { 0.0575425922870636f, 0.011212210170924664f, -0.03199274465441704f, -0.016263814643025398f, -0.11549071222543716f, -0.11102902889251709f, -0.07827189564704895f, -0.07840006053447723f, -0.1389678716659546f, 0.0105185117572546f, -0.017703065648674965f, 0.05298411101102829f, 0.1174764558672905f, 0.14247824251651764f, 0.06414811313152313f, 0.019452951848506927f },
  { 0.0895075723528862f, 0.012072538025677204f, -0.07808325439691544f, -0.13137982785701752f, -0.12744490802288055f, -0.007729970384389162f, 0.023417646065354347f, -0.012881218455731869f, -0.12385931611061096f, -0.03691006451845169f, -0.0766240805387497f, -0.013363493606448174f, 0.03926362469792366f, 0.08464851975440979f, 0.06961040943861008f, 0.025484031066298485f },
  { 0.05172478407621384f, -0.017402131110429764f, -0.11637894809246063f, -0.08695857971906662f, -0.033744052052497864f, 0.07140970975160599f, 0.0055254194885492325f, -0.02855391800403595f, -0.09701218456029892f, -0.010488339699804783f, 0.0006624657544307411f, -0.014437093399465084f, -0.05726190283894539f, -0.02698926068842411f, -0.017151424661278725f, -0.0032242590095847845f },
  { 0.0031301998533308506f, -0.03923137113451958f, -0.07512225955724716f, 0.018902122974395752f, 0.07113907486200333f, 0.031159913167357445f, -0.12855646014213562f, -0.11022908985614777f, -0.09328601509332657f, 0.06137191504240036f, 0.08977384120225906f, 0.08064322173595428f, -0.019800737500190735f, -0.018415967002511024f, -0.04795454442501068f, -0.03860512003302574f },
  { 0.0031004773918539286f, -0.029283981770277023f, -0.021920420229434967f, 0.10612676292657852f, 0.12088525295257568f, 0.012833883985877037f, -0.16598990559577942f, -0.09062289446592331f, -0.0008882292313501239f, 0.089606374502182f, 0.09607218950986862f, 0.11191155016422272f, 0.06686914712190628f, 0.05404694005846977f, -0.012814328074455261f, -0.03296295553445816f },
  { -0.008810454979538918f, -0.007230753544718027f, -0.0034281255211681128f, 0.08795848488807678f, 0.08681026846170425f, 0.004647837486118078f, -0.09278355538845062f, 0.004830860532820225f, 0.057645123451948166f, 0.05846669152379036f, 0.021552707999944687f, 0.051647961139678955f, 0.0481107197701931f, 0.043582525104284286f, 0.0036776734050363302f, -0.03320357948541641f },
  { -0.004444899037480354f, -0.031265053898096085f, -0.03365626186132431f, 0.03328092768788338f, 0.022041067481040955f, 0.015224065631628036f, -0.03501540794968605f, 0.08093632012605667f, 0.07047682255506516f, 0.028721164911985397f, -0.06501957774162292f, -0.05747448652982712f, -0.06879670172929764f, -0.04318731278181076f, -0.06086978316307068f, -0.09054803848266602f } },
  { { -0.0012731379829347134f, -0.003490162780508399f, -0.02537241019308567f, -0.029671980068087578f, -0.05668935924768448f, -0.06999249011278152f, -0.05587207153439522f, 0.020798109471797943f, -0.026701664552092552f, -0.0003089994133915752f, 0.010982458479702473f, 0.060017362236976624f, 0.01906782016158104f, 0.01967691443860531f, 0.03541721776127815f, 0.06867289543151855f },
  { -0.03115588054060936f, -0.033266473561525345f, -0.03889341652393341f, -0.004256907384842634f, -0.015755759552121162f, -0.016171490773558617f, 0.01205707062035799f, 0.09697550535202026f, 0.0016179841477423906f, -0.021041961386799812f, -0.03845047578215599f, -0.0404457151889801f, -0.07702890783548355f, -0.040217380970716476f, -0.002971912734210491f, 0.040046364068984985f },
  { -0.0778559148311615f, -0.060747671872377396f, -0.0507650151848793f, 0.03580525517463684f, 0.026685571298003197f, -0.019517948850989342f, -0.010046589188277721f, 0.06779564917087555f, -0.03429698199033737f, -0.04088738560676575f, -0.027242783457040787f, -0.024927977472543716f, -0.06426897644996643f, -0.034522976726293564f, -0.02212892845273018f, 0.017819194123148918f },
  { -0.08490116149187088f, -0.05491319298744202f, -0.012406548485159874f, 0.07161355018615723f, 0.06161199137568474f, -0.004223458003252745f, -0.04766353964805603f, 0.028436200693249702f, -0.04732753336429596f, -0.034802280366420746f, 0.00911696907132864f, 0.0496630035340786f, 0.0045825885608792305f, 0.008796860463917255f, -0.009588603861629963f, 0.00173720414750278f },
  { -0.10291305929422379f, -0.07427061349153519f, -0.04030424356460571f, 0.035218752920627594f, 0.05025038123130798f, -0.013542819768190384f, -0.07890529930591583f, -0.038572538644075394f, -0.07997802644968033f, -0.04385776445269585f, -0.017604829743504524f, 0.023874275386333466f, -0.029406225308775902f, -0.03819691017270088f, -0.04173177480697632f, -0.013949313201010227f },
  { -0.03441100940108299f, -0.02077043056488037f, -0.02467268705368042f, 0.013522286899387836f, 0.00799985509365797f, -0.003878750605508685f, -0.06782281398773193f, -0.01866752840578556f, -0.013895455747842789f, -0.04368087276816368f, -0.08788822591304779f, -0.022496426478028297f, -0.05737277492880821f, -0.06138923019170761f, -0.006418406963348389f, 0.09566941857337952f },
  { -0.007491015829145908f, -0.028824301436543465f, -0.05636618658900261f, -0.03179331496357918f, -0.026837404817342758f, -0.038044486194849014f, -0.01776154339313507f, 0.08341609686613083f, 0.04573233425617218f, -0.06307832151651382f, -0.10893523693084717f, -0.0444619245827198f, -0.07650982588529587f, -0.04555930197238922f, 0.006145775318145752f, 0.08596391975879669f },
  { 0.006007378920912743f, -0.04396013170480728f, -0.0411442369222641f, 0.01778002642095089f, 0.033218417316675186f, 0.009504778310656548f, 0.09595175832509995f, 0.2139223963022232f, 0.08606216311454773f, -0.04073498025536537f, -0.12325708568096161f, -0.05776732414960861f, -0.05515014007687569f, -0.022929584607481956f, 0.0020355822052806616f, 0.06059814617037773f },
  { -0.05837012827396393f, -0.07584787160158157f, -0.06316312402486801f, 0.04079015925526619f, 0.0243369247764349f, -0.008364844135940075f, 0.056480731815099716f, 0.14244866371154785f, 0.018243471160531044f, -0.006252878345549107f, -0.06079510971903801f, -0.03691386431455612f, -0.008809891529381275f, -0.004949528723955154f, -0.047046247869729996f, -0.01733410730957985f },
  { -0.0011818347265943885f, -0.015281951986253262f, -0.01758047379553318f, 0.046563878655433655f, 0.010184543207287788f, 0.024013955146074295f, 0.04843745008111f, 0.0501420795917511f, -0.030504880473017693f, 0.04216143861413002f, 0.012376291677355766f, 0.032212816178798676f, 0.06721697002649307f, 0.08320508897304535f, 0.04090099409222603f, 0.033424828201532364f },
  { 0.007577491924166679f, -0.010996600612998009f, -0.034348513931035995f, -0.01840769685804844f, 0.0241415835916996f, 0.09627837687730789f, 0.10860007256269455f, 0.06016930192708969f, -0.020403647795319557f, 0.03410932421684265f, 0.011654961854219437f, 0.01980729214847088f, 0.027727803215384483f, 0.05277019366621971f, 0.03823423758149147f, 0.03832831606268883f },
  { -0.004773217253386974f, -0.03354804590344429f, -0.06295375525951385f, -0.016793975606560707f, 0.07058311253786087f, 0.13977999985218048f, 0.09581070393323898f, 0.0647386759519577f, 0.011934502050280571f, 0.0630631223320961f, 0.026885736733675003f, 0.011243863962590694f, -0.045036859810352325f, -0.03678222745656967f, -0.009288578294217587f, -0.0045171137899160385f },
  { -0.03244378790259361f, -0.03914634883403778f, -0.06419087201356888f, 0.02674257941544056f, 0.1129123866558075f, 0.10221341252326965f, 0.01356259360909462f, 0.02373511716723442f, 0.01428297720849514f, 0.08208446204662323f, 0.09769248962402344f, 0.071297287940979f, -0.0058926548808813095f, -0.030834471806883812f, -0.031109806150197983f, -0.026942139491438866f },
  { -0.024966619908809662f, -0.036015912890434265f, -0.01648486591875553f, 0.07452794164419174f, 0.11580096185207367f, 0.037022076547145844f, -0.06061466783285141f, -0.005628848448395729f, 0.024265458807349205f, 0.07790666073560715f, 0.06834308058023453f, 0.06790532916784286f, 0.044826261699199677f, 0.018752604722976685f, -0.019768385216593742f, -0.027992282062768936f },
  { -0.02311635948717594f, -0.006666298024356365f, -0.009626283310353756f, 0.06634651124477386f, 0.07007311284542084f, 0.01564188301563263f, -0.05294135585427284f, 0.023877281695604324f, 0.04940059036016464f, 0.03886403515934944f, 0.0030964131001383066f, 0.04660794883966446f, 0.029118036851286888f, 0.016771860420703888f, -0.0051970286294817924f, -0.026510529220104218f },
  { -0.053735584020614624f, -0.04424184933304787f, -0.039695192128419876f, -0.0032291212119162083f, 0.01132489088922739f, -0.014255723915994167f, -0.02473287284374237f, 0.05242810398340225f, 0.054541561752557755f, 0.02966887690126896f, -0.055524762719869614f, -0.039839424192905426f, -0.06110549345612526f, -0.017032643780112267f, -0.041900232434272766f, -0.06860417127609253f } } },
  { { { 0.003023135242983699f, 0.008937137201428413f, -0.004832607693970203f, -0.013018650002777576f, -0.0016112151788547635f, -0.05925833806395531f, -0.04678921401500702f, -0.12171030789613724f, -0.06242752820253372f, -0.0773797407746315f, -0.09876912832260132f, -0.04686596244573593f, -0.06939391791820526f, -0.020348135381937027f, -0.04381915181875229f, 0.014413273893296719f },
  { 0.03516722470521927f, -0.003949478268623352f, 0.007699570152908564f, -0.048030558973550797f, 0.01718750037252903f, -0.016002817079424858f, 0.018735796213150024f, -0.015269373543560505f, -0.0015808438183739781f, -0.028949923813343048f, -0.08952461183071136f, 0.012712795287370682f, 0.0015587068628519773f, -0.011582189239561558f, -0.03435387462377548f, 0.023763446137309074f },
  { 0.005004249978810549f, -0.024530109018087387f, -0.004858086816966534f, -0.0258298572152853f, -0.029874084517359734f, -0.02258116565644741f, 0.08950816094875336f, -0.01252000778913498f, 0.01273143570870161f, -0.1055179163813591f, -0.08902949094772339f, -0.013131474144756794f, 0.0035325658973306417f, -0.0012784145073965192f, -0.06431838870048523f, 0.014684648253023624f },
  { 0.034436121582984924f, -0.0023191706277430058f, 0.0009458116255700588f, -0.04849877208471298f, 0.006853744387626648f, 0.05364013835787773f, 0.015920408070087433f, -0.030777832493185997f, -0.10659785568714142f, -0.1250532865524292f, -0.15618546307086945f, 0.05156019330024719f, 0.005748487077653408f, -0.012974686920642853f, -0.05455503985285759f, -0.005273792892694473f },
  { 0.04959511384367943f, 0.012603671289980412f, -0.021583054214715958f, -0.058752693235874176f, -0.01352011226117611f, 0.09221343696117401f, 0.12015939503908157f, -0.10003849864006042f, -0.10588277876377106f, -0.12845072150230408f, -0.05967916175723076f, 0.033716749399900436f, 0.013445449993014336f, -0.013847939670085907f, -0.07228747755289078f, -0.013510473072528839f },
  { 0.047096386551856995f, -0.01808214746415615f, 0.035689227283000946f, -0.08745919167995453f, 0.04010956361889839f, 0.13973850011825562f, 0.21325558423995972f, 0.08575233072042465f, 0.06667167693376541f, 0.02359873428940773f, 0.04167831689119339f, 0.08006763458251953f, -0.007194306701421738f, -0.03050953336060047f, -0.06698223948478699f, -0.00953227374702692f },
  { -0.04091351851820946f, -0.010958420112729073f, -0.01720304600894451f, 0.016006391495466232f, -0.05819185450673103f, 0.0257592611014843f, 0.18095164000988007f, 0.096998430788517f, -0.0023572216741740704f, 0.046481903642416f, -0.008259929716587067f, 0.039226971566677094f, -0.04831022396683693f, -0.03984891623258591f, -0.05843685567378998f, -0.011074252426624298f },
  { -0.01721937209367752f, -0.03340519964694977f, 0.08984778821468353f, 0.08516039699316025f, 0.08438612520694733f, -0.07345511764287949f, 0.008296776562929153f, 0.007814102806150913f, 0.046511370688676834f, -0.08817656338214874f, -0.04217194393277168f, 0.012997918762266636f, -0.001387744559906423f, 0.010521242395043373f, -0.043579135090112686f, 0.005555412266403437f },
  { -0.015205888077616692f, -0.008524337783455849f, 0.09200341999530792f, 0.15070386230945587f, 0.039178621023893356f, -0.09424220025539398f, 0.012314326129853725f, 0.05414161458611488f, 0.042899616062641144f, -0.05535563826560974f, -0.1637233942747116f, 0.022962359711527824f, 0.05691474676132202f, 0.07364396005868912f, -0.01135620754212141f, -0.015811480581760406f },
  { 0.05271439626812935f, -0.0041324542835354805f, 0.049069084227085114f, -0.03519317880272865f, -0.07635197788476944f, -0.17942635715007782f, -0.03689359873533249f, 0.05552035570144653f, 0.07691239565610886f, -0.08886391669511795f, -0.16301417350769043f, -0.028422825038433075f, 0.07605024427175522f, 0.10200457274913788f, 0.020153475925326347f, 0.0007875108276493847f },
  { 0.07872436195611954f, 0.04353366047143936f, 0.013557267375290394f, -0.041829343885183334f, -0.11997167021036148f, -0.09537696093320847f, 0.06589817255735397f, 0.009894438087940216f, 0.04679592698812485f, -0.033541712909936905f, -0.02438773587346077f, 0.045035578310489655f, 0.07049564272165298f, 0.08952499181032181f, -0.015964200720191002f, 0.00645415298640728f },
  { 0.10754778236150742f, 0.05441678315401077f, 0.07801651209592819f, 0.0004718218697234988f, -0.021073967218399048f, -0.03630753234028816f, 0.07271590083837509f, 0.09855388104915619f, 0.04326607659459114f, 0.06514754891395569f, -0.04203510656952858f, 0.07350310683250427f, 0.05338018760085106f, 0.054594896733760834f, 0.004592842422425747f, 0.020936259999871254f },
  { 0.04710835963487625f, 0.03594495356082916f, 0.05254368111491203f, 0.002281377324834466f, -0.13208134472370148f, -0.1409679502248764f, 0.02542795240879059f, 0.004858412779867649f, 0.06252652406692505f, -0.05636535584926605f, -0.06210977956652641f, -0.045601144433021545f, -0.0056309811770915985f, 0.07174047082662582f, 0.013320772908627987f, -0.019618814811110497f },
  { 0.023261526599526405f, 0.00022137303312774748f, 0.0008907659794203937f, -0.0760641023516655f, -0.12196940183639526f, -0.15786555409431458f, -0.05573993921279907f, -0.02253911644220352f, -0.011684872210025787f, 0.004541072994470596f, -0.13079997897148132f, -0.0521916002035141f, -0.01987132988870144f, 0.07318409532308578f, 0.05370103940367699f, 0.02062419429421425f },
  { 0.0004994442570023239f, -0.017168406397104263f, 0.01220785267651081f, -0.035387542098760605f, -0.06199529021978378f, -0.06479768455028534f, 0.004777500871568918f, -0.040323656052351f, 0.013782369904220104f, -0.0010717411059886217f, -0.06450624018907547f, -0.026708044111728668f, -0.015191965736448765f, 0.04508432000875473f, 0.02385195717215538f, 0.013699849136173725f },
  { 0.02232878841459751f, 0.008917140774428844f, 0.008052738383412361f, -0.018208052963018417f, -0.012557918205857277f, -0.037112969905138016f, 0.02105245552957058f, 0.025539536029100418f, 0.043654631823301315f, 0.060766905546188354f, -0.01212479267269373f, 0.01424134150147438f, -0.007582600228488445f, 0.02368786744773388f, -1.4444602811636287e-06f, -0.008868865668773651f } },
  { { -0.0036481015849858522f, -0.01485785935074091f, 0.034822192043066025f, 0.006295276805758476f, 0.027799151837825775f, 0.0018573779379948974f, -0.009825414046645164f, -0.05674096941947937f, -0.012460554018616676f, -0.01335276011377573f, -0.04840986058115959f, 0.02810904197394848f, 0.017831366509199142f, 0.0380854532122612f, -0.008808877319097519f, 0.044889770448207855f },
  { 0.008647794835269451f, 0.029959412291646004f, 0.023287542164325714f, -0.026292212307453156f, 0.028320664539933205f, -0.0023327989038079977f, 0.0669301450252533f, 0.07494762539863586f, 0.04919440299272537f, 0.023514512926340103f, -0.006759174633771181f, 0.08986092358827591f, 0.06134500727057457f, 0.03865688666701317f, -0.0007983495015650988f, 0.03229013457894325f },
  { -0.032370079308748245f, -0.06040140613913536f, -0.03910738229751587f, -0.04780806601047516f, -0.04625227674841881f, -0.008365302346646786f, 0.11905526369810104f, 0.04855053871870041f, 0.07707276195287704f, -0.05952896922826767f, -0.019430816173553467f, 0.03449279069900513f, 0.06708262860774994f, 0.029094219207763672f, -0.03863293677568436f, 0.04242824763059616f },
  { -0.044204894453287125f, -0.037341054528951645f, -0.026965245604515076f, -0.10695327818393707f, 0.011688404716551304f, 0.053880684077739716f, -0.02650895155966282f, 0.03726010024547577f, -0.12825502455234528f, -0.12009572982788086f, -0.12585784494876862f, 0.09639555960893631f, 0.05843225121498108f, 0.017512494698166847f, -0.059635721147060394f, 0.03193529695272446f },
  { -0.03905833885073662f, -0.050943177193403244f, -0.0777936652302742f, -0.0816064327955246f, -0.01853908970952034f, 0.0674050971865654f, 0.15702107548713684f, -0.08792617917060852f, -0.10600151866674423f, -0.1572340875864029f, -0.005234121344983578f, 0.03252459317445755f, 0.038169991225004196f, -0.02935655042529106f, -0.06572200357913971f, -0.009869130328297615f },
  { -0.032657478004693985f, -0.0743618756532669f, -0.04276610165834427f, -0.16574041545391083f, 0.030420226976275444f, 0.16637766361236572f, 0.2281579077243805f, 0.11292655020952225f, 0.07411468774080276f, -0.009318184107542038f, 0.07608549296855927f, 0.0762433260679245f, -0.009206297807395458f, -0.053183071315288544f, -0.05649002268910408f, 0.010768197476863861f },
  { -0.14432699978351593f, -0.10569119453430176f, -0.054164137691259384f, -0.001322116469964385f, -0.10759594291448593f, 0.010191566310822964f, 0.1828155219554901f, 0.10577964037656784f, -0.08192446082830429f, 0.026338286697864532f, -0.046515777707099915f, 0.013517064973711967f, -0.055722109973430634f, -0.06411504000425339f, -0.04939395934343338f, 0.016171379014849663f },
  { -0.12163951992988586f, -0.12190636247396469f, 0.07150446623563766f, 0.07199229300022125f, 0.10969594866037369f, -0.08338777720928192f, -0.03452279791235924f, -0.037914879620075226f, 0.0066041359677910805f, -0.1730126291513443f, -0.08993720263242722f, -0.041738592088222504f, -0.017447618767619133f, 0.007711357437074184f, -0.0463830940425396f, 0.014393752440810204f },
  { -0.10129018872976303f, -0.07695433497428894f, 0.07074803858995438f, 0.17953498661518097f, 0.04470931738615036f, -0.08623206615447998f, 0.012806112878024578f, 0.11283276975154877f, 0.004672149661928415f, -0.08988786488771439f, -0.26181110739707947f, -0.058282166719436646f, 0.03926872834563255f, 0.04751615971326828f, 0.010618331842124462f, -0.023582475259900093f },
  { -0.004031552467495203f, -0.04667515680193901f, 0.05417073518037796f, -0.04531342536211014f, -0.02876233495771885f, -0.14715994894504547f, -0.03040541149675846f, 0.12930268049240112f, 0.08962222933769226f, -0.18764743208885193f, -0.23790079355239868f, -0.09463109076023102f, 0.08423535525798798f, 0.10182049125432968f, 0.015485769137740135f, 0.01612158678472042f },
  { 0.04466300830245018f, 0.02822885848581791f, 0.03202298283576965f, -0.004025722853839397f, -0.09210636466741562f, -0.05295272544026375f, 0.14333859086036682f, 0.07282734662294388f, 0.09446821361780167f, -0.08140580356121063f, -0.04213963821530342f, -0.014399411156773567f, 0.06534961611032486f, 0.09698714315891266f, 0.015267807990312576f, 0.021405600011348724f },
  { 0.07526392489671707f, 0.04408467188477516f, 0.12830132246017456f, 0.03388374298810959f, 0.055944204330444336f, 0.04540509358048439f, 0.127170130610466f, 0.20814046263694763f, 0.04812907800078392f, 0.0723089650273323f, -0.051447536796331406f, 0.06376170367002487f, 0.07750777900218964f, 0.04984759911894798f, -0.004028491210192442f, 0.012937388382852077f },
  { 0.022528035566210747f, 0.021815169602632523f, 0.09397571533918381f, 0.03352443873882294f, -0.08821454644203186f, -0.08773139119148254f, 0.07544701546430588f, 0.045192498713731766f, 0.06757398694753647f, -0.10027774423360825f, -0.055085018277168274f, -0.09001745283603668f, -0.016835015267133713f, 0.06813026964664459f, 0.025977235287427902f, 0.004278336651623249f },
  { -0.011564393527805805f, -0.005260413512587547f, 0.0342179536819458f, -0.05476681888103485f, -0.0905664786696434f, -0.14150679111480713f, -0.03125140070915222f, 0.025457806885242462f, -0.006243641953915358f, -0.04052247852087021f, -0.13704107701778412f, -0.11139004677534103f, -0.007150496356189251f, 0.07428717613220215f, 0.06437648087739944f, 0.020480584353208542f },
  { -0.013640214689075947f, -0.017337804660201073f, 0.024980174377560616f, -0.01742648519575596f, -0.053377360105514526f, -0.04664512351155281f, 0.006153122987598181f, -0.0039487662725150585f, 0.0179169699549675f, -0.0270205307751894f, -0.06311377882957458f, -0.03715399652719498f, -0.016770748421549797f, 0.06126217916607857f, 0.030832305550575256f, 0.018141044303774834f },
  { 0.019055239856243134f, 0.011662081815302372f, 0.03244628384709358f, -0.02668011374771595f, 0.027042845264077187f, 0.0056891306303441525f, 0.038410771638154984f, 0.04210761561989784f, 0.05433197692036629f, 0.012686282396316528f, -0.015055794268846512f, -0.012557955458760262f, -0.0019278726540505886f, 0.03922494873404503f, -0.005519692320376635f, -0.0013733042869716883f } },
  { { 0.016437143087387085f, 0.00964649859815836f, 0.04503151401877403f, 0.025167640298604965f, 0.06341425329446793f, 0.02955135516822338f, -0.005476850084960461f, -0.02701232023537159f, 0.020448358729481697f, -0.015087115578353405f, -0.021851830184459686f, 0.008021906949579716f, 0.009379185736179352f, 0.017947673797607422f, -0.017189787700772285f, 0.008467108942568302f },
  { 0.005482782144099474f, 0.016480932012200356f, 0.054910145699977875f, 0.0011742926435545087f, 0.03441689535975456f, 0.033944498747587204f, 0.05229714512825012f, 0.06291882693767548f, 0.052425023168325424f, 0.01598527282476425f, -0.001921245246194303f, 0.05168764665722847f, 0.04878530278801918f, 0.024974491447210312f, -0.033580224961042404f, 0.009554700925946236f },
  { -0.01266228873282671f, -0.019913043826818466f, 0.007951317355036736f, -0.02635970711708069f, -0.006325288210064173f, 0.010260790586471558f, 0.07608591765165329f, 0.08208931237459183f, 0.06864120811223984f, -0.02550221048295498f, -0.00076643395004794f, 0.028550034388899803f, 0.05378950387239456f, 0.004833636339753866f, -0.03731358423829079f, -0.004054436460137367f },
  { 0.00020655726257245988f, -0.009403685107827187f, 0.010969064198434353f, -0.03524071350693703f, 0.017681851983070374f, 0.04904277250170708f, 0.009519437327980995f, 0.027433166280388832f, -0.035546742379665375f, -0.06277863681316376f, -0.022052669897675514f, 0.050961341708898544f, 0.060748789459466934f, 0.022448888048529625f, -0.03868846222758293f, -0.017616769298911095f },
  { -0.01359885185956955f, -0.00963339488953352f, -0.0025801348965615034f, -0.07254976034164429f, 0.005287826061248779f, 0.06727556884288788f, 0.07259610295295715f, -0.037764061242341995f, -0.0463942214846611f, -0.06734532862901688f, 0.009686820209026337f, 0.030614003539085388f, 0.03280068188905716f, -0.011692623607814312f, -0.056727707386016846f, -0.028542565181851387f },
  { -0.010997391305863857f, -0.032826345413923264f, -0.008130540139973164f, -0.08832523971796036f, 0.02673208713531494f, 0.10380382090806961f, 0.1553388088941574f, 0.07064154744148254f, 0.013971028849482536f, 0.030028648674488068f, 0.08548428863286972f, 0.07744727283716202f, 0.011762688867747784f, -0.0076677086763083935f, -0.04091554507613182f, -0.01887206733226776f },
  { -0.08939065039157867f, -0.06598357111215591f, -0.011082794517278671f, -0.034601159393787384f, -0.07635719329118729f, -0.02535560354590416f, 0.042775969952344894f, -0.014462469145655632f, -0.06880418211221695f, -0.034173209220170975f, 0.0168450977653265f, 0.03330564126372337f, -0.0036588350776582956f, -0.03669432923197746f, -0.05414796993136406f, -0.019335199147462845f },
  { -0.09381910413503647f, -0.07921011745929718f, 0.05353715643286705f, 0.04618176445364952f, 0.02967721037566662f, -0.1036989763379097f, -0.08287759125232697f, -0.07120439410209656f, -0.08171162754297256f, -0.10851229727268219f, -0.046216584742069244f, -0.01931917294859886f, 0.02130318060517311f, -0.011592640541493893f, -0.03829362615942955f, -0.017583897337317467f },
  { -0.057246554642915726f, -0.06302223354578018f, 0.01186781469732523f, 0.06743596494197845f, 0.011699358001351357f, -0.10096763074398041f, -0.0697261318564415f, 0.02244778349995613f, -0.01735956221818924f, -0.10980723053216934f, -0.16271285712718964f, -0.05179295316338539f, 0.034182146191596985f, 0.04836723953485489f, -0.02161298505961895f, -0.014767544344067574f },
  { -0.010531236417591572f, -0.02899550087749958f, 0.03013305924832821f, -0.03500477969646454f, -0.08904093503952026f, -0.1581922322511673f, -0.04163583368062973f, 0.05588284879922867f, 0.019727125763893127f, -0.14692194759845734f, -0.17354610562324524f, -0.06504316627979279f, 0.058730173856019974f, 0.07679270952939987f, 0.006712682545185089f, -0.0010652747005224228f },
  { 0.0266072079539299f, 0.008851280435919762f, 0.03235828876495361f, -0.024792812764644623f, -0.06813555210828781f, -0.05765366554260254f, 0.021091630682349205f, 0.042633622884750366f, 0.004030735697597265f, -0.08127540349960327f, -0.06827486306428909f, 0.0016786176711320877f, 0.06759209930896759f, 0.05548196658492088f, 0.01976156048476696f, 0.026519011706113815f },
  { 0.05421551689505577f, 0.039800312370061874f, 0.0959114357829094f, 0.03704579547047615f, 0.027127547189593315f, 0.024333268404006958f, 0.07903782278299332f, 0.08910131454467773f, 0.03413533419370651f, 0.0006995066651143134f, 0.006350771989673376f, 0.033518433570861816f, 0.05157105252146721f, 0.05184514820575714f, 0.001540019758976996f, 0.01609792374074459f },
  { 0.023966025561094284f, 0.0400734581053257f, 0.08400485664606094f, 0.03862105309963226f, -0.019325852394104004f, -0.04075106233358383f, 0.02351517230272293f, 0.04447992518544197f, 0.025135202333331108f, -0.02860046736896038f, -0.039402272552251816f, -0.02971413917839527f, 0.02885505184531212f, 0.06117377057671547f, 0.030390335246920586f, -0.007115382235497236f },
  { -0.0024589712265878916f, 0.025957638397812843f, 0.049429651349782944f, -0.02120964601635933f, -0.03538541495800018f, -0.05066521093249321f, -0.0038461044896394014f, 0.01865156926214695f, -0.0008605890325270593f, -0.02123369835317135f, -0.06998763978481293f, -0.05482823774218559f, 0.007724008057266474f, 0.07602785527706146f, 0.03636084496974945f, 0.02620398811995983f },
  { 0.00496240658685565f, 0.023487117141485214f, 0.06619472056627274f, 0.010040397755801678f, 0.01948370598256588f, 0.01605442352592945f, 0.03560212627053261f, 0.028146877884864807f, 0.02150767482817173f, 0.014725877903401852f, -0.02015194296836853f, -0.03371671214699745f, 0.023130672052502632f, 0.05964680761098862f, 0.041469506919384f, 0.027644723653793335f },
  { 0.05411272495985031f, 0.05746722221374512f, 0.07401463389396667f, 0.027537504211068153f, 0.047674551606178284f, 0.03709746152162552f, 0.047942619770765305f, 0.050400927662849426f, 0.037683047354221344f, 0.024219805374741554f, 0.01940641552209854f, 0.022693831473588943f, 0.03534642979502678f, 0.04864664003252983f, 0.019157277420163155f, -0.001246637082658708f } } },
  { { { 0.05658010020852089f, 1.8384178474661894e-05f, 0.008556951768696308f, 0.015375322662293911f, 0.02569562755525112f, 0.026178792119026184f, 0.02848850004374981f, -0.01673186384141445f, 0.004391578026115894f, 0.025784412398934364f, 0.01844724267721176f, 0.04837236925959587f, -0.021074561402201653f, -0.006408500950783491f, -0.04557102173566818f, -0.018265951424837112f },
  { 0.03968368098139763f, -0.006104705855250359f, -0.04724997654557228f, -0.04858240857720375f, -0.009222096763551235f, -0.01569926179945469f, 0.0021983557380735874f, -0.007004285231232643f, 0.006519685499370098f, 0.052974581718444824f, 0.05261082947254181f, 0.06954163312911987f, 0.015218171291053295f, 0.008386318571865559f, -0.00441379239782691f, 0.02755625918507576f },
  { 0.06892810761928558f, 0.009699399583041668f, -0.059169866144657135f, -0.09200642257928848f, -0.06623473018407822f, -0.06795936822891235f, -0.026633551344275475f, -0.025116948410868645f, -0.014346637763082981f, 0.029719147831201553f, 0.028546171262860298f, 0.05000731348991394f, -0.04077109694480896f, -0.013545527122914791f, -0.007395243272185326f, 0.025073237717151642f },
  { 0.08790062367916107f, 0.05290444567799568f, 0.007429799064993858f, -0.05319615826010704f, -0.07509369403123856f, -0.07381640374660492f, -0.04331234470009804f, -0.022449810057878494f, -0.02392340824007988f, -0.011568655259907246f, 0.009970159269869328f, 0.01149564515799284f, -0.08708222210407257f, -0.01911686360836029f, 0.012850020080804825f, 0.03453763946890831f },
  { 0.036600131541490555f, 0.05042474716901779f, 0.010791128501296043f, -0.06789609044790268f, -0.06772992759943008f, -0.04684172570705414f, -0.008579753339290619f, -0.06799584627151489f, -0.0466756746172905f, 0.006803478579968214f, 0.032176773995161057f, -0.007561657577753067f, -0.08397156745195389f, 0.0001749044458847493f, 0.014688738621771336f, 0.02432018704712391f },
  { 0.03194310516119003f, 0.007698848377913237f, -0.03772163391113281f, -0.11179658770561218f, -0.09160514175891876f, -0.0035295074339956045f, 0.010735010728240013f, -0.10944831371307373f, -0.07847705483436584f, 0.04433799535036087f, 0.02341596968472004f, 0.023386379703879356f, 0.0008382074302062392f, 0.07124273478984833f, 0.04618808999657631f, 0.013457776978611946f },
  { 0.020479418337345123f, -0.020006857812404633f, -0.06280005723237991f, -0.08049739897251129f, -0.05124923214316368f, 0.019301291555166245f, 0.06796817481517792f, -0.10643752664327621f, -0.07055026292800903f, 0.06008582562208176f, -0.03679274022579193f, -0.028634121641516685f, 0.0013575737830251455f, 0.07777506113052368f, 0.011305509135127068f, -0.013531829230487347f },
  { 0.038499865680933f, -0.0052498504519462585f, -0.0010563707910478115f, 0.02317150868475437f, 0.02617521584033966f, 0.07673890143632889f, 0.16098685562610626f, 0.026141662150621414f, 0.04049568623304367f, 0.07406783103942871f, -0.03399233520030975f, -0.05870332568883896f, -0.017643209546804428f, 0.037557512521743774f, -0.006578295491635799f, 0.004809392616152763f },
  { -0.02939796820282936f, -0.08057251572608948f, -0.06566106528043747f, -0.06365256756544113f, -0.08565527200698853f, -0.021611280739307404f, 0.08801676332950592f, -0.03647174686193466f, -0.08094895631074905f, -0.04685695096850395f, -0.08565323799848557f, -0.09776781499385834f, -0.08941394835710526f, -0.03681338578462601f, -0.04916641116142273f, -0.032047245651483536f },
  { -0.04412999004125595f, -0.11251126229763031f, -0.06169677525758743f, -0.07662138342857361f, -0.06956341862678528f, -0.0020818044431507587f, 0.1163201853632927f, 0.003073244821280241f, -0.07436489313840866f, -0.04539141058921814f, -0.06838726997375488f, 0.0011828362476080656f, -0.01177526731044054f, 0.012559425085783005f, -0.03784429654479027f, -0.023222465068101883f },
  { -0.02163274772465229f, -0.07289756834506989f, 0.0036661422345787287f, 0.03842705860733986f, 0.04572207108139992f, 0.06828656047582626f, 0.13143835961818695f, 0.06833822280168533f, 0.013803764246404171f, 0.025866422802209854f, -0.0048037199303507805f, 0.04887371510267258f, 0.09772487729787827f, 0.0923181027173996f, -0.001755595556460321f, 0.012075270526111126f },
  { 0.013607088476419449f, -0.03735444322228432f, 0.027133574709296227f, 0.052685655653476715f, 0.05187036842107773f, -0.00046818549162708223f, -0.04624634236097336f, -0.04738008603453636f, 0.03592519089579582f, 0.08166873455047607f, -0.031573373824357986f, 0.01660086400806904f, 0.04562671110033989f, 0.06000810116529465f, 0.008434527553617954f, 0.032404135912656784f },
  { 0.023840876296162605f, -0.009449969977140427f, -0.0018649976700544357f, 0.008608574979007244f, -0.007015563547611237f, -0.11043998599052429f, -0.1921987384557724f, -0.13636153936386108f, 0.01866043172776699f, 0.03288246691226959f, -0.08697321265935898f, -0.0807095393538475f, -0.05943254381418228f, -0.017892025411128998f, -0.03432787209749222f, 0.022149333730340004f },
  { 0.061614926904439926f, 0.012523924000561237f, 0.011733443476259708f, 0.061368949711322784f, 0.0423489511013031f, -0.050077516585588455f, -0.0935266762971878f, -0.06076996028423309f, 0.042024679481983185f, 0.030499599874019623f, -0.06901739537715912f, -0.0450873039662838f, -0.06930792331695557f, -0.0353630855679512f, -0.032640062272548676f, 0.047882016748189926f },
  { 0.01880384050309658f, -0.006968976464122534f, -0.00148613634519279f, 0.039518240839242935f, 0.06239255890250206f, 0.01945091225206852f, -0.0012413145741447806f, -0.03666401281952858f, -0.013284333050251007f, -0.0021589528769254684f, -0.04677077382802963f, -0.011585921049118042f, -0.034560464322566986f, -0.014512582682073116f, -0.04162406176328659f, 0.023171596229076385f },
  { -0.034219879657030106f, -0.0662228912115097f, -0.036049872636795044f, 0.030783234164118767f, 0.06550440192222595f, 0.0365578830242157f, 0.004963120445609093f, -0.08680526167154312f, -0.11506780982017517f, -0.08539032191038132f, -0.05608762055635452f, 0.03901563212275505f, -0.0025323275476694107f, 0.005696921143680811f, -0.042031239718198776f, 0.017990097403526306f } },
  { { 0.02634480595588684f, -0.022380413487553596f, 0.00456996401771903f, 0.004125518724322319f, 0.05290916934609413f, 0.05462327599525452f, 0.030022991821169853f, 0.00492184329777956f, -0.03513491526246071f, -0.004022803157567978f, -0.0056227114982903f, 0.017249897122383118f, -0.045767348259687424f, -0.026460502296686172f, -0.07727009803056717f, -0.040067531168460846f },
  { 0.05031285434961319f, -0.02002972550690174f, -0.038775403052568436f, -0.05116511881351471f, 0.046605344861745834f, 0.03483208268880844f, 0.04150724783539772f, 0.03706523776054382f, 0.01455303281545639f, 0.03694524988532066f, 0.062089089304208755f, 0.054526906460523605f, -0.00069857994094491f, -0.002311526332050562f, -0.019462743774056435f, -0.010756004601716995f },
  { 0.06003938615322113f, -0.014474975876510143f, -0.03368687629699707f, -0.06850966066122055f, -0.0114163588732481f, -0.018882079049944878f, -0.002634581411257386f, 0.014971023425459862f, -0.005835674703121185f, 0.003364297328516841f, 0.056669700890779495f, 0.04364599660038948f, -0.044862300157547f, -0.029534004628658295f, -0.03547324240207672f, 0.005705012008547783f },
  { 0.07218494266271591f, 0.05590628460049629f, 0.04607989639043808f, -0.013341161422431469f, 0.021553775295615196f, -0.029972156509757042f, 0.003506256965920329f, 0.06702151149511337f, 0.0021576432045549154f, 0.008167499676346779f, 0.04330701380968094f, 0.03667277842760086f, -0.09231457114219666f, -0.029637563973665237f, 0.003527210559695959f, 0.02459048666059971f },
  { 0.02443087100982666f, 0.08259273320436478f, 0.049511849880218506f, -0.021994587033987045f, -0.00652633560821414f, 0.010571587830781937f, 0.054231006652116776f, 0.03236565366387367f, 0.021136943250894547f, 0.05198762193322182f, 0.0657336488366127f, 0.01965288259088993f, -0.07623887062072754f, -0.008173356764018536f, 0.021649038419127464f, 0.003596210852265358f },
  { 0.018446017056703568f, 0.027596691623330116f, 0.004396914504468441f, -0.12254385650157928f, -0.05726062133908272f, 0.07017119973897934f, 0.0775822326540947f, -0.027477189898490906f, -0.00641652150079608f, 0.11498111486434937f, 0.08299552649259567f, 0.04364241659641266f, 0.047555990517139435f, 0.10530319064855576f, 0.0549832321703434f, 0.006361158564686775f },
  { 0.015723275020718575f, -0.03480378910899162f, -0.0673038586974144f, -0.0956479012966156f, -0.016255328431725502f, 0.09900200366973877f, 0.10907039791345596f, -0.044521886855363846f, -0.03151482343673706f, 0.12658599019050598f, 0.021239547058939934f, 0.014135698787868023f, 0.05338623374700546f, 0.09315900504589081f, 0.017001871019601822f, -0.05311333015561104f },
  { 0.02685890905559063f, -0.016810156404972076f, -0.005086404271423817f, 0.014790141955018044f, 0.0688847005367279f, 0.11953048408031464f, 0.1458178460597992f, 0.007664749398827553f, 0.011483265087008476f, 0.09611312299966812f, 0.03769781440496445f, -0.01991281658411026f, -0.0003172240685671568f, 0.05727115646004677f, -0.017230099067091942f, -0.04886571317911148f },
  { -0.05057896301150322f, -0.09954459220170975f, -0.09057555347681046f, -0.08448845893144608f, -0.08026339113712311f, -0.053369417786598206f, 0.01993250474333763f, -0.10745883733034134f, -0.17438097298145294f, -0.0319257527589798f, -0.053407806903123856f, -0.062339670956134796f, -0.06304651498794556f, -0.03581976145505905f, -0.08723355829715729f, -0.10900359600782394f },
  { -0.04883776605129242f, -0.12871190905570984f, -0.07326474785804749f, -0.11543307453393936f, -0.09752973169088364f, -0.03285914286971092f, 0.06065341830253601f, -0.050220414996147156f, -0.13950641453266144f, -0.05420956388115883f, -0.00324683403596282f, 0.02484426274895668f, 0.046089667826890945f, 0.02928343415260315f, -0.05985889211297035f, -0.06099071353673935f },
  { -0.011168374679982662f, -0.0675107091665268f, 0.0026089162565767765f, 0.02069750241935253f, 0.01621110737323761f, 0.03133436664938927f, 0.10299592465162277f, 0.051870811730623245f, 0.02166726253926754f, 0.0568026527762413f, 0.03898509219288826f, 0.1046324223279953f, 0.11174893379211426f, 0.11242063343524933f, -0.00334912515245378f, -0.04817226901650429f },
  { 0.02391389198601246f, -0.022445596754550934f, 0.031594160944223404f, 0.057259541004896164f, 0.048181574791669846f, -0.055536773055791855f, -0.097933828830719f, -0.03533165901899338f, 0.09605111181735992f, 0.11669692397117615f, 0.015206718817353249f, 0.038917411118745804f, 0.06385432928800583f, 0.07034473121166229f, -0.008042220026254654f, -0.009605449624359608f },
  { 0.042719218879938126f, 0.00519718648865819f, 0.06074277311563492f, 0.055016856640577316f, 0.01193416677415371f, -0.14076021313667297f, -0.2284037321805954f, -0.12341948598623276f, 0.08051817864179611f, 0.08945824950933456f, -0.026762256398797035f, -0.0450090616941452f, -0.02113215997815132f, -0.009256778284907341f, -0.04372372105717659f, 0.003138062311336398f },
  { 0.07056353241205215f, 0.024836940690875053f, 0.08687394857406616f, 0.08871320635080338f, 0.11065855622291565f, -0.008865340612828732f, -0.08644292503595352f, -0.00420307507738471f, 0.07699178904294968f, 0.08109048008918762f, -0.015481230802834034f, -0.024104777723550797f, -0.03924195468425751f, -0.020929627120494843f, -0.04888540878891945f, 0.017203636467456818f },
  { 0.0678362026810646f, 0.014341741800308228f, 0.060111355036497116f, 0.1012805700302124f, 0.14553296566009521f, 0.09628517925739288f, 0.06542856991291046f, 0.05425357446074486f, 0.05523272976279259f, 0.05193163827061653f, 0.012184814549982548f, 0.057496584951877594f, -0.002616647630929947f, 0.009219901636242867f, -0.04370633512735367f, 0.0010698894038796425f },
  { -0.009392415173351765f, -0.027978461235761642f, 0.02323642000555992f, 0.07939828932285309f, 0.14159883558750153f, 0.10418464988470078f, 0.0772729218006134f, -0.0008288375684060156f, -0.06598924845457077f, -0.03356783092021942f, 0.018735697492957115f, 0.08666691929101944f, 0.05112756788730621f, 0.0258842334151268f, -0.025595838204026222f, -0.00698840944096446f } },
  { { 0.019205190241336823f, -0.02345886640250683f, 0.006410593632608652f, 0.022220857441425323f, 0.07025445997714996f, 0.044678814709186554f, 0.02369523048400879f, 0.02249237522482872f, 0.005347914528101683f, 0.008344708010554314f, 0.026519885286688805f, 0.020099680870771408f, -0.017409034073352814f, 0.0009263496031053364f, -0.01719513162970543f, -0.004199065733700991f },
  { 0.015198406763374805f, -0.04193763807415962f, -0.017484402284026146f, -0.02138567343354225f, 0.04718075692653656f, 0.015390676446259022f, 0.019241493195295334f, 0.025256095454096794f, 0.0020734479185193777f, 0.024123677983880043f, 0.04983667656779289f, 0.06556490808725357f, 0.012583447620272636f, 0.013385103084146976f, 0.02053111419081688f, 0.038402799516916275f },
  { 0.01340562105178833f, -0.023776009678840637f, -0.042636193335056305f, -0.06473241746425629f, -1.3876565390091855e-06f, -0.032991886138916016f, -0.05601415038108826f, -0.02685542404651642f, -0.06937730312347412f, -0.0674656331539154f, -0.0034536714665591717f, 0.022659484297037125f, -0.014979482628405094f, 0.010947445407509804f, 0.020780056715011597f, 0.042360853403806686f },
  { 0.03540865704417229f, 0.026009859517216682f, 0.024695411324501038f, -0.02452952414751053f, -0.015046626329421997f, -0.06513296812772751f, -0.0628083273768425f, -0.0008002680260688066f, -0.08295965194702148f, -0.09450291842222214f, -0.031084397807717323f, -0.015359201468527317f, -0.046517353504896164f, -0.0029161921702325344f, 0.03478877246379852f, 0.05190558731555939f },
  { -0.01080260332673788f, 0.009987059980630875f, 0.04057592898607254f, -0.029429491609334946f, -0.031798169016838074f, -0.04514877125620842f, -0.011543436907231808f, -0.008450579829514027f, -0.056755732744932175f, -0.061998188495635986f, -0.03516533970832825f, -0.05385439470410347f, -0.059084702283144f, 0.026226399466395378f, 0.049623481929302216f, 0.045317817479372025f },
  { -0.012005502358078957f, -0.024251556023955345f, -0.014723433181643486f, -0.08490942418575287f, -0.04898937791585922f, 0.03410149738192558f, 0.036200784146785736f, -0.025859341025352478f, -0.051460105925798416f, -0.0026107344310730696f, -0.026104632765054703f, -0.02866877242922783f, 0.012866049073636532f, 0.09096544981002808f, 0.0699102133512497f, 0.04390469193458557f },
  { -0.020007213577628136f, -0.043667424470186234f, -0.03583936020731926f, -0.05856938660144806f, 0.020515186712145805f, 0.07271339744329453f, 0.061234112828969955f, -0.08435416221618652f, -0.07580720633268356f, 0.008579149842262268f, -0.018892547115683556f, -0.028672298416495323f, 0.03536086156964302f, 0.09395164251327515f, 0.06317869573831558f, 0.007612966932356358f },
  { 0.000832877354696393f, -0.008589950390160084f, 0.06276584416627884f, 0.06896594911813736f, 0.125624418258667f, 0.12033720314502716f, 0.0679677352309227f, -0.09402333945035934f, -0.08995259553194046f, 0.041474562138319016f, 0.04455601051449776f, 0.0050063165836036205f, 0.031975019723176956f, 0.06748379021883011f, 0.028996312990784645f, 0.012392786331474781f },
  { -0.0681457445025444f, -0.0691465213894844f, -0.008107848465442657f, -0.006584702990949154f, 0.032632507383823395f, 0.027819015085697174f, -0.010798039846122265f, -0.13547785580158234f, -0.19430972635746002f, -0.05964120849967003f, 0.011185457929968834f, 0.0017301385523751378f, -0.013523397035896778f, 0.006250644568353891f, -0.026300333440303802f, -0.022506842389702797f },
  { -0.03640570864081383f, -0.06865513324737549f, -0.006105267908424139f, -0.02080370858311653f, 0.008029120974242687f, 0.07452279329299927f, 0.07233510911464691f, -0.0489514097571373f, -0.11861521005630493f, 0.0031007120851427317f, 0.05855138972401619f, 0.060504257678985596f, 0.05803413689136505f, 0.03374524787068367f, -0.010294356383383274f, -0.014786907471716404f },
  { -0.01953204907476902f, -0.05121556669473648f, 0.019653504714369774f, 0.03749455139040947f, 0.06987818330526352f, 0.10101782530546188f, 0.12462353706359863f, 0.09442656487226486f, 0.052896104753017426f, 0.06851735711097717f, 0.05929403752088547f, 0.07847258448600769f, 0.09121626615524292f, 0.08678371459245682f, 0.015328936278820038f, 0.0063726408407092094f },
  { -0.019520051777362823f, -0.03929506987333298f, 0.032374706119298935f, 0.03632528707385063f, 0.04264645650982857f, -0.012371914461255074f, -0.024430174380540848f, 0.01526492740958929f, 0.08952134847640991f, 0.0665692463517189f, 0.00890179444104433f, 0.02181467041373253f, 0.05285412073135376f, 0.0564437173306942f, -0.008798103779554367f, 0.005615649279206991f },
  { 0.019667305052280426f, -0.002996980445459485f, 0.048052795231342316f, 0.0325903482735157f, 0.012601816095411777f, -0.08734413236379623f, -0.1309603452682495f, -0.04143430292606354f, 0.05866481736302376f, 0.06594586372375488f, -0.03126644343137741f, -0.024639807641506195f, -0.011854954995214939f, 0.005106094293296337f, -0.015043583698570728f, 0.017681431025266647f },
  { 0.03924020752310753f, -0.0042602564208209515f, 0.0486995205283165f, 0.0375932939350605f, 0.05791543796658516f, -0.03421716019511223f, -0.0814434289932251f, -0.018298257142305374f, 0.04306776449084282f, 0.027924858033657074f, -0.031857799738645554f, -0.04015596956014633f, -0.023581678047776222f, -0.030670257285237312f, -0.044981058686971664f, 0.012692758813500404f },
  { 0.021536940708756447f, -0.005748376250267029f, 0.028271635994315147f, 0.03140854835510254f, 0.06289484351873398f, 0.03207265958189964f, 0.009910611435770988f, 0.00721939979121089f, 0.017405470833182335f, 0.009460357949137688f, -0.0008974437951110303f, 0.0028305817395448685f, -0.01495761051774025f, -0.013831494376063347f, -0.04205216094851494f, -0.0038620401173830032f },
  { -0.030617475509643555f, -0.06225381791591644f, -0.010738179087638855f, 0.02029191330075264f, 0.07093479484319687f, 0.04296232387423515f, -0.004180800169706345f, -0.03281373530626297f, -0.08485109359025955f, -0.05045679211616516f, -0.022868840023875237f, 0.03864385560154915f, 0.015687858685851097f, -0.0036971736699342728f, -0.04750661179423332f, -0.022370990365743637f } } },
  { { { 0.05791286751627922f, 0.02845020405948162f, 0.026161931455135345f, 0.08942102640867233f, 0.07149030268192291f, 0.05484713241457939f, -0.042939767241477966f, 0.046987384557724f, 0.05939435586333275f, 0.07005762308835983f, 0.06780048459768295f, 0.04923440143465996f, 0.039551522582769394f, 0.02819533459842205f, 0.0002200450689997524f, -0.020029481500387192f },
  { 0.0346175953745842f, 0.011002152226865292f, -0.05803200230002403f, 0.02595510147511959f, 0.04045528173446655f, 0.03371033817529678f, -0.06677015870809555f, 0.005350927356630564f, 0.0033443840220570564f, -8.766975224716589e-05f, 0.00519954040646553f, 0.010615745559334755f, 0.02287815511226654f, 0.014527439139783382f, 0.0020129510667175055f, -0.017982641234993935f },
  { -0.004622697364538908f, -0.02536328323185444f, -0.10690335929393768f, -0.047612514346838f, 0.0138854356482625f, 0.03837220370769501f, -0.09373518824577332f, -0.05209357291460037f, -0.09118366986513138f, -0.07179905474185944f, -0.029614632949233055f, -0.03160881996154785f, -0.02967221476137638f, -0.04769439622759819f, -0.03385968506336212f, -0.024986883625388145f },
  { 0.026486104354262352f, 0.03529409319162369f, -0.016579559072852135f, 0.020141348242759705f, -0.0009390722843818367f, 0.03173884004354477f, -0.04754228889942169f, -0.049953434616327286f, -0.08797628432512283f, -0.07757461816072464f, 0.027098190039396286f, -0.002356870798394084f, -0.05842582881450653f, -0.11256131529808044f, -0.052402086555957794f, -0.02568933553993702f },
  { 0.08982150256633759f, 0.09587018191814423f, 0.07676880806684494f, 0.06352598965167999f, -0.044683825224637985f, -0.03510596603155136f, -0.0979367196559906f, -0.009784586727619171f, -0.08026664704084396f, -0.052424948662519455f, 0.09681327641010284f, 0.061518214643001556f, -0.04236149042844772f, -0.1169944629073143f, -0.04803512617945671f, -0.02073930762708187f },
  { 0.08055262267589569f, 0.057548508048057556f, -0.009457089938223362f, 0.008374381810426712f, -0.12979580461978912f, -0.12960124015808105f, -0.09624271839857101f, 0.040921807289123535f, -0.034810539335012436f, -0.07317407429218292f, 0.042368944734334946f, 0.07172996550798416f, 0.021618036553263664f, -0.06104160472750664f, -0.014191522262990475f, -0.02587040513753891f },
  { 0.0509476512670517f, -0.02876676246523857f, -0.07687979191541672f, -0.0786316841840744f, -0.10594987124204636f, -0.09112176299095154f, -0.08163599669933319f, 0.060111843049526215f, 0.07222237437963486f, -0.076905757188797f, -0.0500444732606411f, 0.04172000661492348f, 0.058475568890571594f, -0.05363193526864052f, -0.04597420617938042f, -0.02331615425646305f },
  { 0.032386649399995804f, 0.002070741495117545f, -0.041877809911966324f, 0.04499352350831032f, -0.020412549376487732f, 0.07678554207086563f, 0.0593925379216671f, 0.10199951380491257f, 0.0896514356136322f, 0.008617931976914406f, -0.10043776035308838f, -0.015666011720895767f, 0.021527132019400597f, -0.07075496762990952f, -0.06793899834156036f, -0.05976509302854538f },
  { 0.029969725757837296f, 0.022145245224237442f, 0.011568788439035416f, 0.008868930861353874f, -0.010760627686977386f, 0.12676595151424408f, 0.10073483735322952f, 0.030967289581894875f, -0.010588922537863255f, -0.03771151974797249f, -0.09193160384893417f, -0.07535311579704285f, -0.022197704762220383f, -0.1109681949019432f, -0.10414285212755203f, -0.09048923850059509f },
  { -0.005978923290967941f, 0.030247515067458153f, 0.009659173898398876f, 0.024862293154001236f, -0.05617203935980797f, 0.09474821388721466f, 0.08772091567516327f, 0.06566642224788666f, -0.006896278355270624f, 0.03096049278974533f, 0.015098108910024166f, -0.03989935293793678f, 0.011384716257452965f, -0.014585503377020359f, -0.023537565022706985f, -0.054028697311878204f },
  { 0.006919551640748978f, 0.015282850712537766f, 0.03323249891400337f, 0.03890145197510719f, 0.014552843756973743f, -0.006000866647809744f, -0.02104312554001808f, 0.08984734863042831f, 0.05073723942041397f, 0.0923992469906807f, 0.06446104496717453f, -0.026825232431292534f, 0.016535582020878792f, 0.03574497997760773f, 0.07647094875574112f, 0.024002596735954285f },
  { 0.002218045759946108f, -0.004134859424084425f, 0.016942055895924568f, 0.1000434011220932f, 0.030157562345266342f, -0.02382752113044262f, -0.062123190611600876f, 0.054212022572755814f, 0.05866025388240814f, 0.04683433473110199f, 0.04025968164205551f, -0.09581349045038223f, -0.07679226249456406f, -0.0039565106853842735f, 0.07710090279579163f, 0.06302510201931f },
  { -0.01811753585934639f, -0.038416724652051926f, -0.0213847104460001f, 0.03415163233876228f, 0.03105766512453556f, 0.0059010740369558334f, -0.023142343387007713f, 0.08552798628807068f, -0.023935874924063683f, 0.004780301824212074f, -0.029688121750950813f, -0.10731063783168793f, -0.1277906894683838f, -0.0575333833694458f, 0.040608540177345276f, 0.06013568118214607f },
  { -0.05106485262513161f, -0.05987721309065819f, -0.07121191918849945f, 8.969763439381495e-05f, -0.013556462712585926f, 0.026664599776268005f, 0.000707480008713901f, 0.06704940646886826f, -0.024323267862200737f, -0.07117382436990738f, -0.020940352231264114f, -0.08991517871618271f, -0.10264518857002258f, -0.04262048006057739f, 0.02784070372581482f, 0.06346610188484192f },
  { -0.038156427443027496f, -0.033294927328825f, -0.05262528359889984f, 0.0051064565777778625f, -0.0030009436886757612f, 0.01339245866984129f, -0.004107441753149033f, 0.07506851851940155f, 0.036310140043497086f, 0.018818235024809837f, 0.0097385598346591f, -0.031931228935718536f, -0.014636366628110409f, -0.014390137046575546f, 0.04760631173849106f, 0.05141875892877579f },
  { 0.020917952060699463f, 0.03209032863378525f, 0.007588047068566084f, 0.046822428703308105f, -0.01274079643189907f, 0.009579001925885677f, -0.034006379544734955f, 0.0579855851829052f, 0.07750019431114197f, 0.04859038442373276f, 0.03678032010793686f, -0.012972213327884674f, -0.020962361246347427f, -0.020565973594784737f, 0.034777749329805374f, 0.06272692233324051f } },
  { { 0.03521448001265526f, 0.004714157897979021f, -0.01872573047876358f, 0.0753069818019867f, 0.07825488597154617f, 0.06188352033495903f, -0.014362000860273838f, 0.07589124143123627f, 0.10878241807222366f, 0.1377008557319641f, 0.10085680335760117f, 0.07626108080148697f, 0.059090547263622284f, 0.016339097172021866f, 0.035643283277750015f, 0.003989619202911854f },
  { -0.0008663140470162034f, -0.043997906148433685f, -0.09132383018732071f, 0.025734128430485725f, 0.04924334958195686f, 0.08387184888124466f, -0.027016213163733482f, 0.026064539328217506f, 0.06882955133914948f, 0.07341461628675461f, 0.0535518042743206f, 0.0528758205473423f, 0.06950631737709045f, 0.05787716805934906f, 0.053372323513031006f, 0.04174163192510605f },
  { -0.04849708080291748f, -0.08022681623697281f, -0.12242389470338821f, -0.03979991376399994f, 0.03774890676140785f, 0.07446955889463425f, -0.05749744921922684f, 0.008068814873695374f, -0.06285709887742996f, -0.028769217431545258f, 0.004603635985404253f, 0.04931509494781494f, 0.005139355082064867f, 0.0022996102925390005f, 0.01671769469976425f, 0.028561990708112717f },
  { -0.001636555534787476f, -0.0028961864300072193f, -0.023392513394355774f, 0.05336683988571167f, 0.024919718503952026f, 0.0902184247970581f, 0.05921080708503723f, 0.016186369583010674f, 0.0029376030433923006f, -0.0031814936082810163f, 0.09842899441719055f, 0.07031092792749405f, -0.004567070864140987f, -0.057659734040498734f, 0.0210338793694973f, 0.047967344522476196f },
  { 0.02835482731461525f, 0.08382938802242279f, 0.08684097975492477f, 0.07427563518285751f, 0.009010016918182373f, 0.02828889898955822f, 0.0009287582943215966f, 0.10399826616048813f, 0.004460841417312622f, 0.03569641709327698f, 0.15556181967258453f, 0.17124804854393005f, 0.018589669838547707f, -0.0596921369433403f, 0.021221134811639786f, 0.06382991373538971f },
  { 0.012991729192435741f, 0.041605714708566666f, -0.01843813620507717f, 0.012063424102962017f, -0.1149086281657219f, -0.09972723573446274f, -0.036550406366586685f, 0.11961549520492554f, 0.012439870275557041f, 0.005673237610608339f, 0.10341385751962662f, 0.17831633985042572f, 0.059298738837242126f, -0.006425003055483103f, 0.05430172011256218f, 0.0873367190361023f },
  { -0.048705946654081345f, -0.10458488762378693f, -0.12229687720537186f, -0.10617820173501968f, -0.08861423283815384f, -0.06225842237472534f, -0.075870580971241f, 0.08704229444265366f, 0.09787631034851074f, -0.053032007068395615f, -0.020395439118146896f, 0.10069882869720459f, 0.08868595212697983f, -0.005130277015268803f, 0.03591239079833031f, 0.05632968619465828f },
  { -0.047502752393484116f, -0.06234508380293846f, -0.06996920704841614f, 0.06219150498509407f, -0.0040793223306536674f, 0.11876959353685379f, 0.061485085636377335f, 0.0642736554145813f, 0.057176124304533005f, 0.015839288011193275f, -0.1243123710155487f, 0.0385705940425396f, 0.04448934271931648f, -0.054201677441596985f, -0.02185436710715294f, 0.008475782349705696f },
  { -0.05941462889313698f, -0.042768701910972595f, -0.03477758169174194f, -0.015667475759983063f, 0.0005446100258268416f, 0.16578523814678192f, 0.09326072037220001f, -0.049168605357408524f, -0.05230638384819031f, -0.09708207100629807f, -0.13792386651039124f, -0.07529347389936447f, -0.030903806909918785f, -0.08291979134082794f, -0.09141647070646286f, -0.02694019488990307f },
  { -0.05258005112409592f, 0.003667273558676243f, -0.023826560005545616f, 0.011332525871694088f, -0.06492150574922562f, 0.08852183818817139f, 0.13110068440437317f, 0.051893096417188644f, -0.042222920805215836f, 0.028564564883708954f, -0.005120225250720978f, -0.0007956743938848376f, -0.004768110811710358f, 0.00974226277321577f, 0.016986891627311707f, 0.018326742574572563f },
  { -0.05704913288354874f, -0.0009966219076886773f, 0.02304891124367714f, 0.061624910682439804f, 0.022107793018221855f, -0.006509390659630299f, -0.04403550177812576f, 0.09498079121112823f, 0.029268406331539154f, 0.09022246301174164f, 0.039546187967061996f, -0.02431529387831688f, -0.00671567814424634f, 0.06150934100151062f, 0.12348391860723495f, 0.1074492484331131f },
  { -0.034510474652051926f, -0.008356384932994843f, -0.010498077608644962f, 0.11717800050973892f, 0.02897445671260357f, -0.037746623158454895f, -0.07226184755563736f, 0.03780360892415047f, 0.06611358374357224f, 0.03738771751523018f, 0.009314069524407387f, -0.1198987364768982f, -0.12804628908634186f, 0.009332182817161083f, 0.10870660841464996f, 0.1120401918888092f },
  { -0.04644901305437088f, -0.07335959374904633f, -0.04759947583079338f, 0.04735521972179413f, 0.038868144154548645f, -0.004580328706651926f, -0.04251055419445038f, 0.06284620612859726f, -0.05905400589108467f, -0.04875455051660538f, -0.08401289582252502f, -0.1518714725971222f, -0.1790543645620346f, -0.03884274140000343f, 0.06180429458618164f, 0.1159747987985611f },
  { -0.09070160239934921f, -0.0953499898314476f, -0.09500494599342346f, -0.0036653797142207623f, -0.046158481389284134f, 0.018488433212041855f, -0.00444156676530838f, 0.011410072445869446f, -0.08327573537826538f, -0.10049848258495331f, -0.09928964823484421f, -0.1275898814201355f, -0.15953519940376282f, -0.07866568118333817f, 0.020973142236471176f, 0.08264221996068954f },
  { -0.060317352414131165f, -0.03885505720973015f, -0.07159490138292313f, -0.02317950874567032f, -0.02139066532254219f, -0.007923035882413387f, -0.02575382962822914f, 0.027918195351958275f, -0.022546544671058655f, -0.022519197314977646f, -0.04036863520741463f, -0.06075626239180565f, -0.09062929451465607f, -0.053303491324186325f, 0.02186291292309761f, 0.08526358753442764f },
  { -0.016318699344992638f, 0.0010656906524673104f, -0.04031550511717796f, 0.02094765193760395f, -0.059288907796144485f, -0.05835885927081108f, -0.09301810711622238f, -0.016056271269917488f, -0.021491674706339836f, -0.009500405751168728f, -0.05257400870323181f, -0.075371652841568f, -0.09398414939641953f, -0.06850920617580414f, -0.0003403967712074518f, 0.06297346204519272f } },
  { { -0.011822119355201721f, -0.018606923520565033f, -0.04216250777244568f, 0.011772441677749157f, 0.006591973826289177f, -0.04916031286120415f, -0.1064469963312149f, -0.04093889892101288f, -0.03425414860248566f, -0.030512236058712006f, -0.07018004357814789f, -0.05566412955522537f, -0.0671723410487175f, -0.06492968648672104f, -0.07266249507665634f, -0.05992105230689049f },
  { 0.01261831447482109f, -0.040125858038663864f, -0.07029497623443604f, 0.010712757706642151f, 0.018243471160531044f, 0.018980074673891068f, -0.0587533563375473f, -0.03919924050569534f, -0.028734594583511353f, -0.03353026509284973f, -0.054041679948568344f, -0.025179356336593628f, -0.031300053000450134f, -0.018489085137844086f, -0.009924754500389099f, -0.02283124066889286f },
  { -0.013152319937944412f, -0.03793153911828995f, -0.08015214651823044f, -0.010274997912347317f, 0.0170319601893425f, 0.04549491032958031f, -0.05922802910208702f, -0.05966959893703461f, -0.08574101328849792f, -0.08887995779514313f, -0.06621585786342621f, -0.02548401430249214f, -0.05831604078412056f, -0.06691113859415054f, -0.023884836584329605f, -0.02143579162657261f },
  { 0.030973806977272034f, 0.04818594455718994f, 0.010848981328308582f, 0.04901960864663124f, 0.028453508391976357f, 0.052648868411779404f, 0.011196000501513481f, -0.021703805774450302f, -0.038385167717933655f, -0.049958791583776474f, -7.705688040005043e-05f, 0.013495918363332748f, -0.062305085361003876f, -0.07675335556268692f, -0.026932235807180405f, 0.021011510863900185f },
  { 0.05145055800676346f, 0.060095030814409256f, 0.07065644860267639f, 0.0712561309337616f, 0.005257763899862766f, 0.002790614031255245f, 0.010893544182181358f, 0.05821335315704346f, 0.005980354733765125f, -0.009971540421247482f, 0.06075603887438774f, 0.07679081708192825f, -0.025853144004940987f, -0.06547785550355911f, -0.004238278605043888f, 0.029498741030693054f },
  { 0.05849861726164818f, 0.053174521774053574f, 0.012043104507029057f, 0.021652892231941223f, -0.076228067278862f, -0.06488142907619476f, -0.030645737424492836f, 0.06474317610263824f, 0.02440536580979824f, -0.023615801706910133f, 0.024671152234077454f, 0.07431520521640778f, 0.01221861969679594f, -0.013031254522502422f, 0.018069148063659668f, 0.03911802917718887f },
  { 0.007242119405418634f, -0.0330800786614418f, -0.07865995168685913f, -0.02801075205206871f, -0.06612914055585861f, -0.034672386944293976f, -0.05938483774662018f, 0.026980914175510406f, 0.03278990462422371f, -0.04157949984073639f, -0.04270298406481743f, 0.07559642940759659f, 0.051461830735206604f, 0.01427010539919138f, 0.023946423083543777f, 0.04773901030421257f },
  { 0.01571485586464405f, 0.000103057871456258f, -0.035810187458992004f, 0.04203230142593384f, 0.012334562838077545f, 0.06353902071714401f, -0.020335329696536064f, -0.04367219656705856f, 0.0039819274097681046f, -0.011457300744950771f, -0.07481319457292557f, 0.05312354117631912f, 0.04160194471478462f, -0.016025807708501816f, 0.006305966526269913f, 0.028734367340803146f },
  { -1.4047956256035832e-06f, 0.008466662839055061f, 0.0025806643534451723f, 0.014535296708345413f, -0.01812923513352871f, 0.06178059056401253f, 0.004365659784525633f, -0.12402506917715073f, -0.10750249773263931f, -0.04056405648589134f, -0.0917157530784607f, -0.007655132561922073f, -0.013200501911342144f, -0.06153962016105652f, -0.06349817663431168f, -0.027962496504187584f },
  { 0.011806312017142773f, 0.05135885998606682f, 0.024374691769480705f, 0.01746620424091816f, -0.02955646812915802f, 0.04872801527380943f, 0.03951229155063629f, -0.02230420522391796f, -0.06864024698734283f, 0.010924618691205978f, 0.007477073464542627f, 0.02842692658305168f, 0.026640668511390686f, 0.027928732335567474f, 0.041016172617673874f, 0.03993280231952667f },
  { 0.03576153889298439f, 0.06681177765130997f, 0.031793318688869476f, 0.07167813181877136f, 0.011093420907855034f, -0.020251305773854256f, -0.023245342075824738f, 0.034731823951005936f, 0.019937675446271896f, 0.03409944474697113f, 0.01862611249089241f, 0.00042435008799657226f, 0.009662975557148457f, 0.06832681596279144f, 0.10407842695713043f, 0.09133869409561157f },
  { 0.05419028922915459f, 0.06963589042425156f, 0.04979157820343971f, 0.12183953821659088f, 0.034440457820892334f, -0.035995058715343475f, -0.044854652136564255f, 0.018446290865540504f, 0.022264929488301277f, 0.020140035077929497f, -0.012462169863283634f, -0.05964687839150429f, -0.05530792102217674f, 0.025131098926067352f, 0.10251839458942413f, 0.10707724094390869f },
  { 0.05010087043046951f, 0.02813878282904625f, 0.018378622829914093f, 0.07972750067710876f, 0.03803498297929764f, 0.016079893335700035f, -0.009279156103730202f, 0.04496186226606369f, -0.02477956749498844f, -0.03795085847377777f, -0.04441037401556969f, -0.0749383196234703f, -0.09549007564783096f, -0.009507253766059875f, 0.06839895993471146f, 0.11119019985198975f },
  { 0.016955304890871048f, 0.002308955416083336f, -0.014313590712845325f, 0.040307074785232544f, 0.011529404670000076f, 0.02894948422908783f, 0.015640651807188988f, 0.018585477024316788f, -0.04794628918170929f, -0.058682650327682495f, -0.058952271938323975f, -0.04306137561798096f, -0.07993711531162262f, -0.010456882417201996f, 0.030842937529087067f, 0.08201421797275543f },
  { 0.02091912180185318f, 0.01665734313428402f, 0.006176671478897333f, 0.053641535341739655f, 0.02413148060441017f, 0.04188612848520279f, 0.027093075215816498f, 0.03737182915210724f, 0.019218865782022476f, -0.012538113631308079f, -0.010045561008155346f, -0.012190788052976131f, -0.046482764184474945f, -0.00936373881995678f, 0.04673473909497261f, 0.08156120777130127f },
  { 0.056120436638593674f, 0.06495217233896255f, 0.03562096878886223f, 0.07264979928731918f, 0.003020236734300852f, -0.008369036950170994f, -0.03581579774618149f, 0.010092334821820259f, 0.026814477518200874f, 0.004425602965056896f, -0.026910800486803055f, -0.02056986838579178f, -0.041271720081567764f, -0.01817578449845314f, 0.01614278182387352f, 0.05441854149103165f } } },
  { { { 0.10053160786628723f, 0.04168491065502167f, 0.015562607906758785f, 0.01318824291229248f, 0.02097494527697563f, -0.0062471418641507626f, -0.01936403661966324f, 0.012719729915261269f, 0.055084194988012314f, 0.028330374509096146f, 0.08708329498767853f, 0.010220292955636978f, 0.0026611315552145243f, -0.021086687222123146f, 0.0508643314242363f, 0.04126288369297981f },
  { 0.032725799828767776f, -0.08197327703237534f, -0.06350866705179214f, -0.0753059908747673f, -0.011619183234870434f, -0.01621970534324646f, -0.03977173566818237f, -0.0049440376460552216f, 0.009681722149252892f, 0.0394023060798645f, 0.0821562111377716f, 0.0018925727345049381f, -0.024256452918052673f, -0.06187141314148903f, 0.0022399502340704203f, -0.0077050672844052315f },
  { 0.02729947492480278f, -0.026052026078104973f, -0.021005410701036453f, 0.012016285210847855f, 0.03316843509674072f, 0.04011848196387291f, -0.0077636754140257835f, -0.08182608336210251f, -0.03494013100862503f, 0.00665651261806488f, 0.10747512429952621f, 0.031320035457611084f, 0.03997618332505226f, 0.0032106766011565924f, 0.03287019208073616f, -0.031388819217681885f },
  { 0.05595056712627411f, 0.020406197756528854f, 0.05672243610024452f, 0.07236269116401672f, 0.041055504232645035f, -0.00425709318369627f, 0.00036080903373658657f, -0.02505028247833252f, -0.05356976389884949f, 0.006150010973215103f, 0.039188314229249954f, 0.06534229218959808f, 0.08693356812000275f, 0.08290254324674606f, 0.06320816278457642f, -0.06697146594524384f },
  { 0.011689647100865841f, -0.03367786481976509f, -0.02820592001080513f, -0.012206284329295158f, -0.04858376830816269f, -0.06672631204128265f, 0.019308200106024742f, -0.009193853475153446f, -0.013259563595056534f, -0.00788983516395092f, 0.06150690093636513f, -0.0010652877390384674f, 0.08840257674455643f, 0.0868581160902977f, 0.06819645315408707f, -0.09911113232374191f },
  { -0.01677258126437664f, -0.09101942926645279f, -0.03292519971728325f, -0.04240696504712105f, 0.017309511080384254f, -0.022615483030676842f, -0.003003640566021204f, 0.042112965136766434f, 0.021397659555077553f, -0.007069279905408621f, 0.08873771131038666f, 0.02428712137043476f, 0.03764381259679794f, 0.03508726879954338f, 0.04996678605675697f, -0.11135168373584747f },
  { -0.06336339563131332f, -0.049121756106615067f, -0.03205583617091179f, 0.028625138103961945f, 0.04124937951564789f, 0.03200695663690567f, -0.015590103343129158f, -0.003962376154959202f, -0.03461579605937004f, -0.05133190378546715f, 0.0468556247651577f, 0.018819820135831833f, -0.00695518683642149f, -0.002863532630726695f, 0.041760172694921494f, -0.1148582473397255f },
  { -0.0442865826189518f, -0.04491117224097252f, 0.011852240189909935f, -0.014779599383473396f, -0.0193523820489645f, -0.043131642043590546f, -0.07276292145252228f, -0.03441815823316574f, -0.02091972343623638f, -0.08682917803525925f, 0.015827909111976624f, -0.011631469242274761f, -0.027221200987696648f, -0.03876955807209015f, -0.00309435511007905f, -0.08806796371936798f },
  { -0.0029440612997859716f, 0.017970627173781395f, 0.05492120236158371f, 0.05123090371489525f, -0.029524989426136017f, -0.019442155957221985f, 0.039744675159454346f, 0.023439746350049973f, 0.0026308263186365366f, 0.05166523531079292f, 0.06361661106348038f, -0.012395460158586502f, 0.018305359408259392f, -0.023272274062037468f, 0.0163743793964386f, -0.012909636832773685f },
  { -0.07742458581924438f, -0.07122289389371872f, -0.055028874427080154f, -0.043310754001140594f, -0.04536580666899681f, -0.04374033585190773f, -0.05708375945687294f, -0.07067003101110458f, -0.014862005598843098f, -0.047128934413194656f, -0.03119709901511669f, -0.06073227524757385f, 0.009204222820699215f, -0.06574197858572006f, -0.053722407668828964f, -0.00803836714476347f },
  { -0.029509209096431732f, -0.0056575811468064785f, -0.01426757499575615f, 0.01928693801164627f, 0.050195224583148956f, 0.003356999484822154f, 0.024191120639443398f, 0.022738900035619736f, 0.055267248302698135f, -0.04406416416168213f, 0.018552131950855255f, 0.03635777533054352f, 0.04029882326722145f, -0.005101790186017752f, 0.004491668660193682f, 0.04860546439886093f },
  { -0.07198941707611084f, -0.06449629366397858f, -0.0410616360604763f, -0.03825591877102852f, 0.01632191427052021f, -0.02067284658551216f, -0.0717916339635849f, -0.03511575609445572f, -0.05921826884150505f, -0.08164093643426895f, -0.03702566772699356f, -0.05052560195326805f, -0.05576584115624428f, -0.07065492123365402f, -0.027941569685935974f, -0.0031032711267471313f },
  { 0.0007848894456401467f, 0.02310097962617874f, 0.04600222408771515f, 0.03105742856860161f, 0.06708531826734543f, 0.03956771641969681f, 0.005174663383513689f, -0.056242961436510086f, -0.0057970937341451645f, -0.011213391087949276f, 0.06720568984746933f, -0.02262360043823719f, -0.014416449703276157f, 0.004794530104845762f, 0.0636051818728447f, 0.07818364351987839f },
  { -0.005399639718234539f, 0.021456139162182808f, 0.02428452856838703f, -0.005272134207189083f, 0.06006868928670883f, 0.02281339466571808f, -0.009265509434044361f, 0.00256939884275198f, 0.025472145527601242f, 0.024118205532431602f, 0.03997150808572769f, -0.023252151906490326f, -0.013253774493932724f, 0.003976323176175356f, 0.05708318203687668f, 0.07243390381336212f },
  { 0.012579599395394325f, -0.005812436807900667f, 0.017437340691685677f, 0.009096651338040829f, 0.004774970468133688f, 0.01432635635137558f, 0.02684885263442993f, 0.04808493331074715f, 0.035935916006565094f, -0.02609330043196678f, 0.014923407696187496f, -0.013559839688241482f, 0.030055193230509758f, 0.02180296741425991f, 0.05499793589115143f, 0.05714398995041847f },
  { 0.005112385842949152f, 0.007584059610962868f, 0.020784340798854828f, 0.02347574569284916f, 0.06304358690977097f, 0.0783756822347641f, 0.048376183956861496f, 0.04122375696897507f, -0.027144594117999077f, -0.06996659189462662f, 0.008884263224899769f, -0.032687973231077194f, 0.00864620041102171f, -0.06453180313110352f, -0.03338637202978134f, -0.02740611881017685f } },
  { { 0.0813717171549797f, 0.002824694151058793f, -0.0063991062343120575f, -0.012417580001056194f, -0.01718762144446373f, -0.028574036434292793f, -0.02032233029603958f, -0.018828848376870155f, 0.015564434230327606f, 0.032042186707258224f, 0.041898213326931f, -0.019238492473959923f, -0.049181777983903885f, -0.032149702310562134f, 0.033714547753334045f, 0.040672723203897476f },
  { 0.005278969183564186f, -0.06615998595952988f, -0.10333932936191559f, -0.08217969536781311f, -0.04328865930438042f, -0.03289239853620529f, -0.03811808302998543f, -0.049165256321430206f, -0.0035696642007678747f, 0.04119929298758507f, 0.038501542061567307f, -0.03819912299513817f, -0.08450847119092941f, -0.10406053811311722f, -0.017732225358486176f, -0.021910488605499268f },
  { 0.023095184937119484f, -0.035914015024900436f, -0.01852056197822094f, 0.043494295328855515f, 0.05956478789448738f, 0.06290584057569504f, 0.021755879744887352f, -0.08851049840450287f, -0.04154997318983078f, -0.029482094570994377f, 0.08919394016265869f, -0.00427511939778924f, 0.0027903958689421415f, -0.032326340675354004f, 0.017688363790512085f, -0.009296362288296223f },
  { 0.044312529265880585f, 0.01108126062899828f, 0.059245768934488297f, 0.08132416009902954f, 0.0512521006166935f, 0.04314860701560974f, 0.01149405725300312f, -0.055511392652988434f, -0.13867609202861786f, -0.031101342290639877f, -0.0414055772125721f, 0.0016806969651952386f, 0.05949466675519943f, 0.03675590083003044f, 0.04122872278094292f, -0.08338451385498047f },
  { 0.028387591242790222f, -0.023132700473070145f, -0.011977562680840492f, 0.03901349753141403f, -0.027500558644533157f, -0.03853259235620499f, 0.0957050770521164f, -0.010671908035874367f, -0.009818521328270435f, -0.02831120230257511f, 0.019510656595230103f, -0.048124395310878754f, 0.045498378574848175f, 0.07196501642465591f, 0.08509088307619095f, -0.0999104306101799f },
  { -0.026055729016661644f, -0.10170327126979828f, -0.057724740356206894f, -0.036759015172719955f, 0.022344425320625305f, -0.007197150029242039f, 0.03735537454485893f, 0.08117133378982544f, 0.022845067083835602f, -0.05445998162031174f, 0.01818970963358879f, -0.061375707387924194f, -0.028273291885852814f, -0.02107987552881241f, 0.020664934068918228f, -0.13609261810779572f },
  { -0.060680944472551346f, -0.05326774716377258f, -0.016502631828188896f, 0.08827292919158936f, 0.04936067387461662f, 0.08298106491565704f, 0.04870068281888962f, 0.05743056535720825f, -0.020788898691534996f, -0.06714503467082977f, -0.045075174421072006f, -0.03939884528517723f, -0.06199504807591438f, -0.03379262238740921f, 0.028582369908690453f, -0.10249421745538712f },
  { -0.05946823209524155f, -0.06640516221523285f, 0.0227249376475811f, 0.012442403472959995f, 0.015976570546627045f, 0.007801654748618603f, -0.013788009062409401f, -0.011518244631588459f, 0.024742886424064636f, -0.11249864101409912f, -0.012539301067590714f, -0.06349847465753555f, -0.06088283658027649f, -0.07784659415483475f, -0.015126298181712627f, -0.07169321924448013f },
  { -0.0160448607057333f, 0.014132755808532238f, 0.03610553219914436f, 0.07927589118480682f, -0.016883673146367073f, 0.03599200025200844f, 0.10991846770048141f, 0.0514364056289196f, 0.044019341468811035f, 0.08898446708917618f, 0.06013011559844017f, 0.017784230411052704f, 0.015689779072999954f, -0.038720276206731796f, 0.016404373571276665f, 0.030684949830174446f },
  { -0.05915629118680954f, -0.08267860114574432f, -0.04695472866296768f, -0.04838043823838234f, -0.019985249266028404f, -0.012383639812469482f, -0.0026121963746845722f, -0.03727784380316734f, 0.03374958410859108f, 0.022677337750792503f, 0.012812746688723564f, -0.03002110868692398f, 0.03603213280439377f, -0.06301035732030869f, -0.053186967968940735f, 0.023622414097189903f },
  { -0.027534088119864464f, -0.024134915322065353f, -0.043611958622932434f, 0.03132185339927673f, 0.041055794805288315f, 0.056586865335702896f, 0.09420178830623627f, 0.05498769134283066f, 0.14836485683918f, 0.035538412630558014f, 0.08021871745586395f, 0.08077221363782883f, 0.10102047026157379f, 0.018762044608592987f, 0.03254902735352516f, 0.10245825350284576f },
