#pragma once

#include <cstddef>
#include <cstdint>

const size_t vit_bias_l2_array_shape[2] = { 6, 192 };
float vit_bias_l2_array[6][192] = { { -0.5792020559310913f, 0.19025324285030365f, -0.4242044985294342f, -0.339742511510849f, 1.432881474494934f, -0.24317915737628937f, -0.0716194212436676f, -2.487976551055908f, 0.3226068913936615f, -0.04229689761996269f, -0.4645581841468811f, 0.5893155932426453f, 0.15793389081954956f, -1.2589077949523926f, 0.2548997402191162f, -0.21364600956439972f, -1.1088476181030273f, -0.11792159080505371f, 0.8398497104644775f, 0.20109769701957703f, 0.43285879492759705f, -0.6442207098007202f, -0.44536253809928894f, 0.6096867322921753f, 0.2501649856567383f, -0.4491773545742035f, 0.6675646305084229f, -0.3465232849121094f, 2.8185157775878906f, -0.009363408200442791f, -0.23898053169250488f, 0.49615010619163513f, -1.1356295347213745f, -0.8373697400093079f, 0.20003090798854828f, -0.9803723096847534f, 0.7323153614997864f, 0.9882546067237854f, -1.7033272981643677f, 0.47782012820243835f, 0.3088226318359375f, -0.08652426302433014f, 0.35660320520401f, 1.2058013677597046f, -0.34459665417671204f, -0.64274001121521f, -1.032802939414978f, 1.1614032983779907f, 0.2910054326057434f, -0.22593675553798676f, -1.0817790031433105f, 0.677465558052063f, -0.0098048010841012f, -0.4281311333179474f, -0.2711564600467682f, 0.16991083323955536f, -0.7436583042144775f, 0.8791221380233765f, 1.398384690284729f, 0.705912172794342f, 0.773464024066925f, 0.19704146683216095f, -0.01431517768651247f, 0.07158970087766647f, 0.8604722023010254f, 0.010282955132424831f, -0.2568013668060303f, 0.7104136347770691f, 0.12099463492631912f, 1.9810094833374023f, 0.952825665473938f, 1.0888510942459106f, -0.1702236533164978f, 0.05365084856748581f, 0.12668274343013763f, -0.2645482122898102f, 0.31650543212890625f, 0.9562925696372986f, 0.45328420400619507f, -1.3276697397232056f, 0.023709997534751892f, 1.190948486328125f, -3.59045672416687f, 0.9517483711242676f, 0.33709269762039185f, 1.1168118715286255f, -0.09727557003498077f, 0.1733768880367279f, -0.17871196568012238f, 0.19188596308231354f, 1.395887017250061f, -2.0013911724090576f, 0.8381796479225159f, 0.4820394515991211f, -0.3873146176338196f, 0.11753527820110321f, 1.2518869638442993f, -0.9602253437042236f, -0.2764790654182434f, 0.6781999468803406f, -1.287923812866211f, 0.46507275104522705f, 1.0301140546798706f, 0.40512534976005554f, -1.5445910692214966f, 0.8546265959739685f, -0.3239504396915436f, 0.41838833689689636f, -0.2246011346578598f, -0.27484115958213806f, 0.09051596373319626f, 0.5970436930656433f, 0.6503428220748901f, -1.0783586502075195f, 0.6057135462760925f, 0.4001925587654114f, 1.0329450368881226f, 0.6538006067276001f, 0.39679035544395447f, 0.5447885990142822f, 0.26488593220710754f, 0.6414321064949036f, 0.3456049859523773f, -1.5712016820907593f, 0.0907854288816452f, 0.4915066957473755f, 0.03113616071641445f, -0.27403977513313293f, 0.9432379007339478f, -0.045861367136240005f, -0.1745533049106598f, 0.40776917338371277f, 0.058664657175540924f, 0.4039415121078491f, 0.18594670295715332f, 1.6602795124053955f, 0.034531187266111374f, 0.25701987743377686f, 0.389558881521225f, -0.31289586424827576f, -1.6620302200317383f, -0.9474234580993652f, -0.18110251426696777f, 0.368308961391449f, 0.43396392464637756f, -0.006276944652199745f, -0.9083446860313416f, -0.23566120862960815f, 0.0858130231499672f, 0.7431609630584717f, -0.5292556285858154f, -0.33795806765556335f, 1.4869463443756104f, 0.5012871623039246f, 1.0868974924087524f, 0.5975151062011719f, 0.18327851593494415f, 0.07759297639131546f, -1.0905120372772217f, -0.3051789700984955f, -0.7975327372550964f, -0.16929860413074493f, -0.17078979313373566f, -0.40752726793289185f, 0.4455712139606476f, 0.5494518876075745f, -0.6476067304611206f, 0.7055307030677795f, 0.8199480175971985f, 0.11240514367818832f, 0.5709062218666077f, -1.2120940685272217f, 0.22635620832443237f, 0.4312368333339691f, -0.43381527066230774f, -0.09623443335294724f, -0.21792766451835632f, -0.5423663258552551f, -0.31567129492759705f, 1.0470085144042969f, -0.43104642629623413f, 0.4454977512359619f, 0.27837929129600525f, 0.19120068848133087f, -0.16547678411006927f, 0.282362163066864f, 0.3565910756587982f, -0.49604251980781555f, 0.035095006227493286f, -0.4391111135482788f, 1.1913663148880005f, -1.0973634719848633f },
  { -0.30845707654953003f, -0.020704209804534912f, -0.198484867811203f, -0.2594121992588043f, 0.2979622483253479f, 0.27409034967422485f, 0.230783611536026f, 4.848188400268555f, 0.11803427338600159f, 0.3967122435569763f, 0.15675365924835205f, 0.3153129816055298f, -0.1909356266260147f, -1.5216107368469238f, 0.225815087556839f, 0.11749386787414551f, 0.20626899600028992f, -0.1962382197380066f, 0.08176032453775406f, -0.10751085728406906f, -0.3276888430118561f, -0.1826549917459488f, -0.15973521769046783f, -0.03160347044467926f, -0.4470197260379791f, 0.32986077666282654f, 0.1167725920677185f, -0.25355443358421326f, -0.41933509707450867f, -0.0645483136177063f, 0.26099929213523865f, -0.2081841081380844f, -0.018509380519390106f, -0.018045302480459213f, 0.6607633829116821f, 0.028136638924479485f, 0.03345997631549835f, -0.21371841430664062f, 0.5348223447799683f, 0.09089207649230957f, 0.18617616593837738f, 0.13402295112609863f, 0.11514309048652649f, 0.18108926713466644f, -0.09497854858636856f, -0.13574491441249847f, 0.15056508779525757f, -0.12800940871238708f, -0.5387207269668579f, -0.0016669243341311812f, 0.14563828706741333f, -0.19492177665233612f, 0.08904194086790085f, -0.11085522919893265f, 0.25044170022010803f, -0.056611865758895874f, -0.061621107161045074f, 0.12611763179302216f, -0.14155182242393494f, 0.22940538823604584f, -0.011363616213202477f, 0.2792331874370575f, -0.23805467784404755f, -0.13497576117515564f, -0.16331470012664795f, -0.12255930155515671f, 0.06134120002388954f, 0.8720563650131226f, 0.4098949134349823f, -0.17072854936122894f, -0.05588429048657417f, 0.1634916365146637f, 0.25648319721221924f, -0.10346601158380508f, 0.08649288862943649f, 0.2605985105037689f, -0.019659779965877533f, 0.07952723652124405f, 0.23548826575279236f, 0.1235923171043396f, -0.19742242991924286f, -0.006977932062000036f, -5.860533714294434f, 0.16842396557331085f, -0.4354964792728424f, -0.20164082944393158f, 0.24082103371620178f, -0.028760764747858047f, 0.027148103341460228f, 0.1660592257976532f, 0.05217128247022629f, -0.4552488625049591f, -0.14099888503551483f, 0.014003458432853222f, 0.32301732897758484f, -0.011215328238904476f, -0.06726288050413132f, 0.3716825842857361f, -0.06996086239814758f, -0.16632665693759918f, 0.0017737511079758406f, 0.0557892844080925f, 0.15033245086669922f, -0.3623564839363098f, 0.23428970575332642f, -0.09725531935691833f, -3.7237582206726074f, -0.08676746487617493f, -0.26669156551361084f, -0.6913337707519531f, 0.1823650300502777f, 0.08344823122024536f, -0.29448816180229187f, -0.12732551991939545f, 0.04513326659798622f, 1.037359595298767f, 0.17123043537139893f, -0.01439326349645853f, -0.21382178366184235f, -0.3241177797317505f, -0.08765152096748352f, -0.1365916132926941f, 0.07426947355270386f, -0.0781601145863533f, -0.022025806829333305f, 0.2875470221042633f, 0.09013131260871887f, -0.1364346742630005f, -0.12850134074687958f, -0.18962974846363068f, 0.10999240726232529f, -0.7966740727424622f, 0.33926913142204285f, -0.04084772244095802f, -0.2847989499568939f, 1.7102762460708618f, 0.061573565006256104f, -0.028234578669071198f, -0.2710605561733246f, -0.323856383562088f, 0.14658258855342865f, -0.5315530300140381f, -0.39153069257736206f, 0.04616861417889595f, 0.42733311653137207f, 0.19832901656627655f, 0.7409815192222595f, -0.20573003590106964f, -0.10633914172649384f, -0.0791357010602951f, 0.31085923314094543f, 0.36290591955184937f, -0.7008588910102844f, 0.17130759358406067f, -0.1377667635679245f, -0.08136635273694992f, -0.4049827456474304f, 0.10291030257940292f, -0.06374647468328476f, 0.0016164560802280903f, 0.11766095459461212f, 0.03970307484269142f, 0.13613882660865784f, 0.9720758199691772f, -0.16277529299259186f, -0.10313001275062561f, 0.10116755217313766f, 0.13695448637008667f, 0.861248254776001f, 0.22145532071590424f, 1.0737340450286865f, 0.11814309656620026f, 2.2211902141571045f, 0.022231556475162506f, 0.13577687740325928f, -0.15765000879764557f, 0.29721224308013916f, -0.20902886986732483f, 0.17242470383644104f, 0.373588502407074f, 0.20528081059455872f, 0.29744094610214233f, -0.18577609956264496f, -0.644086480140686f, -0.09274958074092865f, -0.30838868021965027f, -0.0605279915034771f, 0.5651593804359436f, -0.6614551544189453f, 0.052115313708782196f, 0.2771684229373932f, 0.289173424243927f },
  { 0.16143910586833954f, 0.1730118691921234f, -0.17676112055778503f, -0.11103381961584091f, 0.327329158782959f, 0.03038659133017063f, 0.13869693875312805f, 1.789634108543396f, 0.28175732493400574f, -0.18588748574256897f, 0.039755430072546005f, -0.1866975724697113f, -0.031802404671907425f, 0.29506826400756836f, 0.02765936218202114f, -0.014013860374689102f, 0.08118217438459396f, -0.2946588397026062f, 0.12082282453775406f, -0.028127383440732956f, -0.022888487204909325f, -0.24724771082401276f, 0.09101337194442749f, 0.19164013862609863f, -0.1022346168756485f, 0.26016032695770264f, 0.00834411196410656f, -0.13630834221839905f, -0.103690505027771f, -0.09851251542568207f, 0.11846151947975159f, 0.03189842775464058f, -0.08266852051019669f, 0.050321318209171295f, 0.059776421636343f, 0.07746350765228271f, -0.07633376121520996f, -0.02763906866312027f, -0.12776286900043488f, 0.09744974970817566f, 0.060135617852211f, 0.13594502210617065f, 0.04603154957294464f, 0.11724811792373657f, 0.09369690716266632f, -0.05650075525045395f, 0.10194256901741028f, -0.2797940969467163f, -0.24347944557666779f, -0.16035246849060059f, -0.05066574737429619f, 0.007578447461128235f, 0.012575936503708363f, 0.04669330269098282f, 0.09276827424764633f, 0.03670215979218483f, 0.040558215230703354f, 0.12415114790201187f, 0.06914493441581726f, 0.14926879107952118f, 0.20493972301483154f, 0.0162078645080328f, -0.17503666877746582f, -0.27488112449645996f, -0.1301078051328659f, -0.10610207170248032f, -1.0144693851470947f, 0.26529359817504883f, 0.2166486382484436f, -0.044122081249952316f, -0.009712711907923222f, -0.007225337438285351f, -0.065291628241539f, 0.051753103733062744f, 0.015050068497657776f, -0.08055206388235092f, 0.03085067681968212f, 0.10161155462265015f, -0.18412743508815765f, 0.026802530512213707f, -0.029647765681147575f, -0.16294611990451813f, -0.2795427143573761f, 0.13884977996349335f, -0.48754897713661194f, -0.029989488422870636f, -0.05402142181992531f, 0.12724503874778748f, 0.04676179215312004f, 0.166184201836586f, -0.04886902868747711f, 0.37352678179740906f, -0.1392068713903427f, -0.1016988679766655f, -0.009517821483314037f, 0.03331618383526802f, -0.1971806436777115f, 0.030875198543071747f, 0.02244270034134388f, 0.026186253875494003f, 0.07697005569934845f, -0.07665743678808212f, 0.1509155035018921f, 0.04995868727564812f, -0.2919759452342987f, -0.0184879582375288f, 0.32836952805519104f, 0.023692315444350243f, -0.08452090620994568f, -0.0222595427185297f, -0.029493341222405434f, 0.030615579336881638f, -0.24625977873802185f, 0.03676440194249153f, -0.1129554957151413f, -0.0023863266687840223f, 0.03434615582227707f, -0.030140340328216553f, -0.04576611518859863f, -0.20322057604789734f, 0.010222673416137695f, -0.002083516214042902f, -0.22040362656116486f, -0.18501807749271393f, -0.056644536554813385f, 0.16028167307376862f, 0.15110933780670166f, 0.03892404958605766f, -0.13684344291687012f, -0.02290392480790615f, 0.20648981630802155f, 0.3148854970932007f, 0.08100663870573044f, -0.06149181351065636f, 0.03074263595044613f, -0.1879384070634842f, -0.12192381918430328f, 0.0734838992357254f, -0.06091119349002838f, -0.2159135490655899f, -0.19642123579978943f, 0.29122889041900635f, -0.1622166484594345f, -0.015531753189861774f, 0.15024404227733612f, 0.13553012907505035f, -0.42305228114128113f, -0.12546488642692566f, -0.14795628190040588f, -0.17089757323265076f, 0.09538207948207855f, 0.08848261088132858f, 0.16776493191719055f, 0.009868666529655457f, 0.2016599029302597f, 0.05346035212278366f, -0.0709170401096344f, 0.1216474175453186f, -0.432161420583725f, 0.09735367447137833f, -0.17828863859176636f, 0.0971718430519104f, 0.11763091385364532f, 0.3965824842453003f, 0.033111073076725006f, 0.040780771523714066f, 0.16125188767910004f, -0.1333790272474289f, -0.7551490664482117f, -0.05973959341645241f, -0.13282495737075806f, 0.20897461473941803f, 0.08667729794979095f, 0.09811805188655853f, 0.11870106309652328f, -0.14418962597846985f, 0.07321248948574066f, 0.032636649906635284f, 0.1544584333896637f, 0.24915631115436554f, -0.16126252710819244f, -0.005957591347396374f, -0.06586288660764694f, -0.01926456391811371f, -0.04613548889756203f, -0.08631595224142075f, -0.08024051040410995f, -0.08399306982755661f, 0.49065062403678894f, -0.06060275807976723f, 0.26838019490242004f, 0.3271873891353607f },
  { 0.04387781769037247f, 0.2907368838787079f, -0.25208836793899536f, -0.4867897033691406f, 0.30105331540107727f, -0.221613809466362f, 0.044665008783340454f, -0.0053901057690382f, 0.2653023302555084f, -0.2973792850971222f, 0.32058557868003845f, 0.04808897525072098f, -0.0351998396217823f, 0.19959324598312378f, 0.04462992399930954f, -0.0076784975826740265f, -0.0264570489525795f, -0.19508637487888336f, 0.2886052131652832f, 0.15784551203250885f, -0.17415665090084076f, 0.015986695885658264f, 0.17228958010673523f, 0.22307443618774414f, -0.05360066890716553f, -0.028271948918700218f, -0.21884238719940186f, -0.27623647451400757f, 0.2551506459712982f, -0.018177112564444542f, 0.16110044717788696f, 0.00784570723772049f, -0.04922819882631302f, 0.003666242817416787f, 0.018115896731615067f, 0.2112419158220291f, -0.16998392343521118f, -0.024849705398082733f, -0.299892783164978f, 0.20800471305847168f, 0.0013489662669599056f, -0.06790446490049362f, -0.24782364070415497f, 0.22690916061401367f, 0.19064980745315552f, 0.24219590425491333f, 0.11600393801927567f, 0.04778939113020897f, -0.09001374989748001f, 0.07103876024484634f, 0.006623589433729649f, 0.24490836262702942f, 0.11888990551233292f, 0.2345849722623825f, -0.348163366317749f, -0.32655203342437744f, -0.03663131222128868f, 0.4176608920097351f, -0.034749697893857956f, 0.09468132257461548f, 0.10125567018985748f, 0.25344473123550415f, -0.28682753443717957f, -0.5402209758758545f, -0.32478997111320496f, -0.13921721279621124f, -0.38423460721969604f, 0.029950620606541634f, -0.28827598690986633f, 0.3086845576763153f, 0.23470494151115417f, 0.015758944675326347f, 0.1506238430738449f, 0.018117321655154228f, -0.25688624382019043f, -0.10378050059080124f, -0.07050716876983643f, -0.10606082528829575f, -0.07461592555046082f, -0.406004935503006f, 0.08809113502502441f, 0.008138910867273808f, 0.6892693042755127f, -0.03841998428106308f, -0.05297413468360901f, -0.28184980154037476f, 0.06311456859111786f, 0.2536601722240448f, -0.2869800925254822f, 0.09868086129426956f, 0.04157401621341705f, 0.08584027737379074f, -0.29450902342796326f, -0.25191155076026917f, -0.4837043285369873f, -0.03620324283838272f, -0.15729974210262299f, -0.05489053577184677f, 0.056656792759895325f, -0.23041170835494995f, 0.007664337754249573f, 0.03382963314652443f, 0.22502167522907257f, -0.30596259236335754f, -0.13926520943641663f, 0.13713014125823975f, 0.6651037335395813f, -0.1021554172039032f, -0.18477919697761536f, 0.4861800968647003f, -0.1527716964483261f, -0.192744180560112f, -0.009631821885704994f, 0.1303180754184723f, -0.01834111288189888f, -0.21508437395095825f, 0.022722065448760986f, 0.33714669942855835f, 0.08765139430761337f, -0.4364989101886749f, 0.0003382395952939987f, -0.11179586499929428f, -0.40070152282714844f, -0.14557401835918427f, -0.013221632689237595f, 0.22648538649082184f, 0.13834801316261292f, 0.19256186485290527f, 0.33903104066848755f, -0.24965932965278625f, 0.06645617634057999f, -0.027795327827334404f, 0.09753085672855377f, -0.04878517985343933f, 0.1892155259847641f, -0.4157351851463318f, 0.11925318092107773f, 0.4665229916572571f, 0.05287269130349159f, -0.06260872632265091f, 0.1798442155122757f, 0.21147038042545319f, -0.2941156029701233f, -0.21385499835014343f, 0.20483393967151642f, -0.07761038839817047f, -0.0904877632856369f, -0.2068205624818802f, 0.3578144907951355f, -0.0042412299662828445f, 0.24221374094486237f, -0.41908422112464905f, -0.03844129294157028f, -0.057024382054805756f, 0.2000400274991989f, 0.11176405847072601f, -0.11212055385112762f, 0.1919279396533966f, 0.05006495490670204f, 0.021954325959086418f, -0.25853854417800903f, 0.2172558754682541f, -0.05396230146288872f, -0.14601901173591614f, -0.1523839831352234f, -0.009388882666826248f, 0.12384316325187683f, -0.08539062738418579f, -0.5271329879760742f, 0.1593642681837082f, -0.3653220534324646f, -0.04412746801972389f, 0.5034723877906799f, 0.07584845274686813f, 0.05829023942351341f, -0.22491079568862915f, 0.043143872171640396f, 0.21403862535953522f, -0.3600499927997589f, 0.45459607243537903f, 0.07419975101947784f, -0.11931795626878738f, -0.06874459236860275f, 0.28187447786331177f, -0.04436985030770302f, -0.06476454436779022f, 0.1990845799446106f, 0.042621225118637085f, 0.42716020345687866f, -0.18764156103134155f, 0.12926176190376282f, 0.0046638064086437225f },
  { 0.1408342719078064f, 0.2566334903240204f, 0.04652457311749458f, -0.21480309963226318f, 0.08520624786615372f, -0.07934081554412842f, -0.03476956486701965f, -0.03632821887731552f, -0.17340457439422607f, -0.0061892238445580006f, -0.11929870396852493f, 0.157032310962677f, -0.10149194300174713f, 0.1032852977514267f, -0.30995094776153564f, -0.09768827259540558f, 0.2998339831829071f, -0.15048760175704956f, -0.14275678992271423f, -0.32660043239593506f, 0.15056826174259186f, 0.25746434926986694f, 0.32080695033073425f, -0.03442320600152016f, 0.2521117925643921f, -0.0009258678182959557f, -0.12641482055187225f, -0.36559349298477173f, 0.05085675045847893f, -0.18070347607135773f, 0.04316181316971779f, 0.027383266016840935f, 0.17480242252349854f, -0.03381568565964699f, 0.30090636014938354f, -0.296263724565506f, -0.04815217852592468f, -0.22691777348518372f, -0.34703078866004944f, -0.296360045671463f, 0.004744308069348335f, -0.28270894289016724f, -0.27674630284309387f, 0.2744699716567993f, -0.2420639842748642f, -0.06192507594823837f, 0.11298278719186783f, 0.05811930075287819f, -0.03527867794036865f, -0.044815510511398315f, -0.13652586936950684f, 0.183484748005867f, 0.35251855850219727f, -0.3277120590209961f, -0.268182635307312f, -0.0017516454681754112f, 0.04422618821263313f, -0.010821470059454441f, 0.061648521572351456f, 0.050260987132787704f, -0.08859752118587494f, -0.10810846090316772f, 0.26616451144218445f, 0.08035365492105484f, -0.3144347667694092f, 0.05223531275987625f, -0.07411716878414154f, -0.3497360944747925f, 0.05374777317047119f, 0.19278410077095032f, 0.0602194108068943f, -0.12631750106811523f, 0.1293000876903534f, 0.02161058411002159f, 0.12663334608078003f, 0.16025754809379578f, 0.24750053882598877f, 0.29154345393180847f, -0.04541688784956932f, -0.2996128499507904f, -0.2614010274410248f, 0.008043753914535046f, 0.53105229139328f, 0.2715589702129364f, -0.08687413483858109f, -0.26288601756095886f, -0.14010609686374664f, -0.006175853777676821f, -0.3078981339931488f, -0.05436455458402634f, 0.17347468435764313f, 0.4114137589931488f, 0.0355992466211319f, -0.11398601531982422f, -0.13532444834709167f, 0.1823398768901825f, 0.3241046667098999f, -0.06575848162174225f, 0.33944201469421387f, -0.24634310603141785f, -0.032039299607276917f, 0.17952829599380493f, 0.23578743636608124f, -0.06676162034273148f, -0.1963956356048584f, -0.07979724556207657f, 0.28550586104393005f, -0.27375760674476624f, -0.42020994424819946f, 0.10045558214187622f, -0.19075049459934235f, 0.04242469370365143f, -0.21798093616962433f, 0.18550832569599152f, 0.2255423367023468f, -0.024838373064994812f, 0.11109323799610138f, 0.16024991869926453f, 0.10662756860256195f, -0.05671033263206482f, 0.2289770394563675f, -0.10738982260227203f, -0.30053550004959106f, 0.2046753615140915f, 0.11946266144514084f, -0.29723531007766724f, 0.09586724638938904f, -0.35476672649383545f, -0.05232173204421997f, -0.04885108023881912f, 0.00656018266454339f, -0.02283470332622528f, -0.16671641170978546f, 0.18280279636383057f, 0.09018310159444809f, -0.2922769784927368f, 0.022759031504392624f, 0.16651764512062073f, -0.1981191337108612f, 0.09431687742471695f, -0.2110724002122879f, 0.78122478723526f, -0.32592645287513733f, -0.13604110479354858f, 0.40846842527389526f, 0.20053234696388245f, 0.20323072373867035f, -0.5156555771827698f, 0.4113646447658539f, 0.2169613093137741f, 0.24672910571098328f, -0.5766291618347168f, -0.17278921604156494f, 0.33307328820228577f, -0.0894685909152031f, -0.1297677755355835f, 0.02518472634255886f, 0.5204715132713318f, 0.013264278881251812f, -0.1946195513010025f, -0.0508321151137352f, 0.12354443967342377f, -0.2208653837442398f, -0.5486677885055542f, -0.17325210571289062f, -0.3667554259300232f, -0.48280689120292664f, 0.10100111365318298f, -0.2755890488624573f, 0.14719046652317047f, -0.19935493171215057f, 0.10838574916124344f, 1.7471826076507568f, -0.12070748955011368f, 0.0811501070857048f, 0.004029752686619759f, 0.1067575067281723f, 0.1314263790845871f, -0.24958868324756622f, 0.0279566440731287f, 0.10017645359039307f, -0.04370269924402237f, -0.020343560725450516f, 0.09590941667556763f, -0.2622116506099701f, 0.28661277890205383f, -0.03253716602921486f, 0.10363119840621948f, 0.44657209515571594f, -0.012830345891416073f, 0.13245537877082825f, 0.246402770280838f },
  { -0.01180014293640852f, 0.45303601026535034f, -0.29914170503616333f, -0.11490427702665329f, -0.4091494679450989f, -0.41811105608940125f, -0.055964283645153046f, 0.48183420300483704f, -0.006428389344364405f, -0.09108306467533112f, 0.07342536747455597f, 0.05894550308585167f, -0.0702870637178421f, -0.03185562416911125f, -0.37958213686943054f, -0.1903906762599945f, -0.20491918921470642f, 0.07436303049325943f, -0.20332026481628418f, -0.10077042132616043f, -0.39690184593200684f, 0.2912769615650177f, 0.16967934370040894f, -0.20037947595119476f, 0.19327835738658905f, -0.3551146686077118f, -0.41765984892845154f, 0.1594168096780777f, -0.20255590975284576f, -0.16175460815429688f, 0.05543624982237816f, 0.19267846643924713f, 0.018095916137099266f, -0.4667429029941559f, -0.2508998215198517f, -0.33695119619369507f, -0.1878531575202942f, 0.15743526816368103f, 0.36744582653045654f, 0.22614017128944397f, -0.2573966383934021f, -0.12455274164676666f, -0.4411025941371918f, -0.08610515296459198f, -0.32141533493995667f, 0.05649048089981079f, -0.09936439245939255f, -0.32440441846847534f, -0.07660660892724991f, 0.31851059198379517f, -0.056057561188936234f, -0.15676182508468628f, 0.1522035151720047f, -0.13029231131076813f, -0.30445873737335205f, -0.5284345746040344f, 0.39569568634033203f, 0.3021045923233032f, -0.030593913048505783f, 0.014541511423885822f, -0.3555564880371094f, -0.07824667543172836f, 0.33516621589660645f, -0.22010137140750885f, -0.03138914704322815f, -0.09941594302654266f, -0.6113648414611816f, -0.4709387421607971f, 0.22196432948112488f, -0.12292517721652985f, 0.16192223131656647f, -0.2838292717933655f, 0.2553853988647461f, -0.12637369334697723f, -0.013463991694152355f, -0.0009755600476637483f, 0.119982048869133f, 0.03469293564558029f, -0.2631595730781555f, -0.22411374747753143f, -0.01614941470324993f, -0.3917365074157715f, -0.7850208282470703f, 0.013241862878203392f, 0.23797832429409027f, -0.27642133831977844f, 0.005472245160490274f, -0.20448637008666992f, -0.04504524543881416f, 0.18394796550273895f, 0.3181459307670593f, 0.5260376334190369f, 0.17086923122406006f, -0.059627484530210495f, 0.04672055318951607f, 0.03683839365839958f, 0.46628788113594055f, 0.026358578354120255f, 0.04494418948888779f, 0.041501134634017944f, 0.45781901478767395f, -0.021552052348852158f, -0.1886812150478363f, -0.014679578132927418f, -0.49286359548568726f, 0.23472225666046143f, 0.4437428414821625f, -0.17930877208709717f, -0.02669522911310196f, 0.41601699590682983f, -0.2394627332687378f, 0.05983324721455574f, 0.1340915560722351f, 0.17547421157360077f, 0.35128939151763916f, 0.160638228058815f, 0.04004865139722824f, -0.17374999821186066f, 0.1890038251876831f, 0.3205225169658661f, 0.11211439222097397f, 0.058624424040317535f, -0.0002283134963363409f, 0.21972915530204773f, -0.01993219368159771f, -0.19397452473640442f, 0.16307736933231354f, -0.114214226603508f, -0.26089730858802795f, -0.06258103996515274f, 0.22337138652801514f, -0.026608996093273163f, -0.1589825451374054f, 0.18037714064121246f, -0.2289210706949234f, -0.18382373452186584f, -0.11980674415826797f, 0.06729336082935333f, 0.024805406108498573f, -0.17566096782684326f, -0.2633415758609772f, 0.7788566946983337f, 0.09690206497907639f, 0.2736267149448395f, 0.09263955801725388f, 0.14894059300422668f, 0.17588084936141968f, -0.22379550337791443f, 0.1699560135602951f, 0.05418119952082634f, -0.015659751370549202f, -0.2953712046146393f, -0.15104785561561584f, -0.049892280250787735f, -0.09994509816169739f, 0.3068481385707855f, -0.018224555999040604f, -0.22816124558448792f, -0.03477541729807854f, -0.10959182679653168f, -0.004836355801671743f, -0.09628550708293915f, 0.1724792867898941f, -2.436239719390869f, -0.20037460327148438f, -0.3049732744693756f, -0.38144150376319885f, 0.05687548592686653f, -0.19956763088703156f, 0.09837540984153748f, -0.15616674721240997f, 0.03363461419939995f, 4.573915004730225f, -0.03017648681998253f, 0.013971145264804363f, -0.012585343793034554f, 0.1807055026292801f, -0.08425652235746384f, 0.05267421901226044f, 0.20174844563007355f, 0.1879478394985199f, -0.12381034344434738f, 0.16823002696037292f, 0.10779183357954025f, -0.029370225965976715f, 0.15130409598350525f, 0.11257899552583694f, 0.300432026386261f, 0.4003460109233856f, -0.3424386978149414f, -0.23498888313770294f, 0.1844121217727661f } };
